87 100
, -0.03833252 0.26245815 0.65181756 -0.25294128 0.31397703 0.7153246 1.1490948 -0.035161786 0.15411082 0.07944236 0.17509711 1.5976835 -0.20109956 0.5386319 -0.15382351 0.23050824 0.88815564 0.34096158 0.032498345 0.092299625 -0.10627158 -0.102345616 0.06085113 0.229355 -0.15416034 -0.010375115 0.053549126 -0.11290742 0.11580512 -0.043663315 -0.13050763 0.57722807 0.093427025 0.01104533 -0.0027312727 0.06940884 0.1630006 0.0803033 0.4678041 0.17106327 0.11803208 0.27565712 0.5954714 0.5713735 0.40598774 0.22389232 0.9687584 0.049060266 0.5333621 1.196374 -0.14619118 0.3573941 -0.1858376 0.53045857 -0.15183876 0.45575103 -0.037206486 0.24891421 0.6386582 0.18919966 0.31235808 -0.31226254 -0.10270248 1.3034523 -0.0004555559 -0.031140888 -0.08105216 0.33409873 0.6108773 0.13480458 0.512094 -0.117111586 0.32912803 0.06392638 -0.35272148 0.6994938 0.53088707 0.064573765 0.3194808 -0.27845418 1.4831187 0.04267984 0.33994684 0.039454043 0.054671396 0.0011834386 0.692322 0.65654546 0.299109 0.40086004 0.0020579726 0.46012396 1.1179321 -0.04494621 -0.18144973 0.21596988 0.7720746 0.32326266 -0.057652015 0.12542234
. 0.011948677 -0.024650423 0.16693652 0.22466832 -0.30081624 0.42904833 -0.046875946 -0.16398926 0.32189867 0.41345572 -0.081947 0.13064422 0.96112305 0.501174 0.19580764 -0.083527446 -0.04336831 -0.09281521 0.82018673 0.24580193 0.057197735 -0.1307728 0.06434984 -0.037032742 0.7758096 0.11836654 -0.013417579 0.41819802 0.5870421 0.16158374 0.20256853 0.3259679 -0.25698134 -0.036592197 0.042395353 -0.071339644 0.76134294 -0.02788459 -0.120730184 0.17135602 0.17419402 0.12313091 0.5083876 0.074945554 -0.20513436 0.8686494 0.04965984 -0.1700469 0.086217314 -0.088849336 -0.08305782 -0.13250282 0.17546298 0.5267815 -0.20366971 0.35662067 -0.091115795 -0.013995149 -0.10664481 -0.3561971 0.083215766 0.27733687 0.2131099 0.14243726 0.092333905 0.1671056 -0.06423412 0.58452857 -0.08384161 0.17775157 -0.08215025 -0.029908452 0.9811993 0.002177906 -0.27126607 0.10854576 0.028703926 0.05349097 0.19087897 0.32734218 0.16481951 0.2802964 0.15934709 -0.061194647 0.29606348 0.020247098 0.0046966877 0.081947 0.23398203 0.07456622 0.27463654 -0.02894209 -0.16204329 0.14558074 -0.058343057 0.033114012 0.1935252 -0.13664326 -0.12883928 0.22670814
and 0.085269295 -0.08113899 0.054661274 0.005891334 -0.024237558 -0.12806062 -0.072469205 0.13978991 0.12735865 -0.15030299 0.2794247 -0.044837587 0.1411461 -0.16846189 0.058599126 -0.1481656 0.07718946 0.009500818 0.13155867 -0.068911366 -0.038367394 0.32804158 -0.074846506 0.041789096 0.063624755 -0.096843414 0.30317175 0.08984043 0.002061184 0.21101452 -0.03565868 -0.23438932 -0.096584104 -0.0713143 0.0011689585 0.22648126 -0.0943647 -0.04375007 0.26563337 -0.066052094 0.066243626 0.039185073 -0.08729805 0.003925872 0.25405475 -0.06512529 0.12976919 -0.09804095 -0.24006838 -0.018363403 0.08133137 0.086762525 -0.013178176 0.044004675 0.2185525 -0.08475273 0.061122477 -0.04155986 0.095327675 -0.1266581 -0.21396957 0.020874605 0.16385397 0.19733126 0.097333945 0.05344326 -0.059208717 0.2739312 -0.020873 -0.00025118142 0.08241187 -0.15685585 -0.12812588 0.020193016 0.4358821 0.025098508 -0.06264423 -0.07506988 -0.11041105 0.09971127 -0.00036958742 0.04775608 0.25126097 0.023483293 -0.09521592 0.034637254 -0.040013142 0.0246382 0.047728755 -0.09357401 0.028226506 0.23936398 -0.072861746 0.01072546 0.15455234 0.15810162 -0.11015684 -0.062993474 0.5489387 -0.069899164
choose -0.026766026 -0.03485449 0.12563224 0.16098095 -0.007679809 -0.109517895 -0.15499786 -0.046707876 -0.123456456 0.035919722 -0.08482464 0.00669047 0.07043997 0.20595767 -0.111411534 -0.085479334 -0.12322976 -0.14668293 -0.021599412 -0.046787057 -0.032657042 0.010437321 -0.08570284 0.21254815 0.0525449 0.029328508 -0.007549804 0.029021645 -0.0028478247 0.22109118 0.05074654 -0.17602538 0.013923598 0.004854335 -0.10848522 -0.0026760017 -0.10177817 0.004889834 -0.11952651 0.04177655 -0.08174132 -0.013303147 0.049134098 -0.00692313 -0.064084984 -0.1609408 0.07341506 0.11064877 -0.0016551932 -0.05038402 -0.009803868 0.10376313 -0.051316828 -0.16630301 0.14944412 0.103074975 -0.021950815 0.15037903 0.2796534 0.12945388 0.0007911941 0.048485167 -0.02026049 -0.07777426 -0.05720877 0.1110728 0.016884424 0.025435781 -0.017549256 0.039587274 0.24177933 -0.019368652 -0.1492342 -0.110360555 -0.22912128 0.007377342 0.18440858 0.02240573 -0.094397955 0.10432226 -0.17408587 0.022916498 0.0949528 -0.02595952 -0.024721595 0.048711263 0.10520286 -0.08297443 -0.044590764 -0.06528595 -0.05651222 0.03375705 -0.044451535 -0.02940936 -0.11838334 -0.0973235 -0.103178285 -0.1223996 -0.08992733 -0.022755982
essentially 0.0061797877 0.024200099 -0.009055684 -0.059714835 -0.05595162 -0.088228524 -0.10687736 0.017173469 0.0494131 0.0806638 0.11149898 0.05505722 0.17908797 0.060980488 -0.035923865 -0.0040427228 -0.0375056 -0.13672899 0.17352653 -0.006680213 -0.06308339 -0.0018952149 0.19384599 -0.06084293 -0.007743581 0.11477919 -0.10615342 0.025419522 0.13163626 0.001381137 -0.05999798 0.0682821 -0.013929681 -0.024615746 0.19358626 -0.11617138 0.03554712 0.15202722 0.21574435 0.11740868 0.1188023 0.07008938 0.08989917 -0.0855323 -0.123155825 0.22667994 0.013969414 0.010716912 -0.035670556 -0.07067192 0.055076312 0.4634334 0.090887554 0.20578152 0.20109662 -0.025160693 0.064709656 0.016515316 0.16373776 0.101393096 -0.059542954 0.017412808 0.18834026 0.027040137 0.37465632 -0.10701548 -0.024461389 0.08152701 -0.037723742 0.15602075 0.17496796 0.012881096 0.07460992 -0.08495438 0.011604056 -0.11056607 -0.00939011 -0.11418307 0.18902896 -0.045413602 0.11047623 0.13233335 -0.049648777 -0.07109312 0.02336374 -0.067114405 -0.115501665 -0.080925934 0.048595518 -0.024768569 0.3525879 0.22623956 -0.0065154647 0.08195461 0.18705645 -0.06253565 0.1699449 0.06610167 0.10579852 0.011852565
is 0.36490816 -0.080742285 0.31279445 -0.037417028 -0.1770471 0.26051566 -0.010251016 0.15258534 -0.058285125 0.8780097 -0.21517883 0.41107485 0.39700556 0.24650961 0.119586855 0.04122608 0.13684493 0.11235846 0.2389523 0.59509283 0.11278311 -0.010831857 0.5400211 -0.0268866 0.09950082 -0.053317726 -0.04132234 0.4842682 0.4654506 0.051845882 0.13018674 0.73491615 -0.057584558 -0.14684124 0.05499025 0.20965342 0.88028204 0.37738943 -0.22307336 0.06808183 -0.02557063 0.29361716 0.4895527 0.20762727 0.2970505 0.906248 -0.1062095 0.19217561 0.22095765 0.16293561 0.00988929 -0.05917103 0.021432877 0.8850422 -0.25547105 0.2628192 -0.02412711 0.14986809 -0.050804816 0.16290429 0.17513166 0.18090358 0.3060192 0.46857986 -0.1477338 0.08638136 -0.07769587 0.4137037 0.2940998 0.11225832 -0.3305623 0.06373933 0.2312083 0.019029034 -0.078526326 0.4658168 0.23315604 0.15226911 0.7402203 0.28810477 0.5517286 0.18318988 0.022615228 0.06618658 0.015470065 0.10260077 -0.12159782 0.09445176 0.66965276 0.3124775 -0.01848943 0.036654677 0.5391878 0.24929242 -0.10387169 0.13585278 0.5723874 0.15115204 -0.15716189 -0.13179548
language -0.06623577 -0.043734036 0.15351392 0.11195945 -0.080197245 0.21457024 -0.07469366 -0.02662524 0.21941492 0.084851585 -0.020884408 0.08501376 0.15385242 0.09242285 -0.009442119 -0.0017110187 -0.080880865 0.0009079549 0.22183226 -0.05785742 -0.038118683 0.19042338 -0.07073225 -0.05137214 0.09167414 -0.008856031 0.05005885 -0.017531423 -0.013676013 0.35392413 -0.053472362 -0.04346756 0.066274375 -0.04959002 -0.20723182 -0.060734317 -0.011983986 0.015593901 0.07156325 -0.052738022 0.113598466 0.00778229 -0.038448967 0.03235678 -0.02469825 0.15216304 -0.060230955 0.09534787 0.17256874 0.09785187 0.05381732 0.11439447 0.06578963 -0.17019959 0.14245535 0.272595 0.08928665 0.18287691 0.07825954 0.042138975 0.06160479 0.043216404 -0.004183584 -0.0019887625 0.055203762 0.04313118 0.042555224 -0.18815285 -0.07793402 0.09114514 0.13267659 -0.0029345262 0.08619097 -0.042239588 0.2459077 0.060062047 0.053968728 -0.13404948 0.19314909 0.2489497 -0.044846773 -0.16568683 0.13808173 -0.07815055 -0.018403005 -0.06817085 -0.042334784 0.06050414 0.12437079 0.04377605 0.057837315 -0.10376668 -0.003035829 0.06891191 0.17363417 0.29021698 0.031114394 -0.102228016 0.18989125 -0.0092611145
never -0.045275986 0.23223856 -0.032786768 -0.02274573 -0.04895369 -0.011211314 0.018301763 0.021994755 -0.017784491 -0.14170463 -0.071628936 -0.07683721 0.07709945 0.30747986 -0.0039919354 0.05012218 -0.10215816 -0.028338235 0.035540722 0.070817016 -0.019601017 0.020653402 -0.20049374 0.44404888 0.18367581 0.27575284 -0.08130432 0.19579062 0.14624083 0.48729348 0.10070182 -0.13429603 -0.070832685 0.03305064 -0.14115687 0.0155409 0.27137637 0.050590325 -0.11856009 0.41105375 -0.106161535 0.04721166 0.26233685 -0.010956474 0.009981108 0.10254757 0.25456136 0.10478459 0.08747724 0.12145791 -0.15557955 -0.02473226 -0.12379586 0.17843953 0.0031020553 0.07580879 -0.20628023 0.00019422817 0.14802818 0.24321543 -0.04507323 0.07298259 0.14819038 0.021678021 -0.27047437 0.03149841 0.10556357 0.22548614 -0.051549036 0.14758085 0.18185197 0.20975637 0.040382598 0.043834526 -0.2700519 -0.005058753 0.21517678 -0.020677462 -0.13997668 0.05485439 0.16897283 0.047523238 0.12162556 -0.05111827 -0.1157157 -0.044484254 -0.053072196 -0.000499809 0.051681027 -0.031520378 -0.23331656 0.13627924 -0.03877964 0.19150385 -0.30543542 -0.29151025 -0.06818809 -0.0037609222 -0.029414842 -0.07468646
non-random -0.07489311 0.08647706 0.059447616 0.13705255 -0.0338324 0.00097129366 -0.0064877532 -0.04203865 0.5148664 -0.22628966 -0.05589987 -0.03305975 0.49882478 -0.01358652 -0.015502764 -0.03757635 -0.021027127 -0.09680471 0.40993357 -0.01749907 0.04469429 0.21707293 0.2415572 0.07451923 0.2354062 -0.05604812 -0.05106993 0.11113527 -0.13246736 0.0604841 0.045355275 -0.003120584 0.011059214 0.026361572 0.08084452 -0.07780845 0.03579847 0.10387627 0.24293612 -0.14221479 0.362453 -0.15316954 -0.10900685 0.037543233 -0.0739015 0.07925164 -0.050383165 -0.12120748 0.15256968 -0.010274081 0.5768438 0.13093697 0.04041432 -0.08057141 0.48198012 0.34576425 0.19041707 -0.18320313 0.009858355 0.057848644 -0.10302269 -0.0717184 0.0529367 0.02406025 0.35917494 0.05654099 -0.03699743 -0.16829468 -0.11161642 0.161065 0.27739945 -0.031998415 -0.03357209 -0.05364541 0.4285425 -0.012064863 0.056592397 -0.018210718 0.18098007 0.30466795 -0.11764599 -0.018015727 0.3225716 0.053660486 0.055597328 0.10038243 0.10484958 0.06438 0.060502246 0.074503444 0.40147978 -0.06233766 0.08049601 -0.07634528 0.41049576 0.20913513 -0.0928968 0.09759417 0.3218213 -0.116757825
randomly -0.10614144 -0.012190685 0.029335102 0.14218383 -0.009990246 0.1758399 -0.0818402 0.07712986 0.03225291 0.026703723 -0.02787983 0.15916061 -0.19479376 0.08854801 0.083089076 -0.008831431 -0.17911534 -0.05439527 -0.030126194 -0.034292344 0.029988525 0.09580936 0.08491281 0.07382466 -0.03240299 0.061266888 0.18367182 -0.1463566 -0.024955584 0.18364537 -0.02334062 0.045819778 -0.054009613 -0.037117485 -0.028834438 0.037042737 0.04131184 0.08893653 -0.17890064 0.21127804 2.2061497e-05 -0.003965851 0.0058537093 0.024446001 0.15671055 0.09026114 -0.014859816 0.15761799 0.14023556 0.0011210826 0.00254128 -0.08096236 0.084743746 0.07340266 0.037050996 0.09364783 0.055634394 0.11526664 -0.04305706 0.10882518 -0.07016771 -0.043861162 -0.14012383 0.19945972 0.10298653 -0.09780217 -0.0069654505 -0.11183564 -0.084195755 -0.01079786 -0.042002764 -0.05063184 -0.04095645 0.069332175 0.162527 0.05103127 0.033320926 -0.0771352 -0.020175064 0.120931044 0.0992309 -0.058245525 0.2084887 -0.020817706 -0.027452001 -0.038180303 -0.0777848 -0.098419756 0.23887026 0.04904896 -0.008700567 0.12817127 0.09170704 0.1781344 0.20261468 0.17467932 0.08148345 -0.03385663 0.012302605 -0.034718346
users 0.03031533 -0.05140678 -0.026127359 -0.0877733 -0.025960738 -0.038052063 0.0042619575 0.04939884 -0.039660007 0.07892266 -0.0184201 -0.010971918 -0.12465679 0.10539882 -0.08228993 -0.019292954 0.041358072 -0.033320688 -0.06695177 0.09288613 0.01011327 -0.05881763 -0.017167041 0.053631 -0.08104461 0.21604161 -0.0900288 0.02282511 0.10251604 0.30528894 0.1633474 -0.094592884 -0.032379918 0.03179163 -0.06539645 -0.09432294 0.1188955 -0.084387906 -0.003973117 0.21204466 0.036981188 -0.0032480333 0.004791585 0.0068858587 0.037031528 0.005174318 0.13829148 0.11028689 -0.0013066363 0.008865195 -0.06875526 -0.08568434 -0.06309926 0.1837039 -0.07114466 0.053780474 -0.09470269 0.050671674 0.16673161 0.120151706 0.056174073 -0.07255896 0.13886711 -0.028589096 -0.1259655 -0.033215277 0.2174905 0.12510268 -0.03477542 0.051445045 -0.08268958 -0.0062197363 -0.09709442 0.047803644 -0.16507544 -0.05762755 -0.0028378644 -0.044862844 -0.03682041 -0.045790125 0.24174438 -0.0032807284 0.14349997 0.03672027 0.037397135 0.03191556 0.12974699 -0.026715 -0.015952379 -0.040284 0.14470458 0.035719093 0.0013233854 0.0645338 -0.16399616 -0.029203683 0.10421947 0.03310746 0.018671962 0.008407861
words 0.01209803 -0.10840503 0.030428816 0.18245153 0.10988946 0.0055695535 0.008827044 0.121357076 -0.05484864 0.03415969 -0.10925485 -0.08220043 -0.10094022 -0.01247702 0.10518592 0.0027434225 -0.033071216 -0.07921404 -0.14188462 -0.0008038533 -0.03585902 0.042961933 0.013156245 -0.03947457 -0.06357466 0.05006892 0.12493359 -0.07397791 -0.030455388 0.2778878 0.11006943 -0.1223199 -0.0108474 -0.041991554 -0.008422225 0.04254689 0.061995007 -0.06017993 -0.10664428 0.011516238 -0.014870623 0.008297517 -0.018111357 -0.06010854 0.014819412 0.0039497484 -0.05683995 0.24632876 -0.0730134 -0.08032116 0.025922991 -0.11904985 0.048921335 0.010687094 0.0328573 -0.0024647447 0.014152263 0.064600326 0.19801396 -0.02471562 0.050368723 -0.020924572 -0.057176054 0.10928033 0.09013236 -0.00043797152 0.03376971 0.06676144 -0.00960551 -0.04713658 -0.05726735 -0.024537267 -0.050081026 0.09674539 0.15070844 -0.010366898 -0.0026951225 -0.012396623 -0.062659316 0.2177986 -0.053814515 -0.084450245 0.1430856 -0.009520191 0.0056809876 -0.0126497615 0.15708318 0.014212304 -0.0662648 -0.0011801275 0.07410196 0.03504362 -0.016393578 0.024666017 0.12582491 0.14566642 -0.12743701 0.037802823 0.008294537 0.0046094814
a 0.15714318 0.27896684 -0.09937801 0.064821035 0.18924738 -0.08535902 0.08429955 -0.06270641 -0.0922605 0.25833195 0.13376413 -0.11471634 -0.07691809 0.0399725 0.11262045 0.1669077 -0.04352584 0.17811097 0.103914686 0.07907942 0.038868684 0.22287251 0.11073279 0.035114247 0.04796359 0.032744993 -0.022335961 -0.13701881 0.021948745 -0.08078155 -0.013598579 0.433803 0.02259874 0.1675255 -0.020359896 0.0047337986 0.09016741 0.061719112 -0.1366506 0.2090297 -0.051959377 -0.056251902 0.26511034 0.17925909 0.2393839 -0.040884912 0.50310093 0.29891443 -0.031801578 0.2133499 -0.023498483 -0.05247978 0.07683726 -0.07101657 0.06335035 0.01350984 -0.032095756 -0.08623444 0.07376405 -0.12327312 0.13254811 -0.02184921 -0.06976436 0.08431556 -0.06269607 -0.015424639 0.030072633 0.09190657 0.1544521 -0.018796355 -0.022485858 0.40794036 0.01519814 -0.02631794 0.0088771675 0.21372873 -0.0008578366 0.015605885 -0.12742949 0.06306944 0.07999128 -0.06713033 0.117321305 -0.06298293 0.021795625 0.038925134 0.3557953 -0.13494585 0.124777615 0.12403639 0.06509775 0.029887006 -0.11473834 -0.022089707 -0.052994657 -0.11137533 0.0507754 0.027369116 0.20423806 0.0013209177
hypothesis -0.0013122386 0.7010604 0.14155252 0.061358135 0.075035095 0.16789441 0.45623946 0.049260743 -0.15456107 -0.15614587 -0.009524117 0.13968912 -0.084764175 -0.13294828 -0.012853647 -0.017286865 0.12403963 0.35587844 -0.051261928 -0.012879025 0.023746628 -0.03409055 0.026653053 -0.0004281239 0.07772584 0.065658994 -0.019937789 0.13870136 -0.06446986 0.049412426 0.00768233 0.23946655 -0.089480944 0.320699 0.022924103 0.0018627046 -0.11529096 -0.13060728 0.7483946 0.50392216 0.16909997 -0.1911805 0.07606036 -0.08338993 0.47846827 -0.026783314 0.2286662 0.5394325 0.3420635 -0.19144687 0.06819294 -0.1883158 -0.023785565 -0.28641492 -0.10737689 0.59196264 0.23291005 -0.13216259 -0.13815203 0.10420216 -0.0908523 0.047774635 0.25430277 0.1453028 0.047834124 0.0010690737 -0.04772056 -0.18787068 0.09108254 -0.031311546 -0.09395777 0.71153516 -0.19557826 0.0154963005 0.075148456 0.1522263 -0.089360304 0.008507129 0.042952627 -0.0051786825 0.20584865 0.21980153 0.28630322 -0.07731355 0.0029906149 0.070971385 0.14202516 -0.30435017 -0.011714655 -0.05961346 0.10121708 -0.14044341 -0.14995061 -0.04853058 -0.022130977 0.45521852 0.06770578 0.059891265 -0.06805825 -0.08808406
null -0.06812031 0.37204954 -0.011799133 0.20397294 0.25073183 0.055700686 0.086304344 0.13041209 -0.040949155 -0.090385094 0.17693187 -0.0020978553 -0.074031726 -0.056698743 0.29894367 0.3147054 0.026709333 -0.07666034 -0.1383146 -0.12969111 -0.020399367 0.17425075 -0.086251274 0.073304795 -0.026897388 -0.09587514 0.027805038 0.12524807 -0.048865803 0.15633695 -0.105598055 -0.15157217 0.021374408 0.1516889 0.034033287 0.38148344 0.052924007 -0.09946952 -0.09154083 2.2085558e-05 0.09247211 0.01581436 0.2601914 -0.128924 0.11655447 -0.07116098 -0.1443235 0.2651632 0.14977846 0.18334378 0.20885438 -0.10847278 0.07341023 -0.060661748 0.2581784 0.10852792 -0.057681274 -0.06852471 0.06590882 -0.10495485 -0.10040875 -0.05609713 0.17545173 -0.042174283 0.0640616 -0.014374712 -0.034982488 -0.0015088998 0.059580706 -0.12013575 -0.12275386 0.32316616 -0.02061662 -0.05001295 0.3566227 -0.12644708 0.07281444 -0.08254159 -0.06399573 0.22336571 0.06652501 -0.08791253 -0.13296264 0.0087832315 -0.008306988 0.14597599 -0.07418858 -0.11719372 -0.17459057 -0.064916216 -0.017900905 0.08803232 0.047938112 -0.117872514 0.21718717 0.30603826 -0.2551316 -0.1684651 -0.02206951 0.16650853
posits 0.043860797 0.09864567 0.020438418 0.22200376 -0.15722091 0.18536021 -0.1838008 0.1665411 0.060329143 0.05472812 -0.02809929 0.024423903 0.087056816 0.049734965 0.13656855 -0.058048505 -0.007831622 -0.01637633 0.0049363635 -0.05500565 -0.031860758 0.07249084 0.0979793 -0.090515815 0.018752582 -0.021802228 0.12666012 -0.020456823 0.022605326 0.10977919 -0.010999127 -0.21007143 -0.009602692 -0.0024620658 0.20957187 0.03441952 0.03977428 0.04217016 0.15976934 -0.0051600924 0.2148861 -0.054224383 -0.11314208 -0.07935797 0.12172962 0.1526907 -0.23536152 -0.08740992 -0.012658344 -0.16382432 0.23903263 0.13203062 -0.045177087 0.12136456 0.14570437 0.04439948 0.13112885 -0.025081277 -0.0333202 0.03933446 -0.018080492 -0.047920395 0.012545427 0.03620771 0.35409975 -0.05490861 0.037380464 0.02783329 -0.09702323 0.03300706 -0.039612494 0.11320625 0.1023662 -0.04664871 0.1376398 0.093266636 -0.018319681 0.07589725 0.051312327 0.1598939 -0.21162243 0.20179038 -0.059581332 0.028447632 -0.007906855 0.0806083 -0.17386273 -0.009255554 -0.059708953 -0.039965115 0.27179417 0.26755765 0.06720132 0.019670608 0.09274974 0.16465002 0.07012293 0.08891136 0.011042513 0.13870424
randomness 0.07870872 0.11089409 -0.084692515 -0.026192673 -0.13327795 0.032004792 -0.113446236 0.11476437 -0.059701975 0.01811484 -0.09185935 0.03680797 0.0043423777 0.15236564 -0.07904487 -0.10322515 -0.07449666 0.0151359765 0.014106121 -0.026638562 -0.002187539 -0.024707135 0.024637721 -0.055827875 -0.026678786 -0.03672905 -0.014457986 -0.006583773 -0.113981254 -0.11410658 0.0065640733 -0.0856745 0.05410621 -0.10138237 0.17358461 -0.056537665 -0.019137762 0.045892693 0.09328339 -0.009511524 0.042253606 -0.056365024 -0.077287234 -0.0038886527 0.0756848 0.18339542 -0.017937178 -0.08169845 -0.015769964 -0.15266262 0.14293219 0.09355284 0.050930154 0.109834366 0.10993489 0.020519188 0.17286347 -0.09195285 0.02753371 0.18858682 -0.00035489083 -0.025065828 -0.05363843 0.069256075 0.1663 -0.0018373661 -0.0056564244 -0.110274024 -0.010935014 0.09816745 0.1387385 0.045689307 0.08195166 -0.047936317 -0.053461123 0.10657255 0.08412616 0.21704131 0.015277556 -0.0015253023 -0.10540345 0.12600403 0.053842604 -0.013939108 -0.049832046 -0.062374078 -0.041897494 -0.103147104 -0.10246181 -0.012151072 0.24524261 0.08655608 -0.0018160855 -0.08963276 0.1085465 0.06967288 0.053369645 0.107302 0.010340008 0.062177118
statistical 0.043774866 0.19112217 -0.038212407 -0.09732312 0.11873284 -0.012770391 0.0070752106 -0.016672075 0.009123322 -0.052492764 0.0773522 -0.026837409 0.039253473 0.043179397 -0.017051764 0.00626559 -0.016607268 -0.114471756 -0.07895033 0.010688944 -0.06423929 0.17713062 -0.11326874 0.18920122 -0.04435783 -0.06743374 0.0022585504 0.006245756 0.042798456 -0.016122216 0.015511988 0.13166319 -0.035407275 0.051339593 -0.016296139 -0.001341135 -0.019518986 -0.08991501 -0.12031472 0.034605276 -0.036856182 0.018248593 0.08760774 -0.078816645 0.12532231 -0.059634343 0.17447424 0.12183317 -0.046658076 0.1541111 0.021276684 -0.09899908 0.087730944 0.005057081 -0.017398652 0.042390935 0.0036793954 -0.013327502 0.032486152 0.02242619 0.01282788 -0.018564522 -0.034779347 0.09366191 -0.017799122 -0.016523752 -0.0025098324 -0.036860727 0.019930577 -0.039742567 -0.056366406 0.30980235 0.03344874 -0.030937605 -0.08672964 0.039353497 0.101454645 0.04569348 0.01983929 -0.03724429 -0.015841627 -0.028315078 0.048386835 -0.044248927 0.08168954 -0.035719767 -0.029916052 -0.044935297 -0.053515535 0.09178109 -0.1561996 0.0053160456 -0.056189157 0.036218707 -0.10660231 0.024672031 -0.116407864 -0.028979983 -0.0550375 -0.011302672
testing -0.08758451 0.507661 -0.10317215 0.06582943 0.2882526 -0.1378163 0.4011185 0.04833977 -0.14316642 0.007892611 0.35969424 -0.12769572 -0.010969042 0.11776741 -0.1212395 0.14369701 -0.13629422 0.015037057 0.0059371833 0.004923678 -0.041948587 0.056934863 -0.08402867 0.017803567 0.085686475 -0.08236773 -0.062210515 -0.028996956 0.05374766 -0.086040966 0.043423764 -0.06887795 0.09859876 -0.0578141 -0.09789222 -0.16615738 -0.041273277 -0.17910443 0.17598343 -0.04010911 -0.01664904 0.0060427864 0.36902395 0.14835949 0.12106129 -0.09450669 0.22193025 0.33509165 0.19438963 0.30719343 -0.0031059862 -0.11536058 -0.062614515 -0.028367896 0.082141705 -0.01578762 0.23090154 -0.111962594 0.14554946 0.27848282 0.09905607 0.012636803 0.021780103 -0.19751944 -0.13032492 -0.004214715 -0.04867189 -0.1369734 0.3985651 0.013987184 -0.29309088 0.5676242 0.2013502 -0.0017706767 -0.20785965 -0.071082495 0.23168157 0.058401756 0.03672896 -0.07232408 -0.022144021 0.39151052 -0.25151217 0.05489145 -0.021951841 0.017148754 0.046190508 -0.013881035 0.045532145 0.0002961181 -0.025535824 0.042857055 -0.1068978 0.057321724 -0.13978581 0.2394309 -0.24480419 0.002576392 -0.11701279 -0.038264457
uses 0.011128279 0.5238714 0.024223367 -0.027432337 0.2467523 0.015520712 0.26030505 -0.050854154 0.011300266 -0.04836852 0.10317893 -0.010146437 -0.037945542 0.06929668 -0.036521114 0.10514764 0.1031012 0.027445223 -0.018595865 -0.076889046 0.00585991 0.17687544 -0.11940333 0.22873418 -0.08133138 -0.03970692 -0.04809753 -0.08203653 -0.07340085 0.030849878 0.032505054 0.14018248 -0.031086957 0.0046525416 -0.012986104 -0.07467173 -0.02781147 -0.12870575 0.016998915 0.10832167 -0.07979898 -0.02751001 0.08105239 -0.017023098 0.31892562 -0.010699129 0.2823755 0.26807034 0.033834014 0.29066756 0.04507971 -0.12496002 0.015550603 -0.02404347 0.043824457 0.2448004 -0.066091016 -0.03207763 0.02995538 -0.06963554 -0.045951683 -0.0044408813 -0.0038244822 0.09455019 -0.047298774 -0.02886474 -0.035379447 -0.008485216 0.0019835772 -0.043551683 -0.1359453 0.3861086 0.14455077 -0.09509313 -0.042625044 0.09242942 -0.07823634 -0.08593319 -0.064140625 -0.13312131 0.031809438 -0.12515892 0.09919142 0.005140841 0.026757946 0.13721198 -0.023558294 -0.051706787 0.01660651 0.1250607 -0.1626245 0.03464432 -0.13769174 -0.010246257 -0.090013295 0.14041243 -0.024222575 0.016878182 -0.024648882 -0.041253414
which -0.049759742 0.32621464 0.06633646 0.1909897 0.22599192 0.31733006 -0.056738824 -0.0053556045 0.008150882 0.18524815 0.037218053 -0.021250498 0.070642136 0.14013971 0.2354029 0.062258538 0.06658718 -0.26219025 0.00066401745 -0.04276174 -0.056122266 0.2594024 -0.08599168 0.017614456 -0.0397449 0.05271349 -0.026001237 0.07792565 0.08989406 -0.0043549966 0.10924407 0.12303463 -0.06002124 0.13108847 0.23165458 -0.00022116036 0.011299618 -0.0774926 -0.08853421 -0.21875234 0.030594204 0.10961226 0.15570039 -0.040619116 0.2130409 0.12676266 0.23219624 0.11132278 -0.16087127 0.26487038 0.016822938 -0.030488074 0.2563766 0.1465208 0.2062059 -0.15977019 0.033367656 0.00032985603 0.10385731 -0.022005832 0.012142164 0.058481395 -0.0041310103 0.25472614 0.2059545 -0.13127603 -0.038698893 0.06979916 -0.0068972944 0.11959234 -0.033197112 0.32091942 0.2683975 -0.08665579 0.10683254 -0.14824104 0.03458003 -0.0048528877 -0.12168572 0.039561987 -0.06197459 -0.097362496 0.08208498 0.036523197 -0.048736576 0.05516803 0.1038664 -0.008600775 -0.08978899 0.048759107 -0.06427108 0.0651741 -0.04250778 0.006701147 0.0029232267 -0.09542129 0.11113577 0.020594921 -0.12500402 0.18854137
at 0.18224499 -0.069740534 0.08957932 -0.057797 0.16490191 -0.13104765 0.17899907 0.00475574 -0.020482782 -0.003973562 -0.079616696 -0.018345784 0.083213285 0.04778636 0.08512747 0.12757498 0.033562604 -0.0900185 0.021760954 0.04894274 -0.046824694 -0.053979687 0.09077651 -0.1031767 0.081481114 -0.039054573 -0.053716663 0.028210837 0.020706682 0.031091375 -0.04628698 0.060008615 0.038577333 -0.12217363 -0.033025872 0.07529222 -0.02706153 0.04830723 -0.19629242 0.08724509 0.064684175 -0.1263781 0.053983983 0.27502754 -0.03317114 -0.05653469 0.14351873 0.0035803872 0.02523684 0.021672577 0.11381727 0.1071056 0.0837971 0.05247551 -0.0610788 -0.109550126 -0.038803402 0.23248512 0.1572563 0.10175856 0.119370066 0.072968006 -0.053017437 0.06455128 -0.097197466 0.040156815 -0.025459409 0.038369857 -0.09298245 -0.10313249 0.2200495 0.06709206 0.034876734 0.1177008 -0.08459975 -0.0054607745 0.097229876 0.3683103 -0.08352781 -0.01905964 0.113467395 0.1503761 -0.103732355 0.025881147 0.14594403 0.014135362 0.07747463 -0.040345617 -0.08430742 -0.061735153 -0.027204264 -0.012202054 0.09858331 -0.08361751 -0.049972687 -0.07623171 -0.034648284 0.038868822 -0.082376644 0.027600028
be -0.033363145 0.26483202 -0.09697754 0.093663886 -0.14609568 -0.08802459 -0.17033279 0.07986974 -0.09025384 -0.08304614 -0.07322207 -0.08729082 0.14772265 -0.11308842 0.03602872 0.029321838 -0.057592064 0.038823005 0.045389473 0.0005258353 0.02969259 -0.060313787 0.010431465 0.1300539 0.014382587 -0.007993175 0.08717335 -0.09911224 -0.027888509 0.27876842 0.10011658 0.047595907 0.21531814 0.112538494 0.054920044 0.067640245 0.026165219 0.18107596 -0.003550329 0.07998747 -0.042901512 -0.02534474 0.05721973 0.22330604 -0.2810549 0.11224002 0.009734187 0.05680183 0.05836461 -0.03097407 0.0047734636 0.024082826 0.07441864 0.18797852 0.028926412 0.1958322 0.18033801 -0.098185584 0.036901146 0.17228478 0.110399224 -0.056713462 -0.012507665 -0.026557814 0.16054386 0.06588693 -0.022973005 0.16550544 -0.13506842 -0.028070174 0.30209672 0.2275018 0.14129876 0.1802277 -0.16515838 -0.0362398 0.037655506 0.032595456 0.09647011 0.06583942 0.30609253 0.16482909 0.05179427 -0.065395184 0.04992322 -0.04486568 -0.024141032 -0.06541619 -0.12099008 0.15697013 0.16268817 -0.0872466 0.045934472 -0.025379581 -0.049151175 -0.09771848 -0.09248637 0.035448164 -0.037850723 -0.060602646
corpora -0.037682977 -0.053640205 0.5740937 0.050354406 0.09524093 0.1573903 0.18350308 0.3454929 -0.032978836 -0.15245599 0.12260096 0.21371372 0.060681432 0.029283686 0.017127506 0.05044967 -0.020635255 0.1161609 0.16152523 0.13382481 -0.027717678 0.048083387 0.109078325 0.115193166 0.10297332 -0.044877827 0.012088888 0.27885294 -0.054528516 -0.09146255 0.09913242 0.11032264 0.1921808 0.024585975 0.048188265 0.19429088 -0.07444784 -0.032757655 0.23771821 0.010418935 0.31864643 0.040301844 -0.020432442 0.28796783 0.27705914 -0.12535018 -0.037554175 0.0495543 0.04724793 -0.036348574 0.14469549 -0.08124304 -0.01784634 -0.0932683 0.06477711 0.15799989 -0.079305165 0.10707474 -0.0038258808 -0.10805858 -0.012972929 -0.055803858 -0.041406747 -0.108204775 -0.028897125 -0.027820913 0.0030931015 -0.120226525 -0.086321644 0.011030942 -0.03193885 -0.06670677 -0.005123692 0.02126013 0.120149806 -0.076058134 -0.134318 0.0080623375 0.14186937 0.20385252 -0.028645085 -0.005237266 0.2553002 0.0042786775 0.15091802 0.07366371 0.14826325 0.09080983 -0.039600577 0.017022647 -0.070348874 0.018707816 0.2301117 -0.03601288 0.24584067 -0.061290074 0.01269593 0.042793706 -0.0015709118 0.16814406
hence 0.024282672 0.0057747 0.036591403 0.119909264 0.0066421833 -0.0068731764 -0.18407668 0.013307761 0.064825505 -0.088734716 0.039232433 -0.020027349 -0.09862539 -0.025357218 0.13561118 -0.016951159 0.14465165 0.06706914 -0.08454111 -0.087009 0.03911332 -0.02019061 -0.08617591 0.08907507 -0.027701005 -0.060631268 0.029990776 0.08670143 -0.014798643 0.016947906 -0.15075827 -0.16566846 -0.014853605 0.06475397 0.01819549 0.19203591 0.016663577 -0.106671296 -0.050225623 -0.015021857 -0.07460283 0.090028554 -0.061582632 0.00080605265 0.06909197 0.07940844 -0.012077625 0.0028189644 0.03198432 -0.03813612 0.002125417 -0.14794071 0.043996595 -0.022953082 0.06892206 -0.06548128 -0.042806152 0.02672665 -0.08984027 -0.12980467 -0.037177283 -0.110582665 0.028118523 0.039033502 0.09870447 -0.029052036 -0.047375977 0.09650902 0.020452445 0.038619768 -0.06626903 0.015095368 -0.09906098 -0.006874205 0.22628605 0.050388914 -0.11072238 -0.08540528 -0.05630032 0.2129745 -0.14282244 -0.090861596 -0.015293384 0.020000374 0.13908164 -0.026282078 -0.092659175 -0.030857343 -0.09131044 0.0051889527 0.0780133 0.038508162 -0.06910744 0.043862596 0.13127317 0.12782724 -0.07625328 -0.05292064 0.06003493 0.12224816
in -0.08760503 0.18269412 0.07533702 -0.07164056 0.16336732 0.35799345 -0.123545 0.18709967 0.285639 0.053935457 -0.010110364 -0.17866366 -0.046500105 -0.024474729 0.23509558 -0.022102 0.18983679 -0.10447973 0.04686554 0.12715794 0.06852231 0.037942722 0.059621666 -0.122652024 0.07760862 -0.079676054 0.06118805 -0.04135274 -0.06451143 0.066370636 -0.104492195 -0.27890337 0.052354585 0.14377263 -0.06365541 0.16354752 -0.14525437 -0.14154954 0.21927486 -0.059512936 0.13078204 0.14377147 -0.055537347 0.13619499 0.20820084 -0.1296306 -0.11376607 -0.024846692 -0.079498716 -0.032517817 0.10171126 -0.07986905 0.08625609 -0.04187807 0.07089985 -0.053734064 0.020658338 0.26065144 -0.057310678 0.40591753 0.010611721 0.07748901 -0.016459638 0.09548359 -0.14725552 -0.06436272 -0.030184401 0.022171855 0.13737556 0.22547643 0.20498098 0.09009982 0.02846669 0.045871887 0.08939536 0.26399875 0.4569651 0.4054109 -0.12319097 0.09894799 -0.038409363 0.21427406 -0.023285074 0.09171447 0.01711624 -0.071944706 0.08299629 0.18923011 -0.022141263 -0.02541295 0.046413783 0.01760838 -0.17467885 0.023862628 0.01878781 0.20697652 0.11086194 0.1743739 0.23519993 0.09798032
linguistic 0.027313918 0.055265617 0.124000564 -0.11872654 0.18623962 -0.041544598 0.12794371 0.09192061 0.14944586 0.0027555854 -0.03285955 -0.018190771 0.0018486382 0.050620988 -0.0074843513 0.052364636 -0.08122621 0.07785462 0.07852922 0.046994954 -0.07313229 -0.03223828 0.040743213 -0.027770393 0.04703839 0.0056499327 -0.019408436 0.029242158 -0.024725704 -0.08977724 0.05098996 0.10325814 0.17180257 -0.110805236 0.051941793 0.067081384 -0.027334105 0.014348968 0.09708975 -0.08469622 -0.060723525 -0.055752527 -0.12978376 0.16298625 0.1047034 -0.0090640895 -0.024880754 0.05978787 -0.041266512 0.04917763 -0.031564765 0.13802922 -0.09607425 -0.008194964 -0.083346754 -0.13834329 0.0026421538 0.07911307 -0.014356502 -0.04550902 0.059529472 -0.033932853 0.05531245 -0.0521476 0.079208896 -0.082560666 0.018934142 0.06236884 -0.062371567 -0.04504545 0.050393887 0.13922851 0.022920415 0.14983293 -0.12281607 -0.07809693 -0.09284494 0.24808215 0.23068285 0.24678573 -0.02591559 0.24037084 0.11274076 0.029783847 -0.040520497 -0.021143742 0.06485273 0.11896197 0.005999739 -0.054203022 -0.0397036 -0.014017762 -0.011057199 0.04262787 -0.02136094 -0.12683113 0.11511589 0.04752042 0.08044715 -0.004234514
look 0.28953698 0.034784302 -0.09311488 -0.050527163 0.31068808 -0.13586468 0.04784516 -0.080581516 0.15446715 -0.10934444 0.0054941783 -0.00643224 0.086995974 0.02513394 -0.02545598 0.09699275 0.104606844 0.24091548 0.092377216 -0.1248602 -0.08200293 -0.009347388 0.0021212813 0.0025949166 -0.015792983 0.060198724 -0.11103607 -0.037994783 -0.008289683 0.003732203 -0.07720197 0.048188288 -0.07983269 -0.12922916 -0.021608965 -0.06797724 -0.068253875 0.078027256 -0.19513468 0.12823951 -0.005810783 -0.021951165 -0.06404068 0.24885847 0.096494496 0.11545681 0.23244402 -0.018002283 0.04088296 0.14599396 0.2309092 0.08097149 0.10306552 0.08220537 -0.020201838 -0.18330668 0.013066673 0.09426843 0.2133191 0.11881889 0.0007391628 0.115084924 -0.0028729627 -0.026679294 0.08618726 0.04974031 -0.035117388 0.1117311 -0.04348088 0.032808118 0.42269176 -0.052667685 0.02580426 0.011415947 -0.0073648416 0.027044808 0.059788387 0.18056332 -0.0044062627 0.19788125 0.05562194 0.09614262 -0.13557345 -0.0030227615 0.19580366 -0.03852608 -0.0044766157 0.039906327 -0.16954283 -0.08445778 -0.05112897 0.08093921 0.21303312 0.16629215 -0.039323248 -0.14662056 0.105867445 0.011847008 0.12899356 0.10833859
phenomena 0.04712372 0.097465925 0.044962272 -0.12119805 0.10016423 -0.06578232 -0.03941486 0.056341093 0.25817186 0.011924607 -0.04036065 0.19973433 0.3754731 0.0010166744 -0.06560182 -0.19148923 -0.0024342772 0.10333332 0.6837503 -0.04118713 0.022900375 0.044054337 -0.10849717 -0.0042003165 0.058161516 0.047126055 0.07962465 -0.052543346 -0.010911594 -0.03834778 0.12052012 0.18339166 -0.010445966 0.10830261 0.033192087 -0.10199874 -0.060147714 0.054999076 0.17871751 -0.09739754 0.10488698 -0.054315843 -0.32813877 0.33288044 0.28354126 -0.07154227 -0.07784457 -0.08048058 -0.09141586 0.010018408 0.032387026 0.1628054 0.011335467 -0.081080705 -0.015261599 -0.0512697 0.005242512 0.050093435 -0.12757094 0.14611995 -0.08911911 0.084548414 0.023865014 -0.0018807696 0.15206884 -0.024629224 -0.04546235 -0.052559078 -0.14673911 -0.06105041 0.44964722 -0.07184471 -0.021762453 0.046815187 0.00321012 -0.02634419 0.006361155 0.23583692 0.18553211 0.22557285 0.17312576 0.012010591 0.26305124 -0.042764537 -0.12384207 -0.023710897 0.1456771 0.08667777 0.28173593 -0.047593895 -0.056885313 -0.044087846 -0.017019393 -0.045066886 0.009196179 -0.024542643 0.28152156 0.19276905 0.4742482 0.28767937
the 0.07796693 0.14755078 -0.2144225 0.48453015 -0.10419125 0.09177465 -0.06824366 -0.044128735 -0.06647825 0.19235638 -0.15030535 -0.02587024 0.060691692 0.053475745 0.7321615 0.07959316 0.018741347 0.16243905 -0.041961893 0.27313918 0.016185936 0.18151446 -0.010651484 0.13410906 -0.08836073 0.021686563 0.36051774 0.20725346 -0.08641812 0.026037255 -0.027742444 0.32235444 0.03503333 -0.01594028 0.09966355 0.44971424 0.16740178 0.11165031 -0.016015897 0.05154996 0.023915026 0.02619311 0.36437243 -0.175746 0.26491177 -0.022294737 0.29585648 0.061525498 -0.17365761 -0.05429589 0.043060705 0.05827959 0.08783293 0.05929022 0.24215315 -0.099683344 -0.0772813 0.06427356 -0.02653422 -0.19073747 0.50201386 0.023010079 0.09914033 0.20108138 -0.048826855 0.1209151 -0.071054175 0.19333921 -0.110093094 -0.100833654 -0.05250561 0.116838306 -0.107373536 -0.032440145 0.5795528 0.47210678 -0.16209263 0.037153404 0.04831744 0.34107915 -0.061680887 -0.07584812 0.25000617 0.036745977 0.075629406 0.18388362 -0.14351584 -0.16288577 0.28485087 0.07575303 -0.028035225 0.12564367 -0.3044232 -0.11797189 0.16131738 0.07792504 0.33875334 0.011696957 0.034685086 0.02426775
true 0.08371543 0.15270646 -0.13411991 0.112944074 -0.027955221 -0.03996869 -0.1840018 0.13031988 0.18509637 0.08529881 -0.0012381424 0.019651474 0.13661338 0.17052737 -0.027664067 -0.01804937 -0.02818507 -0.053627696 0.13023953 0.1383042 0.16753437 0.019661149 0.11270139 0.007241964 0.1210173 -0.014716912 -0.0831722 0.040697414 -0.053928997 0.1592681 0.34426144 0.2783227 0.06719149 -0.041050445 0.10560545 0.07488142 0.026509272 0.3298365 0.13850585 0.0899056 -0.037680443 -0.08499508 -0.18575117 -0.0900346 -0.11785238 -0.050472695 -0.016399654 -0.019516861 -0.08364568 -0.050064232 0.053499833 0.24575303 0.0768988 0.14957233 0.31396928 0.19267853 0.13333717 -0.054831356 0.05331707 0.19739535 0.060385503 0.016530547 0.07154494 -0.04398255 0.43865222 0.113639705 0.005596608 0.0432106 0.07293163 -0.036141954 0.31874192 0.028270615 0.10864081 -0.14926301 0.11916105 0.015573269 -0.09577704 0.07664868 0.06034661 0.19702376 -0.08868309 0.06502194 0.15485688 -0.031588018 -0.04346085 -0.07183347 -0.009461662 -0.041625716 0.08668548 -0.044939533 0.3861155 0.102590546 -0.099056266 -0.036808 0.15880498 0.02328504 0.09207882 -0.033875555 0.1077912 -0.07919251
we 0.07304714 0.04695728 -0.02605888 0.18777624 0.33371106 0.24338052 -0.1762946 -0.015340861 0.69088036 0.03300211 -0.12833792 0.19071187 0.06601166 -0.14650978 0.76724577 0.15290035 0.84102 0.15804482 -0.03931624 0.12156781 0.13210222 -0.053474717 0.023276754 -0.0851333 0.1741553 -0.08413572 0.05322586 -0.026866807 -0.09117506 0.021646056 -0.036970563 -0.53961486 0.076865666 0.15643488 -0.057125997 0.001423131 -0.109851636 -0.33815882 -0.08522893 -0.15666305 -0.037427254 0.48030216 -0.00057442585 -0.16555339 0.12793837 0.053123165 -0.13730475 -0.06574031 -0.014552765 0.20985068 -0.07005805 -0.2891313 -0.01921519 -0.16138433 0.07446037 0.050576314 -0.07684714 0.23839368 -0.16578858 -0.09679758 -0.087290324 0.25338113 -0.10065135 0.14629221 0.106854945 0.07661687 -0.00679978 0.19179112 0.045967493 0.1637486 -0.07870244 -0.06754296 -0.25552464 0.16460912 0.60698175 0.07675035 -0.012904486 0.20363982 0.16032791 0.65103966 -0.2033596 -0.021854272 -0.16531682 0.24096033 -0.03138656 -0.0011231657 -0.25880593 0.25274137 -0.03871657 0.10639905 0.23465237 0.028472941 -0.20891619 0.16976795 0.04993957 0.07890319 0.019990407 0.2427531 0.4442526 -0.02188969
when 0.065228194 -0.13858044 -0.044755414 0.04164476 -0.010864973 -0.089733995 0.14874963 -0.08076085 -0.13302018 0.034175474 -0.024510706 0.020379 -0.08881352 0.086447485 0.15911785 0.107061826 0.074301064 -0.056054454 -0.058656767 -0.025051733 0.015422434 -0.0022868773 0.05980572 -0.07378418 0.040529 -0.0116207935 0.14578852 0.12243855 -0.013373391 0.037123457 -0.09113557 -0.07978415 -0.051774193 0.07662199 0.03733087 0.26204246 -0.008078286 0.016466295 -0.033588175 0.06983953 0.039737888 -0.08679335 0.07208822 0.057865605 -0.14053185 -0.014368885 0.024980735 -0.03587443 -0.052570585 0.022153629 -0.07000198 -0.0050052237 0.028813679 -0.07313897 0.06823132 -0.1267557 0.04638313 0.061490025 0.04538002 -0.04732574 0.029847402 -0.14802912 -0.020979168 0.08527994 -0.08696784 -0.06723003 -0.035116576 0.062465798 -0.039349418 -0.053477094 0.059766743 0.09964875 -0.001408048 0.24369861 0.31864545 0.05162105 0.00959769 0.121472426 -0.07602588 0.0641255 0.08162285 0.0035522364 -0.098759644 0.0977598 0.018207507 0.036065158 0.11532702 -0.028906845 -0.046205595 -0.10879539 0.102306314 0.12313167 0.08442723 -0.12864731 0.13215052 0.12191437 -0.09495987 -0.10963775 0.045731712 -0.0021225018
will -0.04933308 0.319729 -0.02113123 -0.13375063 0.12403504 0.06862419 0.067408316 0.027619641 0.07346221 -0.027035302 -0.011552931 -0.07279548 -0.11783723 0.13957259 0.0070280153 0.004132903 0.057878252 -0.021795938 0.02396752 -0.12734306 0.024416277 0.074761495 -0.05964714 0.14404164 -0.067710936 -0.048798162 0.015568498 0.032967437 0.036798656 0.22402702 0.08914717 0.111835994 -0.03942052 0.04478112 0.03533338 -0.14409322 0.005468654 -0.06132017 0.100485615 0.18147618 -0.013658398 -0.08554979 0.048947897 -0.049443018 0.084172376 -0.008283377 0.3083503 0.101185404 -0.06477524 0.25785673 -0.012129014 -0.09254446 -0.12715568 0.074730024 0.016071942 0.09068581 -0.06582241 -0.12227868 0.041871995 -0.024322633 0.017692024 -0.007410825 -0.103556484 -0.07585459 0.004274451 0.052680273 -0.046941735 -0.017436301 -0.062017087 -0.0016228801 -0.0073512523 0.31081104 -0.05423984 -0.04621507 -0.14781246 -0.0046681617 0.094821036 -0.11029166 -0.1111647 -0.0018466825 -0.014824248 -0.117415726 0.156488 -0.04411259 -0.04909614 0.07598718 0.09811685 0.00694969 0.045483053 -0.0092844935 0.015209826 0.08374618 -0.08003886 -0.022136856 -0.074943304 0.065701894 -0.015975855 0.027034378 -0.038186744 -0.061394896
( 0.04368298 -0.10462098 -0.07577154 -0.030036824 0.17123517 -0.21496692 0.09027014 -0.01859142 0.009813921 -0.027401047 0.052606322 0.2340564 0.028930686 -0.020931484 -0.0073078307 0.06500398 0.2902127 -0.03988726 0.023222676 -0.0522977 -0.02852285 -0.020838654 0.0025188772 -0.045481008 -0.056794718 -0.03947303 0.20031027 -0.005335185 0.054867808 -0.06928876 -0.020967636 0.03903849 0.16787797 -0.015074468 0.016216647 0.026340257 0.018029096 0.092112824 -0.14333205 0.013393354 -0.06609867 -0.032539044 0.02529789 0.16939385 0.022731643 -0.057673678 0.07499317 0.06685331 -0.09325183 0.09347649 0.20899843 0.1081505 0.10188265 0.1631154 -0.08557333 -0.04747695 -0.051320225 0.17431857 0.48363397 0.044602647 0.12576507 0.0062475386 -0.06937113 0.02919552 -0.0137427095 0.13232481 0.0023448467 -0.073575675 0.019201072 -0.061580416 0.25794956 -0.08661192 0.05576142 0.06486322 -0.090509176 0.11364374 -0.06625439 -0.0021714882 -0.14290322 -0.08690752 0.19722115 -0.043317553 -0.13881367 -0.090285875 -0.015558702 4.008277e-05 0.014757641 0.041659985 -0.13770773 -0.09482492 0.08844041 0.13123211 0.3612851 0.089453205 -0.058911778 -0.16938286 0.05479107 0.024880724 -0.069167316 -0.029161593
) -0.043319277 0.050828815 0.056123953 -0.08142058 0.03297088 0.14769128 -0.074182905 -0.09296132 0.101029105 -0.013981542 0.083934315 -0.03374166 -0.052234083 -0.013090535 6.7603934e-05 -0.062457666 0.15888138 -0.04203159 0.2541721 0.08572454 0.03336799 -0.020199776 -0.049360164 -0.06673308 0.030489191 -0.007784312 0.2659539 0.1048712 -0.045461666 -0.06426501 -0.021896683 -0.05486962 0.10146254 -0.025265489 -0.028259207 -0.05770456 -0.056771073 0.032292377 -0.029897451 0.016114086 -0.008140301 0.01783946 -0.03893446 0.25502175 -0.08018921 0.026179241 -0.06581453 -0.02580044 -0.03541312 -0.07359967 0.02156219 -0.0021488597 -0.005895624 0.037791897 -0.042075716 -0.0011487465 0.15207058 0.123295255 0.14811994 0.047242504 -0.0076155374 0.011732336 0.019697202 -0.037874095 -0.06887185 0.21239713 0.012128766 -0.007136294 -0.04257406 0.08214665 -0.072087705 0.11364357 -0.060340878 0.36601466 -0.07009362 -0.081030615 0.080400564 0.108224906 -0.07672138 -0.036177307 0.08217022 0.009534108 -0.042748723 -0.07907714 0.036432836 -0.030265423 0.04660476 -0.013038267 -0.025316447 0.021288324 0.118469276 0.053068098 -0.06351599 0.026782805 -0.0119731985 0.03341046 0.048363086 0.18596047 0.028535614 -0.04741552
able -0.060990512 0.10857164 0.02563521 -0.036134876 -0.036046684 0.0805236 0.007669929 0.14573884 0.10675996 0.024879526 -0.070939906 -0.016873773 0.004745635 0.0062217168 0.02005904 -0.02973186 -0.04364093 0.021276055 0.06187235 -0.018016106 0.24945067 -0.028136158 -0.003208028 -0.04617216 0.16601719 0.12289316 0.05449761 0.0047864555 -0.016354728 -0.06449414 -0.063753426 -0.14716507 0.15986338 -0.045078725 -0.043024376 0.0923102 0.09984197 -0.057522383 -0.0008972383 0.11161102 0.06536092 -0.062364303 0.002468966 0.15136433 0.036757294 -0.058102023 -0.010581346 -0.10491166 0.011946456 -0.035928994 -0.008350499 0.07009679 -0.040895868 0.06235543 0.024293447 0.0005525585 0.0855725 -0.048318904 -0.032107446 -0.0017627124 0.16542608 -0.0066468585 -0.06345344 0.017166039 -0.016561568 0.1382472 -0.0033455668 0.17337587 -0.09190198 0.027840042 -0.082048 0.37077895 -0.035160884 0.33008513 -0.030678641 -0.07066814 0.07870325 -0.04714157 0.044796456 -0.09332136 0.07220171 0.0037804386 -0.16335419 -0.04033937 -0.03307487 -0.0061237304 -0.0037265418 -0.04105861 0.05397218 0.27677885 0.027625512 -0.04520961 -0.019305581 -0.027941382 0.018041382 0.063394435 0.01064675 -0.029879032 -0.043024812 -0.039932232
almost -0.0774923 -0.01822697 -0.026636742 -0.027032971 0.004898291 0.09915359 -0.01552371 -0.08293484 0.010200024 -0.04786878 -0.04646956 -0.031170778 -0.08129756 -0.016959677 -0.067040496 0.027875938 0.12904249 0.0694871 0.13792403 0.10709461 -0.03289577 -0.00793106 0.059162535 -0.016804606 -0.05058377 -0.06475298 0.29835454 -0.05600288 -0.039594594 -0.15135506 -0.014509272 -0.08538806 0.14535362 -0.0122152325 0.015186047 -0.10186562 -0.069799565 -0.05024138 -0.020458313 -0.028551375 -0.0153552145 -0.024597423 -0.06738717 0.15276788 -0.02103424 -0.041001573 -0.003378423 0.041098878 -0.084595695 0.07675952 0.018295642 0.088058606 -0.10283529 0.12127341 -0.041049637 0.1306569 0.19446312 0.12859872 0.13020617 -0.13227488 0.09290668 0.05111835 -0.010687806 0.046600733 -0.09477585 0.2317245 -0.0124223875 -0.051733486 0.0111298775 0.07251473 -0.0064427927 0.1586438 -0.017709762 0.16396809 -0.04269903 0.13650684 0.0009942712 0.07401939 -0.06423083 0.061895896 0.026002035 0.030977508 -0.03473749 -0.11098863 0.16494936 0.0385124 -0.093806624 0.03438224 -0.05279299 0.018419625 0.098587975 -0.044161625 0.036038548 -0.0027543185 -0.0126210395 -0.07075912 -0.030071406 0.3879915 -0.04301026 -0.07526232
always -0.041634515 -0.053784564 0.06247202 -0.03739177 0.008907704 0.03342536 -0.02755424 0.021729393 0.057234462 -0.096383 0.046465643 -0.008859547 0.04100337 0.030245766 -0.010167299 0.036594793 0.17358255 0.06969751 0.21627614 -0.05477382 -0.043238655 -0.022583274 -0.036631085 0.20043051 0.0653598 0.032241423 0.2967115 0.08533865 -0.037104953 -0.058390375 -0.02008573 -0.020847727 0.05786778 -0.039201282 -0.08736317 -0.0065393643 -0.06111384 0.14980993 -0.027091837 0.019955926 -0.06308652 -0.021968521 -0.035495613 0.326485 -0.023432946 0.09619891 -0.026572539 0.011646059 -0.00031227214 0.11388243 0.15215223 -0.17499787 0.047414 0.033651143 0.0106322 0.0128806 -0.055033445 0.074846625 0.123642325 0.011601388 0.10885514 -0.0309556 -0.041516896 -0.053290725 0.007070801 0.025449038 -0.046873666 0.10632782 -0.053288016 0.036284927 0.09335371 0.015423584 -0.061737865 0.24003053 -0.058030527 -0.056952596 0.027762003 -0.06917622 -0.05484125 -0.043657273 -0.0029622915 -0.0073550288 0.04736833 -0.042969868 0.0060229213 0.006753641 -0.027050542 0.012643586 0.024410214 0.054370753 0.0036020987 -0.0022374503 -0.10993509 -0.06227883 -0.003703809 0.08430237 0.10993918 -0.04297682 -0.046292156 0.002593982
data 0.0008538923 -0.0673163 -0.038091086 0.19339 -0.07302509 0.11691261 0.09619295 0.05151214 -0.09375246 -0.013061715 0.006001592 0.40403578 -0.09434312 -0.049458962 0.270595 0.0048972396 0.28046444 0.08574739 -0.12767108 -0.09668634 0.0066569056 0.121264555 -0.041047283 -0.029168684 0.17689186 -0.080978684 0.01735385 0.15876906 0.1471559 -0.05047476 0.0034670355 0.095355146 0.13892849 -0.018431904 0.017046101 0.37949246 0.015105925 -0.036098838 -0.20576154 0.0770414 0.29560715 0.07886791 0.3407744 -0.03782535 -0.120827064 -0.07894404 0.13882989 -0.06161102 0.0014964927 -0.15482835 0.1631395 0.0002669288 0.34830242 0.08286391 0.5129636 -0.20867562 0.20080125 0.30920038 0.21789631 0.17211282 0.20446078 -0.08906978 0.32510373 0.22579402 0.28885782 -0.071729705 0.007454276 -0.112496346 0.026128823 0.010667235 0.3179729 -0.012918776 -0.08479567 0.19751644 0.28648162 -0.0071620415 -0.15557782 -0.12529834 0.057729695 0.20199202 0.12830992 -0.045301177 0.03791611 0.15899107 -0.069904804 -0.0010425304 0.27285144 -0.12595123 -0.08307636 -0.12281951 0.045500215 0.06164428 0.1740733 0.08385045 0.17201152 0.43310535 0.11047796 0.040873062 0.06929918 -0.03158673
enough -0.1212905 -0.07572402 0.12688203 0.034782697 0.18029836 0.22850353 0.011965144 0.2969734 -0.085484155 -0.12609103 0.05706069 0.4149016 0.014616048 -0.19853738 0.18953928 -0.05786677 0.29500702 -0.16804883 -0.13554873 0.24622034 0.06690451 0.16597974 -0.107938856 -0.02080693 0.17862016 -0.022452848 0.072951555 -0.023468595 -0.061334565 -0.0720321 0.03819607 -0.3017534 0.17498271 0.028059069 0.037174586 0.2310647 0.00163232 -0.077689685 0.048772253 -0.082866356 0.22137913 0.20255327 0.24919191 0.02230949 0.30294868 0.22298348 -0.078685366 0.038350005 0.093264855 0.11266214 0.13482133 -0.12544185 0.18473954 0.08410385 0.3616971 0.19409189 -0.015827332 -0.17695454 -0.23723197 -0.10458798 -0.19687885 -0.0754468 0.0959554 -0.026128648 0.01822301 -0.0635789 -0.034624387 0.08429084 0.053519513 -0.10228614 -0.09822433 0.047349066 -0.11159558 0.03075323 0.43896034 0.107627854 0.13308156 -0.0007429654 -0.09292133 0.010055063 0.019571083 -0.01569295 -0.20037356 0.114395574 -0.018127488 -0.057201117 -0.05559956 0.34865868 0.14946216 0.12465075 0.16789888 -0.0016100792 -0.12861846 -0.03065759 0.22603436 0.48910603 -0.28960654 0.002161778 0.08998022 0.017872032
establish 0.17259598 0.08877035 -0.04776921 -0.03545377 -0.033015706 -0.11188798 -0.08970499 0.33824956 -0.14858317 0.2787539 -0.020139378 -0.11822975 -0.013751461 -0.09538099 -0.06757232 0.065593906 0.04343076 0.23229758 -0.1650494 0.08755714 0.11906698 -0.008457549 0.08694002 0.0020418428 -0.06091082 0.035649724 0.018504843 0.035693027 0.025928186 -0.099370986 0.04550843 0.030574564 0.06679733 0.041231878 0.048896473 0.22726919 0.009417576 0.101810545 0.087907515 -0.00058271247 0.068111494 -0.01837951 0.042376798 0.057825893 0.12268457 0.08137701 -0.02758877 0.15000467 0.01932222 0.16206314 0.07422118 -0.010577093 0.056890532 0.010042262 -0.09393491 -0.017250948 -0.12865326 -0.044075046 -0.03710558 -0.06444686 0.10068565 0.02659163 0.005018287 -0.09719592 -0.1051289 -0.017198564 0.013092267 0.20541431 0.09556747 -0.047963303 0.035710342 0.16556019 -0.1196041 0.2646044 0.12507895 0.073389255 0.016819157 0.03651705 0.23320575 0.034946058 -0.049712785 -0.06308052 -0.07405758 0.0450687 -0.033395376 0.06359415 0.066086926 -0.04973631 0.04727507 0.08750034 -0.119722426 -0.00055358635 0.15679164 -0.014592062 0.0024393187 -0.059958387 0.11399678 -0.053718224 -0.0759449 -0.05260804
it 0.53906864 -0.06960171 -0.26643854 -0.060510222 -0.019903356 -0.09194158 -0.08591641 -0.1211419 0.119642064 0.48458844 0.09475724 -0.023663346 0.59253585 0.034145273 0.079177305 0.071400486 -0.025709502 0.371359 0.013828427 0.6990083 0.46583351 -0.06633563 0.06932714 -0.13901459 0.22385204 -0.050291073 0.047806166 0.33465618 -0.069596015 -0.16810241 0.21520211 0.39660805 0.030281592 0.029203456 -0.17731592 0.39396605 0.45866042 0.14945956 0.24826148 0.16024837 -0.15413216 -0.049066454 0.13554506 0.2502641 -0.04173539 -0.17117614 -0.034077242 -0.0037250037 -0.17726614 -0.27169907 0.041599967 0.0644679 0.24546899 0.08344942 0.12681228 -0.054851357 0.03373789 -0.11905233 0.05964433 -0.03128562 0.26856765 0.17694381 0.44385985 0.0014553186 -0.031727314 0.34930786 -0.05277267 0.16781823 0.4666014 -0.092227586 0.093923174 0.21236046 0.006152623 0.14391607 0.716879 0.20357269 0.0087415725 0.06269455 0.484419 0.18816294 0.10031032 -0.054640394 0.23200125 -0.12773041 0.072476014 -0.2001392 0.11708708 -0.11997595 0.41853663 0.1548218 -0.026790403 -0.112538666 -0.28370684 -0.07906573 0.0636536 -0.1111704 0.061149437 -0.036349148 0.1775139 0.11719879
moreover -0.03789801 -0.011826411 -0.062263217 0.094927736 -0.06774429 0.20237198 -0.10550432 -0.047690254 -0.042255454 -0.044187862 -0.0032555894 0.04139193 -0.046806317 0.0069130454 0.1304415 0.014309107 0.2255199 0.04152214 0.07129819 -0.083845176 0.024795521 -0.039386176 -0.039966885 -0.07235075 -0.019179115 -0.051682156 -0.025105441 -0.047340132 -0.05190334 0.1405902 -0.13519113 -0.16707565 0.027030764 0.012230376 -0.034574762 0.17112446 0.044406444 -0.14098714 -0.02576772 -0.09976036 -0.04290203 0.032685738 0.058451362 -0.035769444 -0.03723501 0.0496346 -0.08328789 0.015987622 -0.099249415 -0.039946347 0.0096076 -0.110914156 0.042293124 -0.0060505993 0.05812052 0.08871992 -0.051482 0.15468878 -0.17741144 -0.043562338 -0.016451998 -0.04115525 0.0873097 0.077103056 0.029636241 0.016266553 -0.016383506 -0.04402241 -0.0016645116 0.008530145 -0.15160428 0.035621393 -0.14210217 0.023338791 0.23719816 0.06046318 -0.1695292 -0.03293552 0.09708666 0.09297258 -0.10231044 -0.11052842 -0.019890312 -0.038446043 -0.023283897 -0.0021118615 -0.1634668 -0.09362267 -0.063557856 0.0063015893 0.03144926 0.056744456 -0.17759888 0.016329762 0.20256855 0.055466592 -0.0484319 0.030042784 0.018474331 -0.023145054
not 0.41533437 -0.016236939 0.14198495 0.18627077 -0.057570837 -0.107961714 -0.038204197 0.13802838 0.2926444 0.1500658 -0.0015845264 -0.23624259 0.299814 -0.2084331 0.093404025 -0.10698501 -0.061366107 0.43127102 0.15824263 0.18596989 0.37314704 0.14146437 0.08563292 0.00040748477 0.028404694 0.02474112 0.060047038 0.19999342 -0.061912928 0.22398694 0.20650877 0.39830256 -0.019020854 0.08318807 0.19699635 0.5024852 0.015148535 0.43636632 0.2657744 -0.15398487 0.0076776515 0.11229072 -0.0065781223 -0.12651464 0.13067767 0.2875404 -0.015571951 0.047982518 0.21631391 0.06300117 0.38504303 0.3527405 0.21735117 0.046414267 0.32834014 0.4022472 0.11505371 -0.08487262 0.018755075 -0.085249566 -0.18164963 -0.09958828 -0.069028795 -0.052059643 0.30211264 0.08050673 -0.049050212 -0.18659735 0.38950232 -0.04048793 0.21498655 -0.15851772 -0.06045807 -0.04018073 0.5278168 -0.11582273 0.16849305 0.079424255 -0.08183641 0.059899252 -0.11817701 -0.02225543 0.34175497 0.09405812 -0.034818526 0.1770703 0.21344237 -0.06800942 -0.02545216 -0.22324109 0.2943948 0.008915336 0.29991266 0.07077385 0.1469274 -0.06810577 -0.068721205 -0.056359354 0.3713202 0.14847395
shall 0.04758183 -0.092164956 -0.06393357 0.089942165 0.054530952 0.016089942 0.06802627 0.08936955 -0.06847953 -0.03646818 0.0685577 0.0879091 0.012949236 0.0037768488 0.014916404 -0.03934706 0.2665348 -0.07820643 0.074745975 0.021236021 -0.09360261 0.0014865077 -0.0341177 -0.083015606 -0.0049515036 0.014312336 0.17316015 -0.023267506 0.0055392827 0.0060193427 -0.056091923 0.036565743 0.1811968 0.021196306 0.06787268 0.15040028 0.04560229 0.12524588 -0.12163253 0.09817881 0.13667065 0.0130846845 0.07501767 0.18182021 -0.028292645 -0.039321624 0.076551884 -0.05436281 -0.08035594 -0.14521451 0.24289086 0.068306684 0.12745543 0.00021832722 0.08200168 -0.055827893 0.0050310916 0.24280144 0.23480792 0.03105617 0.052975886 0.012790975 -0.021400455 0.06175453 0.05525389 0.101917185 -0.0402007 -0.11990275 -0.12823462 -0.056918055 0.15785798 -0.04102734 0.06465264 0.3590186 0.1934136 0.06684712 -0.042868327 0.013729463 -0.12715037 0.16382515 0.06619294 -0.012140828 -0.06777942 -0.04324455 -0.02710385 -0.041760385 0.041604944 -0.0450779 -0.07842868 -0.10506378 0.22103049 0.32978138 0.16933072 0.22424087 0.073183045 -0.04277088 0.047257885 0.004950941 0.07047734 -0.015581388
that 0.8951497 -0.049634207 0.34416935 -0.11264362 -0.0344079 -0.044128615 0.25423944 0.30830258 0.07972993 0.4285689 0.14544955 -0.06252731 0.22222106 -0.0618686 -0.14453681 0.06605802 -0.055934872 0.67964 0.054766465 0.3446263 0.83277285 0.022914771 0.044233747 -0.0863652 0.13250495 0.07653803 -0.12574045 0.17136793 0.11323769 -0.1723003 0.13007307 0.086142965 0.07112104 0.021653196 -0.12677187 0.6670075 -0.08307064 0.2846569 0.57205045 -0.084422454 0.034260765 0.021372253 -0.15390185 -0.07431474 -0.052763015 -0.12684853 0.027507478 -0.046473403 0.26215342 0.25718278 0.4532802 0.38170484 0.15624303 -0.26173863 0.025555111 0.35989523 -0.13085209 -0.032066528 0.03258298 -0.08112082 -0.059171192 -0.109481655 -0.08767287 -0.32009703 -0.044098992 -0.052637845 0.07972088 -0.060606383 0.4906713 0.018968243 0.08159275 0.045040283 -0.054385904 0.024369974 0.5138366 -0.15183957 -0.08160183 -0.02317506 0.2524139 -0.38411242 -0.020068081 -0.10583278 0.1848544 0.06434875 -0.00536833 0.1850747 0.5782485 -0.07293464 0.018598983 0.11926028 -0.1417296 -0.08494638 0.36454588 0.034018 -0.041564 0.08711205 -0.08496762 0.04723598 0.14617147 -0.006539463
there 0.11736068 -0.02894577 -0.026933223 0.0014365854 -0.07023029 0.18522696 -0.07818407 -0.06710965 -0.053622372 -0.021958515 0.033944473 0.17075852 -0.05818961 -0.008229055 0.10482042 0.038698778 0.29336256 0.19568783 -0.02750135 -0.17125642 -0.044807613 -0.008491889 -0.06519701 -0.011284824 0.089203455 -0.11441592 -0.025752056 -0.014893007 -0.064415514 0.1592618 -0.047523506 -0.094175965 0.052269425 0.023036959 -0.016290257 0.39151135 -0.004943213 -0.29222816 -0.0711265 -0.1413066 -0.007681898 0.0013408143 0.117514 -0.09428242 -0.13311137 0.010016741 -0.052762367 -0.059911184 -0.019978529 -0.033738643 0.0134775285 -0.19847845 0.16367763 -0.021867719 0.24792822 0.14323454 -0.013350943 0.17691132 -0.07605482 0.06968764 0.072283894 -0.03193186 0.2053996 0.07920433 0.17459546 -0.030526461 -0.04934752 -0.13717085 0.1566858 0.07463864 -0.025333975 -0.03358839 -0.2636037 -0.061362065 0.23256584 -0.005858364 -0.20062506 -0.08787771 0.067778505 0.14796354 -0.08090457 -0.1162335 0.09089686 -0.062628776 -0.047349233 0.05699279 0.04404727 -0.051624797 -0.12563115 -0.016661905 -0.025674216 0.0053650956 -0.16822854 -0.05786378 0.19503118 0.18808931 -0.0045419 0.0154168615 0.038540218 0.03601506
to 0.14549367 0.035914723 0.007514183 -0.021151034 -0.03767753 -0.059969656 -0.0005958795 0.11314789 0.1803659 -0.0824688 -0.026742276 0.023519812 -0.027383892 0.066649936 0.04093754 0.368914 0.06683532 0.21723504 -0.017448561 0.28231204 0.08034742 0.021914747 0.042948317 0.2636006 0.060895637 0.033669397 0.2196409 -0.009328769 -0.037050456 -0.036833227 -0.14355639 -0.059096567 -0.030841652 0.05159196 -0.017860528 -0.027801579 0.082178235 0.046591617 -0.11646655 0.25283548 -0.027467132 0.06583189 0.06765425 0.32254443 -0.008930483 0.0336235 -0.004966844 0.1203158 0.042923313 -0.05693767 -0.17513575 -0.014639959 -0.0010053361 0.14210138 -0.027912375 -0.19252238 0.0017987695 0.012772456 -0.083163306 0.23788455 0.056506768 -0.028802989 0.10111976 0.033940405 -0.078318074 0.5302674 -0.024048718 0.10180339 0.09208223 0.013868154 -0.06016222 0.19081837 -0.116735935 0.20098343 0.12746312 0.019515846 0.035474908 0.008146189 0.2532543 0.030902503 -0.15333335 -0.08592524 -0.114612505 0.06313308 -0.00658891 0.030439788 -0.032407172 -0.038134526 -0.084935725 0.1797649 -0.047013152 0.034573402 0.19284406 -0.028868282 0.24700744 0.033415955 -0.02002265 -0.077975206 0.048871346 0.084708996
where 0.024019577 -0.045936022 -0.08877678 0.04990839 -0.038255516 0.13039947 -0.028006973 0.07827113 0.061169144 -0.02012695 -0.018346718 0.2946696 -0.0841919 -0.08389264 0.13688481 -0.06447231 -0.0470864 -0.034618337 -0.13640021 -0.046399567 -0.0725506 -0.010539392 -0.14547384 0.02891598 0.06402384 -0.06712042 -0.07799014 -0.1200408 -0.00074529764 -0.03938622 -0.2438106 -0.22942176 -0.010978054 0.08645532 -0.039247982 0.34927607 -0.028067045 -0.07906413 -0.07082391 -0.030267153 0.02238209 0.18975507 0.037270695 0.01981199 -0.052896798 0.068731226 0.008167309 -0.022387113 0.031535212 0.075222194 -0.053361777 -0.14381535 0.15506144 -0.1454655 0.15303002 0.016593123 0.016406199 -0.13967614 -0.19915305 -0.1592835 -0.11352859 -0.12527148 0.053428918 -0.16779852 0.18158028 -0.04329903 0.010094453 0.16321668 -0.017913405 -0.056569796 -0.083211094 -0.01089273 -0.009418001 -0.01890362 0.27053106 -0.0971143 -0.0347192 0.07873821 -0.042196263 -0.0017144379 -0.060708936 0.028617445 0.0027282622 -0.007874272 0.04181869 -0.007542935 0.011663827 0.091387615 -0.047382616 0.014023272 -0.032257482 -0.068383 -0.24894153 -0.0109595945 0.34361386 0.21280569 -0.19027393 -0.075643435 0.060470298 0.1801894
arbitrary 0.1632606 -0.041137572 -0.1345779 0.031078126 0.11172639 0.0060923034 -0.13381234 0.081040315 0.12748282 0.35806698 0.2037399 0.09392362 0.21712734 0.022874838 0.008433647 -0.028826559 -0.0009979075 0.12172523 0.2014273 0.2612628 0.20335427 0.12147516 0.107031524 0.010374103 0.0878922 -0.01427804 -0.06547652 0.008395094 -0.05117369 -0.11303689 0.17990659 0.29894462 0.052845374 0.116265915 0.079451114 0.19002928 0.058540035 0.18308814 0.06840313 0.07370701 0.0045783482 -0.014188974 -0.09211967 -0.050376084 -0.028924765 0.04375236 -0.02573473 0.05317993 -0.10121329 0.07448076 0.075249955 0.14269957 0.026664361 0.030420803 0.15159008 0.18822981 0.08217191 -0.07848405 0.0559535 0.03185242 -0.015555482 -0.0077011115 0.041811015 0.06612099 0.12360023 0.111072786 -0.011163797 0.05294517 0.14487149 -0.107278906 0.15727323 0.042483922 0.09486016 -0.113322206 0.26682004 0.110416286 -0.12051836 0.047416177 -0.001464524 0.14082937 0.0037244777 0.028680386 0.047151677 0.004805009 0.027907705 -0.088849455 -0.0018062565 -0.034426033 0.42220223 0.083049946 0.092087366 0.06999453 -0.18747883 -0.026463933 0.24163856 -0.019662783 0.09155754 -0.042642098 0.14869973 0.06910079
between 0.18048762 -0.036580555 0.33320844 -0.047402684 -0.033590775 -0.13425964 0.09427683 0.17826897 -0.057536714 0.17609005 0.23823228 0.010990649 -0.12660971 -0.0056166993 -0.068732396 -0.0339754 -0.007990294 -0.02990415 0.028182425 -0.08009173 0.054613847 -0.15752532 -0.10643598 0.13317357 0.078380376 -0.022226676 -0.007679269 -0.014531435 0.10141473 0.08599257 -0.10396567 -0.07436885 0.0013499786 0.093232684 0.06669851 -0.102445 0.031445686 0.47372502 0.08125666 -0.037799593 -0.0143689215 -0.101728074 -0.07701739 0.100752294 0.44337863 0.09890486 0.048162274 0.04326351 -0.01978539 0.09878883 -0.06840264 -0.026313188 0.04669595 -0.16941881 -0.020988699 0.16364236 -0.086265095 -0.0016160693 0.011188341 0.06479557 0.0791707 -0.13805524 -0.072068885 -0.10039176 -0.042053156 0.04862721 0.092707634 -0.028695943 -0.0006421627 0.12323594 -0.11636224 0.029112179 0.0379075 -0.02005356 -0.173955 -0.084292725 0.08166669 0.42369434 -0.17102261 -0.101410665 -0.0046810787 -0.08408782 -0.087696604 0.07518875 -0.04819772 0.03163627 0.2004838 0.12814124 -0.08272168 0.025191277 0.038669795 -0.06364018 0.07663432 -0.16552041 -0.049037453 0.0048018545 -0.13079526 0.21218626 0.30028617 -0.10077211
corpus -0.018475117 -0.023162795 0.10961363 0.26013806 0.001196042 0.052619167 -0.012238853 -0.010200019 0.03406409 -0.014636513 -0.018421253 -0.106758036 -0.016021239 -0.050655868 0.15343757 -0.03305508 0.26098675 -0.056744337 -0.046356887 -0.051200736 0.14225343 0.012400068 -0.04755626 0.011595851 -0.05405021 0.07503519 -0.07027032 -0.03913627 0.0031786954 0.105847046 0.059449375 0.05673883 0.03388633 0.03290417 -0.018183585 -0.0010299088 -0.022648957 -0.10092404 0.15062901 -0.04575602 0.026199324 0.23621798 0.0646256 0.0524113 -0.13211805 -0.09526467 -0.04988257 -0.048414838 0.012214425 -0.06300989 -0.10989717 0.010793181 0.061700907 -0.08427234 0.05212215 -0.01620716 -0.103556596 -0.023980282 0.007957018 -0.036584035 -0.0026797769 0.10145574 -0.012849845 0.048404325 -0.10355276 -0.03506462 -0.04781581 0.060823914 0.08214413 0.045016646 -0.151198 0.01980096 0.026639324 0.2081308 0.1649103 0.036123525 -0.043637186 0.03516445 0.0863464 0.24116085 -0.045722794 0.036043108 -0.062238365 -0.008427232 0.055032227 -0.016400147 0.060318112 0.14264983 -0.06912532 0.0023928236 -0.26489225 0.045650527 -0.074016914 0.06884942 -0.08280531 -0.18221094 0.041843157 -0.11609995 0.075328134 0.072055556
demonstrably -0.17149515 -0.0813669 0.18242037 0.058696322 -0.06417772 0.08389875 -0.04257424 0.047070988 0.018133705 0.012060816 -0.04105995 -0.0074061663 -0.05862214 0.04148459 0.2063655 0.025347669 -0.06949816 -0.1860356 0.15183777 0.18538398 0.12113974 0.17936622 0.022141475 -0.072118446 0.06474403 -0.0112768635 0.0826786 0.25483158 0.14264621 -0.049206443 -0.053158183 -0.12650199 0.045991875 0.14298515 0.008775716 0.05447717 -0.12663983 -0.079146326 0.084361024 0.15569608 0.13068905 0.010107227 0.2202662 -0.13002682 -0.025635842 0.2979753 -0.061798416 0.0640997 -0.08749805 -0.17228946 0.06896753 0.1472092 -0.065267034 -0.09544406 0.23087469 0.077970736 -0.07642696 0.13877718 0.038956527 -0.12161609 0.058515746 -0.011968146 0.13778976 0.040833835 0.18655227 -0.12303283 -0.008938546 0.16764186 -0.06889685 -0.03464761 0.0074109915 0.041578036 0.023034265 0.00055760343 0.29989332 -0.059333276 -0.033205427 0.14833952 0.03469662 0.096083775 -0.068843216 0.015486497 0.0027009991 -0.008379985 -0.027879883 -4.2178464e-05 -0.05301894 0.028415307 0.13366154 -0.07415155 0.043358125 -0.000668187 -0.15013216 0.07223918 0.19860323 0.17282508 -0.06810439 -0.02197265 0.1851547 0.15505332
do -0.018989867 -0.10747929 -0.0073965113 -0.041199505 0.051658757 -0.0400086 0.20825626 -0.010287902 -0.03113921 -0.04878454 -0.029219843 0.24639957 0.12922034 -0.0477685 -0.012884512 0.032037005 0.22252774 0.027272364 0.0053429673 -0.019760346 -0.025605045 0.046871115 -0.063089095 -0.09046443 0.013912996 0.00146616 -0.06906801 0.08995445 0.03070813 -0.04212702 0.05986154 0.090826996 0.04032373 -0.14582503 0.08282288 0.019735109 0.0063978396 -0.03744995 -0.20961545 0.123799704 0.11725658 0.081951186 0.10010371 0.0056330077 -0.20491919 -0.10996531 0.07909469 -0.0075074974 0.01910973 0.0009810559 -0.018142492 0.036356185 0.07793039 0.20518197 0.020498306 -0.18423192 0.13566214 0.12148967 0.20562112 0.07316903 0.007723623 -0.042261254 0.12191698 0.08011853 0.04138926 -0.021299196 -0.02357533 0.051480673 -0.00035651296 0.0033390424 0.34367457 0.07562068 0.014662757 0.055474862 0.0066462383 0.14571854 -0.16537315 0.06576315 -0.06782471 -0.07375632 0.36618066 0.012416817 -0.07280196 0.2799051 0.010270589 0.0041377237 0.2848502 0.1765787 -0.09460597 0.13311906 -0.1276144 -0.037519082 0.23791492 -0.022951517 -0.07345727 -0.043755703 0.13391583 -0.014318947 0.0066607823 -0.06428408
does -0.154886 -0.1025698 -0.09120917 0.16600886 -0.076817065 0.14035115 -0.14746493 -0.089483075 -0.097104914 0.119518846 0.021528902 0.11893674 -0.14599088 0.17941707 0.33805794 -0.016400494 -0.10173985 -0.14508301 -0.011281878 -0.013748762 -0.12932482 0.15995602 0.01121505 -0.0014861086 0.0015970167 0.041055806 0.05657644 0.24719584 0.060388964 0.07805765 -0.15042251 0.018913312 -0.08464126 0.07883076 0.12304095 0.12834653 0.0777736 -0.0190862 -0.14387679 0.1396006 -0.014256557 0.19650061 0.2451115 -0.0013589357 0.01987885 0.38654673 0.022595463 0.009180946 -0.1024917 -0.17061803 -0.04661902 -0.0124666225 -0.0084012905 0.21798998 0.15820819 0.12862818 -0.02420908 0.09282914 -0.068610616 -0.009647201 0.16852048 -0.017477887 0.05326795 0.1517863 0.12780488 0.068228476 -0.0044172294 0.21566018 -0.06250471 -0.04761723 -0.16664776 -0.04315586 0.19761679 -0.019768646 0.13431557 -0.018535195 -0.105549745 -0.08247051 0.056720436 0.19952972 0.13785133 0.102678135 0.07885584 0.11829977 0.08751311 0.044469193 -0.26559392 -0.030528335 0.1172549 0.12450595 0.10640294 -0.08880233 -0.23095453 0.063884504 0.018423283 0.091067314 0.22906685 -0.089436635 0.057094086 0.17884132
fact 0.1466791 0.11681745 0.2105655 0.046983607 -0.02983542 0.043677952 0.35372373 0.013269795 -0.023042418 0.3458553 0.1738312 0.10607761 -0.09280982 -0.10863809 0.06695055 0.2433853 -0.033156008 0.33231986 -0.08811191 0.1788635 0.27053988 -0.017083606 -0.030103477 0.092018194 -0.04312428 -0.024199933 -0.044573583 -0.09600691 0.16478084 0.06674035 0.010178487 0.17807442 0.019150553 -0.09870768 0.00534454 0.039485365 0.024690816 0.13138366 0.031075992 0.071477585 0.06835162 -0.09091612 -0.07114913 -0.06733552 0.094735235 -0.12181418 -0.020690408 0.15139602 0.1509454 0.13373938 0.089601964 0.15047085 -0.1108956 -0.15704279 0.031862054 0.08844177 -0.02522601 0.034177843 -0.018282048 -0.052069582 0.04901454 0.014937494 -0.033596415 0.015288148 -0.13791949 -0.01673617 0.03977136 -0.0912357 0.23509252 -0.11056008 0.034569453 0.088624775 -0.0104186265 -0.00322345 0.20844053 0.031555213 -0.05426402 0.11922643 0.15299529 0.067494325 0.07858091 0.025313757 0.013194534 0.20651913 -0.058816556 0.1446045 0.23132731 -0.04452487 -0.008656074 -0.059453227 -0.044858743 -0.08371052 0.048041765 0.045591943 -0.08545201 0.07009865 0.085680194 0.28873926 -0.0849021 -0.0101314895
frequently -0.07447088 -0.044132818 -0.08505601 0.010934816 0.10362882 -0.08074851 0.0018310247 0.044339042 -0.075323865 -0.03382744 0.037156038 0.1044147 0.011189764 -0.04262956 0.11415934 -0.08130372 0.135872 -0.08432741 -0.00013080897 0.051628817 0.012791549 -0.02512296 -0.028898347 -0.024424803 0.06173404 -0.018337578 -0.02090934 0.018127337 0.035357278 0.0954088 0.07154662 0.09371876 -0.088219054 0.05761513 0.10440443 -0.090693556 0.020653294 -0.022193613 -0.10593901 0.15060616 0.045832667 -0.09950522 0.13444543 -0.028123394 -0.09398484 -0.043959517 0.068178214 -0.02036606 -0.07825573 -0.021684252 0.007774114 0.12321944 0.024658171 0.0972542 0.17729373 -0.005721431 0.03578079 0.014079024 0.08519342 0.040075976 -0.009754034 -0.027904915 0.053114522 -0.105956085 -0.09461674 -0.014601551 -0.010100998 -0.0118482355 -0.13238741 -0.109754205 0.1616503 0.05201645 0.07915005 0.051041055 0.3063817 0.042046048 -0.012810829 0.058485392 -0.1440449 0.027473561 0.029048933 -0.0324108 -0.052796397 0.16686998 0.07606859 0.03300938 0.03293904 0.098524734 -0.041563943 -0.022501485 -0.08515899 0.115615934 0.14908129 -0.031020973 -0.16563119 -0.0045968774 -0.08544759 -0.14418697 0.040120266 0.07795525
have -0.037470914 -0.10810932 0.13268976 -0.08479086 0.14417954 0.17041242 0.17385079 -0.0061368425 -0.030008988 -0.059742484 0.025360344 0.21072161 0.13778707 -0.13490115 -0.031530198 0.07309803 0.3135552 0.061371215 -0.015572565 0.15943898 3.6496014e-05 -0.092833586 -0.009360694 -0.054240514 0.0052066804 0.06779362 -0.024865028 0.040696945 -0.013271791 -0.04619966 0.081873305 -0.06270645 -0.04061669 0.02352689 -0.085547276 -0.109839424 0.018079689 -0.0066963034 -0.026577072 -0.045787442 -0.013608624 0.16197503 0.07984378 -0.068448685 -0.048482995 -0.03239722 0.052609313 0.0126616275 0.15237571 0.14872587 -0.07741627 -0.11717825 -0.05544296 0.04243232 0.0624292 0.080806985 0.06146789 0.04049052 -0.034958158 -0.022078939 0.017784866 0.041526146 -0.04903344 0.16360357 -0.032954253 -0.042686116 -0.014289916 0.10960865 0.06897981 0.04923854 0.015808444 -0.0131284 -0.09012203 -0.06919684 0.05867188 0.09040621 -0.096477225 -0.0071004126 0.007074528 -0.052387524 0.34456035 -0.021506792 -0.099488385 0.2438119 -0.027179746 -0.0053137806 0.052326746 0.3228383 0.05501229 0.26942372 0.0451207 -0.14508545 -0.09175466 -0.04317208 -0.09088414 0.14119077 0.14555427 0.077079415 0.06233471 -0.08162665
inference 0.20199206 -0.024784425 0.16637187 -0.024599856 -0.0016240254 -0.12796775 0.13276061 0.10640028 -0.0432941 0.30349094 0.076049834 -0.11706345 0.03747531 -0.081453316 -0.0262388 -0.0015545157 -0.034782 0.42716616 -0.17087272 0.06736454 0.16214584 -0.10480756 0.00657236 0.030785752 -0.13539132 0.02659317 -0.077166796 0.192949 0.08777698 -0.09736485 -0.03457204 0.21064833 0.005262143 0.08144078 0.11112704 0.2634433 0.11147216 0.082128406 0.09126437 0.035143025 -0.017926913 0.14702706 0.041594572 -0.02872411 0.1522866 -0.034669 0.037980333 0.19661704 0.12829685 0.16374855 0.1280511 0.025264405 -0.079821825 0.09779661 -0.09804464 0.11561909 -0.036406077 -0.09215766 -0.008992933 0.0026229534 0.057865888 0.0014943508 -0.04919856 -0.09688223 -0.10935 0.072128676 -0.049547233 -0.031526733 0.31732085 -0.052449487 -0.025446337 0.04876225 -0.12673394 0.09101724 0.14107262 0.07925395 0.044812407 0.037827086 0.19246034 0.03375894 -0.038710933 -0.055440646 -0.04382722 0.22725749 0.023563202 0.19982615 0.19893748 -0.031903006 -0.09160743 0.07725918 -0.13292 -0.05081149 0.2857417 -0.013448754 -0.0016489236 -0.10376581 0.09893475 0.008638568 -0.059641756 -0.010211337
relation 0.06881386 -0.08370909 0.074296504 0.027717238 0.02673519 -0.063129716 0.13017267 -0.047888473 -0.13920213 0.26424715 0.057595376 9.169802e-05 -0.0037001146 0.015590489 0.018317016 0.1276281 0.049415182 0.06379042 0.023887077 0.02245827 0.13351794 0.10111361 0.09155872 0.0062966347 0.0046313573 -0.031045664 -0.001131546 -0.060561378 0.12247846 0.022521498 -0.03752347 0.25852343 -0.07805709 -0.016593374 0.13824143 -0.018221103 0.05199987 0.22021076 -0.03785312 0.04995016 -0.04255033 -0.009871564 -0.0038187555 0.163607 0.2572568 -0.039959107 -0.04402779 0.27043954 0.053309046 0.0049531315 0.026806483 0.029669695 -0.08741098 -0.015968647 -0.09939882 -0.0023972965 -0.002934765 -0.0134909805 -0.031350594 0.059602715 -0.06889497 -0.074288815 -0.021853551 -0.026672691 -0.10525982 -0.10888929 0.03032666 -0.03564518 0.041359305 -0.032019153 -0.0036886132 0.16668904 0.0487664 -0.04665651 0.20093986 0.20321919 0.0014637562 0.19965361 -0.121607415 0.1754598 0.12582336 -0.04989085 -0.11101724 0.16701534 -0.04566244 0.069713674 0.0723493 -0.0106487125 0.06250796 -0.08590604 0.0059307613 -0.07490037 0.044416938 -0.040378436 -0.046541225 -0.03989708 0.12647232 0.30916905 0.05889216 0.0072426936
so 0.11665939 -0.046716224 0.2660859 0.1687561 -0.010542624 0.11657226 0.08968144 0.06454528 0.0039680745 -0.048891567 0.078498006 0.20114362 -0.015925493 -0.0316829 0.25680912 0.124607585 0.14085886 0.031093944 0.077926286 0.05681472 0.15502979 0.03025527 -0.013890461 -0.084163584 0.013113929 0.109305635 0.035637047 0.0026117237 -0.0010874026 0.010889339 -0.04167854 -0.11371705 0.16626997 -0.0635693 0.017360149 0.13881001 -0.16558965 -0.10259256 0.11447707 -0.045182597 0.2038945 0.15330142 0.08116155 0.04345869 0.06415988 0.024083903 -0.029736245 -0.10061991 0.22743593 0.09506343 0.18671942 0.04763681 0.05648923 -0.06654198 0.09544861 0.12619917 -0.044292115 -0.055680107 0.044458877 -0.06355427 -0.14392222 -0.004547596 0.058702134 0.042143755 0.057841513 -0.041688297 -0.03926366 -0.015816076 0.03962218 -0.042724695 -0.011061994 -0.07868833 -0.12878701 0.0319915 0.19187357 -0.04333126 0.12969032 -0.028194087 -0.012242885 0.059976824 0.08348293 -0.0051247836 -0.035410434 0.039476722 -0.09200827 0.055123985 -0.06930281 0.029300705 -0.057918247 0.22148502 0.10134602 0.022715751 0.054870434 0.0053478363 0.04935869 0.07243025 -0.09688644 -0.0047191675 -0.0002884813 0.044528622
studies 0.018916065 -0.112226814 0.14142068 0.10867937 0.28331476 0.058008447 0.18909492 0.18385744 -0.04855807 -0.02581746 -0.009286641 0.03960818 -0.06206935 -0.006374274 0.059842575 0.015216506 0.26702234 -0.045332618 -0.0495051 -0.121603206 0.020741763 -0.014049996 -0.038386393 -0.1150132 0.0008553367 0.02606279 0.0362689 -0.047526993 -0.0662058 0.25567284 -0.09356943 0.15739869 -0.07057642 0.09511316 0.058642555 -0.00021483925 0.043136686 -0.099157125 0.03875507 0.018623002 -0.038825348 0.026323646 0.08217565 0.14047839 0.020129822 -0.10290598 -0.033011694 -0.02229983 -0.08559507 -0.12505482 -0.11153899 0.15625072 -0.004161832 0.14331174 0.00810659 -0.12436395 -0.16258869 0.16973567 0.07475131 -0.108787395 0.11205775 -0.05459329 -0.07034425 0.10798284 -0.15946256 -0.061536774 0.023449745 -0.2018132 -0.00036496908 -0.027809845 0.13709453 -0.011864049 0.12406285 0.19294862 0.44918615 0.13660066 0.062096857 0.080627635 -0.104382925 0.20462184 0.22231497 0.057245236 -0.12171036 0.054278247 0.0153953405 -0.042851508 0.1677574 0.11776268 -0.06334254 -0.1283766 -0.110800356 0.19616593 0.13609518 -0.093001485 -0.108028 -0.14536841 0.02431166 0.028604109 0.09340868 0.10051821
support 0.100872494 -0.0653796 0.11332752 -0.051054806 -0.10358308 -0.064712785 0.13187258 -0.0653144 0.022286871 0.21857315 -0.046761427 0.0629836 0.10249758 0.07763477 0.07561878 -0.08245501 -0.06302598 0.12086434 -0.048222046 0.22967383 0.13685925 -0.05977182 0.04553427 0.039915632 -0.026036946 -0.05030173 0.016554115 0.34803432 0.041495714 0.04393072 -0.17071648 0.1808309 0.04200112 -0.03640061 -0.16271569 0.29876328 0.12471283 0.23188663 0.21858987 -0.025316138 -0.09013123 0.00018907082 0.117245495 0.00047492492 -0.09425282 -0.10240415 0.044343323 -0.034600165 0.1910196 0.066829406 0.15269224 -0.021517668 -0.050974615 -0.01301684 -0.04868004 0.2709152 -0.04227347 0.045068648 -0.0768262 -0.04992691 0.18346888 -0.06417842 0.2625873 0.04695309 -0.1448498 0.112587266 -0.020653248 0.12877841 0.109117165 -0.004916061 -0.021959018 0.06509095 0.06120946 -0.0684972 0.06626809 0.18815155 -0.01439537 -0.0763695 0.057240326 -0.06167834 0.30298257 -0.0035450757 0.28948414 0.04243218 0.17541978 0.025725832 0.19236782 0.027062194 0.09803678 0.25294843 -0.019952688 -0.25131026 0.095451385 0.0067940545 -0.14339505 -0.07924614 0.08729074 -0.023084952 -0.053370766 0.051649388
two 0.032734793 -0.10425305 0.12603778 -0.07361507 -0.12480402 -0.019415999 -0.12526914 0.05336923 0.06734981 0.17644651 0.053123225 -0.09391475 0.008047614 -0.05753106 -0.08529458 -0.103796184 -0.030489713 0.008011478 0.18445018 0.24324799 0.15694253 -0.010376659 0.049749177 -0.03822286 0.11532989 -0.048973758 0.0025011688 0.013378423 8.725749e-05 -0.08966397 0.092633106 0.07637085 0.066133454 0.22886924 -0.12144491 0.019413443 -0.024567796 0.21516104 0.021722786 0.06426598 0.07019199 -0.08864719 0.016296767 0.049020156 0.001962124 0.070112474 0.0067869904 0.13519858 -0.115720555 0.043937653 -0.035033494 -0.059260104 -0.0018966461 -0.06507803 0.05072397 0.15119042 -0.039771244 -0.008035543 0.08327996 -0.08321831 0.12007308 -0.031991795 0.06667176 -0.1023438 0.016283266 -0.04261677 -0.0061225584 -0.0038922974 -0.02781663 0.11148678 0.057959 0.048685607 -0.050803177 0.004924575 -0.03136881 0.09590109 -0.029801406 0.2850603 0.045466263 0.048751 -0.056629766 -0.011400392 0.06179015 -0.076055355 -0.036552764 -0.085150674 0.26925015 0.023959972 0.14907676 -0.07210327 0.031945713 -0.0040156757 -0.04636484 -0.121029004 0.109124325 0.11429615 -0.12184026 0.038576167 0.47560582 0.15323044
are 0.01028105 0.010548722 0.25778845 -0.01518332 -0.026203915 0.068624824 0.087574534 -0.057341352 -0.120697185 -0.029269755 -0.08170584 0.21080148 0.10816209 0.31926048 0.01622636 0.044520598 0.030109087 0.039394837 0.3177798 0.012709233 -0.07415956 0.1220926 0.0907259 0.10482602 0.016324194 0.05280116 0.08423216 -0.036965396 0.16961142 -0.13266343 0.043200474 0.0015188595 -0.05406379 -0.022960316 0.09170868 -0.03955104 0.14885023 -0.04579432 0.12896115 0.032017954 0.06096906 -0.07168837 0.14444771 0.16975284 0.0011024064 0.17594875 -0.013964188 0.009166587 0.042488165 0.13344891 0.013004515 0.08221354 0.01004786 0.15747862 0.016111061 0.17841709 -0.020462627 0.09112103 0.0015484437 -0.07885336 0.008003493 0.2632765 -0.02458483 -0.025226057 -0.06472916 -0.07851728 0.10637042 0.13923264 0.0005139738 0.015466442 0.044694595 -0.060309965 0.13345411 -0.052821584 -0.18285143 0.03417394 0.0023361058 -0.08951681 0.16979538 0.049972214 -0.020397227 0.13899706 0.12855051 0.01730936 0.15240887 -0.05934951 -0.049381893 -0.032601286 0.34134462 0.16472661 0.06203661 0.0130226435 0.005921476 0.08204631 0.09612283 0.06222344 0.15950099 -0.0019515672 -0.10080517 0.06102509
associations -0.07105228 -0.08648509 0.11557605 -0.014205478 -0.04108788 -0.01732149 0.0011159066 -0.08175184 0.030021254 0.19026801 0.2693294 -0.07349837 -0.025429115 -0.04383014 -0.033624507 -0.075482495 -0.04266963 0.020752193 0.033924386 0.05810046 0.07561565 0.17653394 -0.013924951 0.09594217 -0.064432636 -0.020041978 -0.04895874 -0.011202093 -0.03638375 0.020576788 0.058190696 0.18146239 -0.010244113 0.06989559 -0.075112306 -0.028851077 0.12309976 0.15342015 -0.14200276 0.075860955 0.06572533 0.010669685 -0.00053541735 0.02747187 0.042283665 0.10427604 0.101738796 0.0900544 -0.04827932 0.3305815 0.08372629 -0.006389548 -0.05266608 -0.04795364 -0.06365949 -0.049426965 0.022746928 -0.012376458 -0.010056177 -0.049569584 0.046893675 0.014982125 -0.065516464 0.10996152 -0.05498422 0.26007202 0.16506338 -0.061476983 -0.00058887876 -0.02801745 0.0059754266 0.09035049 -0.034016814 -0.032498732 0.15894608 0.07714863 0.13895118 0.21160014 -0.023364294 -0.04397892 -0.022061992 -0.08244573 -0.040417403 -0.08384846 -0.018040871 -0.021176212 -0.03228812 -0.09210566 0.11581698 0.064624965 0.048018076 -0.073752314 0.037869744 0.015434085 -0.054258913 -0.1110071 -0.02519332 -0.07062785 0.36990702 0.032352436
evidence 0.16756132 0.032501902 0.0047248425 -0.07832269 0.21486793 0.017631164 -0.035537772 -0.08398734 0.2427247 0.11356078 0.061686244 0.10593569 0.0056249485 -0.056891598 -6.855617e-05 0.043665443 -0.053212523 0.028768227 -0.13261637 0.1666263 0.0038199977 0.03929489 -0.12287338 0.08233628 -0.029532965 -0.027951673 -0.055995476 -0.0413901 0.04275558 -0.025825491 0.13408169 -0.12377878 -0.11425469 0.1957656 0.11832 0.018071823 -0.015317752 -0.14864995 -0.01899745 0.007819887 -0.018192189 0.089761704 0.018861175 0.012724867 0.03601532 0.13164832 -0.011305232 0.009997791 -0.046090018 0.008929556 0.01407945 -0.109618574 -0.009101891 0.10133951 -0.032297138 -0.07816923 0.052896895 0.08143791 0.004801374 -0.047572684 -0.07753845 0.20880078 -0.03793626 -0.044933684 0.032028552 0.16290377 0.0338251 0.030950904 -0.018337801 -0.085486576 0.018308358 -0.10023208 0.027250433 0.019236917 0.18818979 -0.02967315 -0.032399066 0.07925665 0.029122176 -0.123596236 -0.11546583 0.09665267 -0.006906964 -0.028968364 -0.024400584 0.035860527 -0.025840418 -0.11583739 0.19395608 0.061476227 -0.028464183 -0.07069322 -0.0393362 -0.061124876 -0.040594123 -0.0356105 -0.05164583 0.03002802 0.17735846 -0.04483705
experimental 0.27500278 -0.12678905 -0.09686744 -0.15318961 0.23004083 0.06260811 0.2543468 -0.014921088 -0.018359417 0.050428133 0.030973237 0.03941441 0.052046932 0.013252255 -0.013910198 0.20533441 -0.029758355 0.022844486 -0.053934835 0.14062978 0.005097443 0.062755026 -0.12801331 0.066748925 0.011227435 -0.09393069 0.02209843 -0.055903316 0.0459472 0.089243196 0.2678682 -0.14181395 -0.05609888 -0.012819625 0.029906955 -0.046340913 0.04675288 -0.1567658 -0.14359601 0.1702842 -0.017706996 0.12378367 0.07752702 0.07896435 -0.072045624 0.025968358 0.096382365 0.010715207 -0.04239249 -0.103765555 -0.05460066 -0.10965066 0.14466573 0.07051225 -0.15743913 -0.063754976 -0.11380851 -0.020708157 0.17782669 -0.025875404 -0.00011521895 0.31358793 -0.045065522 0.0148391165 -0.10368352 0.13280998 -0.023079967 0.059268516 0.0456469 -0.040364612 0.058837283 -0.019573454 0.15405959 0.12249018 0.068593696 0.05697942 0.21427168 -0.07345273 -0.1435137 -0.20266896 0.06205381 0.1610705 -0.0072323214 -0.040403403 -0.029167054 -0.046780907 0.15226038 0.04608738 0.07601876 0.072834246 -0.12322896 0.011158487 0.16159514 0.16005234 -0.061786164 0.00035792412 -0.14916843 -0.06800165 -0.101961695 0.060362983
frequencies -0.06807338 0.09285822 0.20586534 -0.024555363 -0.037803713 -0.010134709 0.011011349 -0.10091999 -0.09838673 -0.05734674 0.13944946 0.06412665 -0.10271173 0.12564231 -0.024517661 0.044886168 -0.038121454 -0.007515565 0.35242993 0.0702218 -0.017655594 0.18768062 -0.012378006 0.109820195 -0.07869355 -0.046931542 0.09100065 -0.14510378 -0.05710052 0.016061341 0.004894168 0.122171305 -0.0020180934 0.045508012 -0.02346765 -0.095349506 -0.058093317 0.07462944 0.04272998 -0.014408257 0.10936857 0.0024250622 -0.07102806 0.12387711 0.12665097 -0.12695815 0.106084146 0.08159834 0.09489901 0.4412874 -0.09670178 0.13720606 0.0038928613 -0.014869292 -0.035100706 0.1208173 -0.04571976 0.07294888 -0.09110728 -0.008547008 -0.04663781 0.08216619 -0.015902488 0.121541835 -0.11505432 0.078219146 0.22054748 0.093306646 -0.024143197 -0.04587372 0.043136746 0.020502917 0.006580765 0.018434696 0.067246154 0.19415891 0.022237867 0.06677684 -0.018730322 -0.093242064 0.008972429 -0.055566948 0.10561726 -0.014173276 -0.043048438 -0.01914404 -0.0801542 -0.05927181 0.23885354 0.3253603 -0.06907787 -0.026037624 0.07146775 0.13928168 -0.05270221 -0.052841973 0.18739311 -0.06560302 0.1858278 0.16618085
how 0.2705188 0.04289117 0.15926015 -0.02169184 0.029158572 0.16884127 -0.021872707 0.018518072 -0.113838516 0.38728282 0.06436758 0.014722574 -0.02669956 0.019648684 -0.0035873544 -0.0037629274 -0.053401023 -0.06724687 0.026662376 0.037269913 -0.16188975 -0.0014842346 -0.07531974 0.34625772 0.11803301 -0.025384128 0.019602846 0.045194753 -0.06686538 0.038723767 0.15428476 0.080739796 -0.02247112 -0.06794957 -0.032193214 -0.25506678 0.2832232 0.121429875 0.0937899 -0.0335861 0.015961645 -0.14307147 -0.047547773 -0.04176957 0.060182698 0.26879844 -0.08612004 0.281894 0.127687 0.1918681 -0.053549018 -0.15160015 0.11156737 0.018953858 -0.020652255 0.0756258 0.0434846 0.017042207 -0.041996688 -0.09419078 -0.018147875 0.009795638 -0.019979846 -0.03703847 -0.056094114 -0.15440725 -0.048818354 -0.1826692 0.45498285 -0.05286895 -0.013992894 0.07739152 0.18936974 -0.036351513 -0.071542904 -0.10394799 0.40386197 -0.053835545 0.11663782 -0.0343195 0.07450674 -0.008396729 -0.0037353598 0.012615698 0.011983252 0.04790057 0.32990664 0.22209863 0.45299467 0.10022228 0.059375897 -0.011699651 0.07711377 0.028588101 -0.011082881 0.11525631 0.05957917 -0.088870205 -0.12930144 -0.08927094
of 0.1435267 0.09427976 -0.009938658 0.0034174481 0.058821578 -0.030400334 0.002716939 -0.08261089 0.23147994 0.15192635 0.081875436 -0.023674909 0.011788756 -0.013610526 0.023862261 0.12918925 0.03778694 0.0006386599 -0.08814875 -0.021704007 0.029841224 0.0091877105 0.0010954253 0.18820317 0.13889003 -0.007803131 0.03656534 -0.019117828 -0.03597438 0.11702276 -0.056450903 0.038151715 -0.006573448 0.1421015 -0.09933827 0.03274798 0.19270255 0.035387304 -0.033207417 0.09928101 -0.051103845 -0.08695605 -0.048638955 -0.08649084 -0.073237866 0.27527374 -0.080484174 0.06569546 -0.037020914 0.019750265 0.10232184 -0.028383467 0.0916621 -0.1015808 0.00025130715 -0.061007887 0.05232444 0.010136098 -0.044522803 0.016177405 0.046340905 0.20850256 0.038064737 -0.01267424 -0.101731524 0.06472813 -0.0020481767 -0.07835446 -0.017376779 -0.062095024 -0.056828104 0.023517815 -0.047566585 -0.080394894 0.029188318 0.026190603 0.013991434 0.1549328 -0.011283302 -0.036191363 -0.06600943 0.014920392 -0.029145623 -0.0051737837 0.013386379 0.07394353 0.06081327 0.005416229 0.24750435 -0.147984 0.13786942 -0.012083295 0.04901342 0.07170362 -0.039910164 -0.018152716 -0.014916869 0.021619372 0.20347297 -0.047133315
present 0.21226941 -0.044779032 -0.049916968 -0.11492877 0.07365714 -0.06665117 0.21432637 0.009666531 0.11297236 -0.053949524 -0.020176614 -0.042482182 -0.08478555 -0.019633694 -0.021581676 0.25888357 0.04332035 0.042292625 -0.106638625 -0.15485314 -0.025547676 -0.07162145 -0.03807748 0.11241952 0.094101556 -0.074584775 0.057783972 -0.02499332 0.055672355 0.035315048 -0.01973114 0.029521301 0.042461447 0.014822258 -0.14412075 -0.054233223 0.122873634 -0.07621123 -0.11328493 0.052265715 -0.019529792 -0.032136355 0.016464494 0.09269612 0.0838745 0.06567112 0.11218952 -0.040132347 -0.048465986 -0.018657643 -0.005283166 0.017148245 0.1677532 0.012024604 -0.064604506 0.058391932 -0.07486838 0.07765571 0.12578274 0.01496076 -0.028656032 0.21740493 0.0051848385 -0.08919411 -0.13787019 -0.08444286 -0.04438902 -0.050741486 0.09347062 -0.012397869 0.010079253 -0.019130286 0.0779991 0.025571158 0.037024185 -0.07391751 0.068854176 -0.02928159 0.037872657 -0.18188184 0.0838272 0.1938641 -0.031243477 0.025751563 -0.0014898492 -0.0064208056 0.09309455 0.08690625 0.09965258 -0.06296833 -0.18720187 0.011489126 0.10737996 0.13457903 -0.12374948 -0.02672934 -0.040832765 0.09631306 0.030932257 0.018803021
systematically -0.028807046 0.018217923 -0.02259928 -0.010477985 0.02535262 -0.0028955839 -0.13062605 0.0833962 0.0007415135 0.038123958 0.05000558 0.07547696 0.1481337 0.1542034 -0.051962852 -0.011059517 -0.036070652 0.14462519 0.3455962 -0.0001253181 -0.0008802241 0.016868021 0.14704274 0.058334608 -0.025427792 0.01854103 0.07157259 0.09457169 0.12840872 -0.16936342 0.03144054 0.10930879 -0.016208202 -0.027326085 0.2496006 -0.008475711 0.004223487 -0.029775921 0.12607494 0.023330763 0.02482505 0.027035661 0.012511048 -0.0134813525 0.060240895 0.09577547 -0.13926926 0.0061445837 -0.0027236636 0.022312853 0.002869639 0.19425482 -0.010452745 0.114805296 0.12649646 -0.052161 0.1494637 -0.002046053 -0.005682462 0.02223315 0.0073929257 0.19178914 0.01837025 0.0049481634 0.19366731 -0.08920934 0.029270949 0.20825824 0.044656064 -0.07488967 0.0707251 -0.041440953 0.20212172 -0.07692952 -0.0057120463 0.062576786 0.03768123 -0.046560552 0.15288337 0.062251892 -0.046892267 0.17811401 0.05813907 0.10694957 -0.013733309 0.03738947 -0.06812978 0.061130013 0.18565342 -0.05984873 0.19686824 0.14173391 -0.009045354 0.054320674 0.1351699 0.075991146 0.19618614 0.03884497 0.03338838 0.06013814
word 0.028726267 0.03463403 0.12934949 -0.011926911 -0.03454516 -0.04021337 0.037326004 0.10207421 -0.06144572 0.11173479 0.1759906 0.095984146 -0.06369622 -0.038427867 -0.009478201 0.05988803 -0.026635313 -0.002656719 0.25805926 -0.08149054 -0.0074074985 0.03763916 0.073164344 -0.0049466263 -0.04156939 -0.0067752227 0.062341023 -0.079505295 -0.05800222 -0.011645424 -0.14174004 0.17808512 -0.09836911 -0.047262836 -0.116176166 -0.06915052 0.030325515 0.17658934 0.03636045 -0.0034834684 0.07741769 0.028265733 -0.025874725 0.12471538 0.22080752 -0.022943385 -0.009437708 0.15095736 0.05414891 0.32160974 -0.06403206 -0.071047254 -0.029653737 0.032191165 -0.05603561 0.35838848 -0.04028921 0.017870752 0.012385792 -0.004087857 -0.045891188 -0.056271926 -0.052264825 -0.029260693 -0.02813839 0.02762868 0.07628159 -0.110796615 0.09519649 0.049857162 -0.033943955 0.1451759 0.031154715 -0.021738749 -0.042901233 0.082441874 -0.09494671 0.013140583 0.057210565 -0.101506785 -0.008005509 -0.07785371 0.10569802 -0.008705628 0.059418745 -0.084016494 0.04055528 0.18622163 0.2584569 0.27549043 -0.034047157 -0.006595398 0.1401309 0.13571937 0.05121274 -0.10214909 0.06720304 -0.08307213 0.14438374 0.1329755
been 0.042610426 0.03646806 -0.0825893 -0.09601248 -0.08470893 -0.06930621 -0.057448875 -0.021556614 0.0360864 -0.120791 -0.013855761 -0.06993089 -0.05587232 0.0033261753 0.034444667 -0.033884734 0.049470104 -0.08926716 -0.041843973 0.020414032 -0.025917377 0.14702109 -0.03150037 -0.0070937974 0.05211212 0.017878804 0.08110186 0.16398495 0.026976127 0.056462184 -0.034744017 -0.03111751 0.048649866 0.014305259 0.0034668387 0.03811538 -0.006048035 -0.030133266 -0.096019715 0.024116542 0.016731445 -0.023200192 -0.08980006 -0.1133932 0.16975589 -0.05821096 0.1228404 0.16668075 0.056487646 -0.12822522 -0.012929056 0.03425205 0.02924724 -0.07407555 -0.037160445 0.008604984 0.2516973 -0.0439604 -0.011070545 0.03930499 -0.08795314 -0.00037549325 0.15494224 0.047605705 0.016484693 -0.11114292 0.027050532 0.0011952075 0.14277528 -0.042808715 -0.011426363 0.22550985 -0.046662394 -0.0452895 0.04696513 0.06850957 0.026550613 0.008864479 0.09839545 0.22569503 -0.12155282 -0.03064723 0.017973594 0.021077145 -0.045717694 -0.0035262306 -0.068554446 -0.10734481 0.19925597 -0.003949306 -0.052089322 0.07889556 -0.07608989 -0.045360062 0.038381275 0.29604515 0.029405992 -0.0034335603 -0.015933815 -0.07571325
has 0.22478783 0.11385555 -0.09613392 -0.084287465 0.07580919 -0.27447253 -0.09463241 -0.0023812065 0.11162874 0.14150652 0.116840154 -0.05026777 -0.03796041 0.53063464 -0.0015733882 0.1223992 -0.12178328 -0.006268285 -0.1036353 -0.0058974717 0.05857374 0.30076796 -0.003003638 0.08477112 -0.12416762 -0.05816315 -0.014595804 -0.070302404 0.17252623 -0.09607318 0.03144446 0.021023937 -0.046261035 -0.027614933 0.0051526274 -0.008454241 -0.09054759 -0.0845568 -0.065031186 0.18032563 -0.14693995 0.10544647 0.013271026 0.23568659 0.045301944 -0.042454034 0.28347394 0.45130572 -0.0030830358 0.48046207 0.103592195 -0.04198141 -0.063996844 -0.17037974 -0.037081663 0.09922131 0.20273471 -0.15075296 0.095223255 0.1425081 -0.005063914 -0.03975411 -0.0012602211 0.0051928684 -0.16420266 0.16929303 -0.01104318 0.024481459 0.4272324 -0.04479637 -0.10643016 0.1110328 -0.06487516 -0.037494697 -0.069363564 -0.10013344 0.011140907 0.061585076 -0.020123297 -0.10704104 -0.1458267 -0.044163797 0.010421028 0.10993006 0.014290113 0.065395795 -0.030557776 0.07454904 0.20637365 0.011631032 0.01397972 0.015781835 0.26920474 -0.0043661026 0.04123512 0.046366535 0.021379784 -0.07830533 0.0058946777 0.019558117
led 0.07723826 0.15628807 -0.045913585 0.026287844 -0.0027676476 0.018620681 0.067010604 0.060460657 0.053737354 -0.19412555 -0.040715456 0.12774676 -0.0110870255 -0.083864406 -0.11824413 0.024860572 -0.07212936 0.08913843 -0.09600379 0.030881708 -0.112660944 0.051171917 -0.020306878 -0.17845541 0.08071978 -0.03027118 -0.02010503 0.06719408 0.015622303 -0.03560841 0.092752434 0.013601543 0.2379367 -0.054252937 -0.07284762 -0.11916636 -0.06708948 -0.0743944 -0.068207875 0.02479074 -0.026489114 0.050081667 0.018236704 0.03275394 0.018904326 -0.06708134 0.04397782 -0.08125936 0.13492583 0.03805348 -0.02038868 -0.012767322 0.03707725 -0.05571734 -0.061932415 -0.0037452076 0.120058544 0.015780112 0.0012647302 -0.0965898 0.087543875 0.017469473 0.13976061 -0.04072444 -0.011664471 0.1185439 -0.028487444 0.08379009 0.123513125 -0.02724092 -0.08833049 0.30259535 0.039922148 -0.066620275 -0.10651262 -0.12265505 0.1370247 0.008202527 0.28558126 0.088374086 -0.07278078 -0.061692752 -0.13037165 -0.045036945 0.14399906 0.014364144 -0.054931097 -0.044782553 0.14114061 0.17150962 0.061908722 0.14634086 -0.006431222 -0.027248492 -0.030515274 0.030161908 -0.04827012 0.016204365 -0.047831375 0.19693789
literature -0.007065882 -0.03980609 0.071037866 -0.05787197 0.07732905 0.13164662 0.21006338 -0.0657897 -0.020629413 -0.0019180728 -0.02887177 0.034045212 0.031119999 -0.004055435 -0.10072032 -0.06534037 0.012920932 0.11993957 -0.09772124 0.050046366 0.13736765 -0.054769654 0.14379595 -0.0418582 0.13705754 0.011121117 -0.061946057 -0.0692659 0.052750755 -0.16738327 0.008136772 0.1079441 0.056782 0.037258394 -0.047173742 -0.050883617 -0.042486217 -0.09545974 0.21350119 0.0066393795 -0.01385846 0.15907912 0.013663566 0.1329997 0.16640042 -0.13638853 0.05992235 -0.12760575 -0.046883613 -0.041142542 0.045328703 -0.115884125 0.0006367201 0.14991714 -0.24669017 -0.07725149 0.035092928 0.12078135 0.051119167 0.16592146 0.035205487 0.1299639 0.02761912 -0.030031845 0.029015066 -0.010939159 -0.010547794 -0.06640551 0.0024741613 0.05945324 0.20816365 0.086673126 -0.10070435 -0.08340497 0.09535096 0.022318648 0.13846685 0.1361598 -0.033198178 -0.09483291 0.18887945 0.3751278 0.06601945 -0.06903046 0.00073660066 0.0055960612 0.11857544 0.12803067 -0.0118737165 -0.021560958 -0.05739095 0.0341041 0.26976675 0.24565412 -0.1466793 -0.116298474 0.21059515 0.037664797 -0.051890463 -0.11907137
misleading 0.04923091 0.14766018 -0.09726804 0.17958818 0.05858099 -0.0073497244 -0.114908345 -0.0062975837 0.028291084 -0.012506743 0.06171888 0.14154086 -0.10293773 -0.10988001 -0.08076162 0.028403638 0.07500597 -0.03563333 0.14549482 0.04266019 0.07622717 0.050696813 0.08725873 0.107020915 0.10028827 0.091494046 0.023662666 -0.005760993 -0.10778234 0.0140510965 -0.040122014 0.09467212 -0.011953505 -0.014097138 0.057661578 0.027425759 -0.12390213 0.03524782 0.06859739 -0.054882113 -0.03489333 -0.132576 -0.11484195 -0.02258057 -0.022464896 -0.011026446 -0.112433374 -0.012744354 0.04767904 0.008331949 0.06456882 0.027591286 -0.11571154 0.1841129 0.050413128 -0.031465396 0.04131509 0.08868699 -0.05352103 0.053048514 -0.0153679205 -0.123768434 0.035918556 0.0140771875 0.112051286 0.19195975 -0.029580628 -0.050045982 0.0015604446 0.0052370173 0.12619601 -0.021627503 0.090498045 -0.10456038 0.008541534 0.0016515285 0.0688751 -0.020291602 -0.039702047 -0.0071491576 -0.064377606 0.06920602 -0.020124426 -0.06308068 0.081681736 0.008254748 -0.06335033 -0.026988367 -0.02702135 0.0056794197 0.26342034 0.21514277 0.1545895 -0.019430546 0.09876552 -0.005235995 0.020138666 0.022578476 0.040579002 0.10991666
often 0.19181268 0.057768945 0.07362496 0.054821312 -0.0072144913 0.0031901048 0.025456637 0.270146 -0.00544439 -0.024411712 -0.070164174 -0.090117015 0.0023517446 0.1767125 0.0134607 -0.07145651 0.031520642 -0.08346589 -0.10402111 0.03382862 -0.020443315 0.057229757 -0.040569145 0.12857659 0.057858463 -0.07401562 -0.07403945 -0.0023350816 -0.029900895 -0.01898712 0.22441705 0.003982598 0.06746422 -0.07247123 0.01607061 -0.022921447 -0.10245894 -0.053398807 -0.0012837234 -0.0334855 -0.013098657 0.08001444 -0.03242753 -0.048060425 0.019869605 0.021623807 0.0069639217 0.07688706 0.13498585 0.03344306 0.14850947 0.005252894 0.008903615 -0.04785023 -0.05080021 0.089213625 0.07899928 0.0035145786 -0.019424943 0.025485536 -0.039055005 0.027707813 -0.03484892 -0.025324214 0.012796815 -0.09255375 -0.033635724 0.06691319 0.17966573 -0.03167938 -0.0042590615 0.24911264 -0.041631553 -0.043088406 -0.014624988 0.0205953 0.037813768 -0.027442366 0.2901952 0.066547275 -0.1044635 -0.023480795 -0.048414283 0.10079072 0.07418797 0.15647255 0.14916994 -0.010951096 0.08619322 0.20171116 -0.064008996 0.08070492 0.21269782 0.02991538 -0.02271479 0.10607365 0.009407949 -0.009268038 -0.05137344 0.13729787
or -0.043278445 0.052047975 -0.032049403 0.20722935 -0.017863272 -0.044030685 -0.054090932 0.17346188 0.15204251 0.021019615 -0.024052294 0.06877896 0.106515475 -0.016047955 -0.09046023 0.015986996 0.047968563 0.0050161965 0.11136885 -0.06953461 0.100434124 0.12898031 -0.09300659 -0.049488466 0.24954122 -0.014569674 -0.022665085 -0.060498346 0.073429786 -0.086638264 0.093451075 0.06697207 0.10652773 0.016175283 0.03974171 0.1202642 0.10868626 0.04135236 -0.021371203 -0.02499536 -0.060216974 -0.079609156 -0.016642153 -0.09102677 -0.0027398579 -0.066305034 -0.06610785 -0.045235932 0.018934233 -0.00361504 0.1303019 -0.069663934 -0.03438775 0.042983092 -0.027792493 0.058484692 -0.04430807 0.110213056 -0.0917128 -0.10835735 0.016939543 0.0029315269 0.0018760441 -0.0065717725 -0.021192515 0.0954177 -0.04505792 0.13849752 -0.06307733 -0.016789807 0.022476494 0.038217653 -0.04087162 0.099261835 -0.07865099 0.00787118 0.09907317 -0.010165304 0.043711465 0.15372469 -0.06717954 0.12731557 0.015379024 0.01868746 0.31398115 -0.028387025 0.05050377 0.01992057 -0.09260145 -0.04085235 0.03897647 0.18075052 0.08827724 -0.027064564 -0.06926085 -0.01586134 0.048562612 -0.029037008 -0.03578669 0.19913442
results 0.0076666875 0.14858857 -0.102343805 0.13122241 -0.03520203 -0.04943446 -0.096338816 -0.082485095 0.13568392 0.007962004 0.057475448 -0.115385525 0.06564244 0.0076481076 -0.091106616 0.00066704326 -0.011267578 -0.058917634 0.1415473 0.07938965 -0.069265164 -0.08197467 0.0841446 0.02228927 0.104532 0.08173193 0.08468825 -0.07128545 0.06749106 0.013889151 0.025066005 0.04753744 9.7598866e-05 0.14777121 0.080048814 -0.08206814 0.039748136 0.090751745 -0.020304745 -0.049630098 -0.019336386 -0.051204965 -0.03356735 -0.006785006 -0.009189941 -0.04488252 -0.054280594 0.049261626 0.048555225 -0.03989692 0.08450124 0.16675124 -0.019233638 0.15365443 0.12466652 0.047043823 0.054151017 0.15100114 0.03714408 0.14077586 -0.033342797 -0.002301403 -0.07429924 -0.099631235 0.18601254 0.22114876 -0.03284805 -0.07725352 0.029893624 0.008850648 0.09086598 -0.079562455 0.063571475 -0.04092966 0.025807517 -0.01685276 -0.041896064 -0.006389291 -0.10755584 0.109041326 -0.05395366 0.059205115 0.018515555 0.010179169 0.10208091 0.07782929 -0.006773932 -0.051757473 -0.020060683 -0.087086454 0.14235279 0.09437613 0.022904932 0.0011019347 0.11092732 -0.07318427 0.103923514 0.0015865616 0.096795455 0.09683896
