87 100
, -0.033677123 -0.0399264 -0.032044373 0.01169344 0.049971532 0.024696324 -0.005225707 -0.012513686 0.029614631 -0.00013822317 0.030142393 0.019386832 -0.043479204 -0.040674746 -0.012364842 0.01931915 0.025477577 -0.016447615 -0.027947724 -0.042916168 -0.01870941 0.017207388 0.030091394 0.025337312 0.03547949 -0.024861097 0.0055618286 -0.035342764 -0.04936675 -0.007571351 -0.011679482 0.018419456 -0.006344773 0.03740796 0.013610337 0.023393404 0.020378996 0.048104573 -0.044930793 0.03986064 0.0036573634 -0.045279052 0.0200019 -0.032100677 0.036824886 -0.0056880713 -0.031043816 -0.031632878 -0.029013848 0.03293686 -0.0048399456 -0.02951659 0.023905728 0.0019879565 0.024475444 0.0060721636 0.021264676 0.0061121956 0.0032386556 -0.046456765 -0.04784571 -0.030778194 -0.024213636 -0.01818527 -0.007060647 -0.009177543 -0.0137472525 -0.043051697 0.015606526 0.03407861 -0.014563907 -0.04858767 0.042252365 0.03227732 0.039348487 0.02143732 -0.028069938 -0.046228018 0.028833698 -0.0367982 -0.023711968 0.028458659 0.004880201 0.04108337 -0.029898286 -0.008376729 -0.008719098 -0.017904319 -0.048250556 0.031903896 0.04519813 0.015010741 0.02012651 -0.0102975145 -0.03168142 -0.019693065 0.030581508 -0.04296105 -0.048909154 -0.009217631
. 0.008707009 -0.034695018 -0.030442715 -0.048130084 0.00022529438 0.03869677 0.020888332 -0.04285431 -0.0014192946 0.045083474 -0.033535913 -0.032891013 0.024336983 0.042126883 0.03890134 -0.019746495 0.041866604 -0.02616707 0.02761637 -0.024696017 -0.0112507455 -0.035857428 0.029535923 0.04825567 0.010264337 -0.04924052 0.028730582 0.025964115 0.023595456 0.034030627 -0.0024416223 0.03562988 0.04864097 -0.003615819 0.026966106 0.020160917 0.017011072 0.010980021 0.045926716 0.01658595 0.03420161 -0.045226313 -0.028696133 0.032749522 0.02536342 -0.049092032 -0.0112760775 -0.044938087 0.046850946 -0.00012971088 0.03543779 0.03142819 0.037187327 -0.04843385 0.00022075325 0.027307142 0.005558096 -0.016545128 0.015775967 -0.022129213 -0.009303331 0.029235508 0.018315423 0.023919035 0.03379682 -0.023807002 -0.047886956 0.022954475 0.014640059 -0.038229037 -0.0362586 0.021223221 -0.0063288584 0.013173532 -0.013392948 0.03203846 0.04866029 0.012421526 -0.04642756 0.038654115 -0.024726117 -0.037026882 0.0060772076 0.04505718 -0.020727312 -0.024190009 0.025821354 0.010082256 -0.010427274 -0.009847902 0.04636048 -0.03354557 -0.042647947 0.012643877 0.001242958 -0.012840461 -0.019758595 0.044137504 -0.03719475 0.020976607
and 0.00976013 -0.03167274 -0.026986588 -0.0016489848 -0.029009283 0.0402042 0.029041577 -0.049900543 0.018829893 -0.005238615 -0.024094034 0.012682233 0.01283225 0.003352452 0.036448527 -0.02963606 0.004997123 -0.006441973 0.024344515 -0.0014100298 -0.020707702 0.048236433 -0.0011121035 0.03283233 -0.031581834 0.0032832138 0.0072513223 0.034687307 0.035789106 0.011555612 -0.048894048 0.026545297 0.048280347 0.02448899 0.042812075 -0.043177772 -0.01713984 0.015683118 -0.0077915415 -0.026757598 0.042299066 -0.049899843 -0.00937251 -0.014478721 -0.011627018 -0.011851121 -0.021860791 0.03228576 -0.04652784 0.0055761337 -0.031370558 -0.037940465 -0.0059311166 0.030819084 -0.013493288 0.04933432 -0.02020613 0.010567047 -0.021132028 0.039798807 -0.041600846 -0.031092966 0.04327886 0.04727712 0.021650467 0.010204017 -0.04848026 -0.0050808303 -0.019822443 0.005925715 0.020070288 0.039510477 0.04762436 -0.03259255 0.046831537 0.03132875 0.030423548 0.009965695 0.04247124 -0.0099976435 -0.0003602393 -0.020180393 0.020174216 0.004947532 -0.03236691 0.014195453 0.009569775 0.043126408 -0.044484627 -0.03928709 -0.016541146 0.034257244 0.0036167987 0.032837454 -0.034692667 0.014329765 0.005477451 -0.046724476 0.04163832 0.022645142
choose 0.0043282397 -0.026643097 0.048968803 -0.027152086 -0.0039606094 -0.0018722527 -0.035061657 -0.0022351034 0.037791584 -0.030654324 -0.0051588193 0.04885726 -0.009126186 -0.009266615 0.030113649 0.044911217 -0.013062168 -0.0003488548 -0.01541432 0.011210762 -0.047794905 -0.04711442 0.015457559 -0.04697683 0.0033272728 0.020337988 0.0037921555 -0.030995024 -0.03218924 0.041359674 -0.04352969 0.028243113 -0.013129711 0.00865053 -0.045737054 0.03736523 -0.01948737 -0.02564006 -0.031542383 -0.015357375 0.04756579 -0.026665783 0.013006482 -0.034526337 -0.043952383 -0.016726255 -0.03429947 0.0025584102 -0.039850045 0.019684803 -0.013316609 0.037500475 0.022594105 0.045930956 0.009115446 0.03219712 -0.04150176 0.007629454 -0.0081468 0.02564964 0.041595105 3.9301813e-05 -0.02709638 -0.009497773 0.004948329 -0.044502415 -0.0062087066 -0.033376455 0.03935254 0.014582004 0.0019222721 -0.018619217 0.039951827 -0.038872264 0.048853446 0.027763966 -0.009911872 -0.047983076 0.028182972 -0.02319926 0.044542123 0.044125605 0.021838915 -0.046085548 0.022152696 -0.030088747 0.049674463 0.029693078 0.0068465844 -0.016936101 0.045916203 0.00097645447 0.027616013 0.038450602 0.04149336 0.034566168 0.04379827 -0.03644512 -0.011673044 -0.026694512
essentially -0.016018473 -0.044584155 0.004378248 -0.04348718 -0.0336413 -0.02214166 -0.008911848 0.015559364 -0.041356266 -0.009290446 0.028361563 -0.038805056 0.03319112 -0.007780481 0.0372541 -0.027266253 0.03953674 -0.008621238 -0.03974558 -0.025986468 0.04021958 -0.047185242 0.026438918 0.020721067 0.034477 -0.018569421 -0.010768987 -0.036892496 -0.027656376 0.04541668 0.03391329 -0.01380967 0.027882244 -0.043190874 0.036313225 -0.015419163 -0.042672813 0.021744419 -0.015954684 -0.044512272 -0.031299938 -0.046571743 -0.0095824 -0.026655747 -0.014681816 -0.036815085 -0.009762656 -0.0412351 -0.01924019 0.0449909 -0.013210915 -0.013566028 -0.026889587 -0.042681515 -0.034259878 0.04525653 0.03106108 0.031524632 0.02384125 0.032787394 -0.038842034 0.03789631 0.044519637 -0.017546821 -0.0073948614 -0.020198656 0.038007442 0.022138346 -0.015920676 -0.018009163 -0.0052399635 0.016749594 0.036001448 0.049478892 0.0047926195 -0.024402488 -0.012357783 0.010304473 0.026236128 0.047742937 0.009822369 -0.02666316 -0.035415243 -0.012307059 0.019035924 0.049233053 0.047162298 -0.003282331 -0.01696223 -0.017458893 -0.038875617 0.015050579 -0.0069829114 0.0326028 -0.04639572 0.002036918 -0.026795184 -0.04120333 0.040663946 -0.04025017
is 0.048202742 0.020763386 0.0095407255 -0.0075091943 -0.012620926 0.002218105 0.027045336 -0.0015823729 -0.0017552599 0.04683539 0.023762297 0.0420374 -0.010925125 -0.035664808 0.040806185 0.035829235 0.035264883 0.014152158 0.01329403 0.028085623 -0.04001168 0.010598518 -0.04851955 -0.010064803 0.02223659 0.033294212 -0.041969597 0.016645376 0.00086758286 0.03310385 0.023202274 -0.02277751 0.045041848 -0.0034075156 -0.00052429363 -0.0059065707 0.031451907 -0.0033560395 -0.021091891 -0.037496734 0.047979508 -0.02264811 0.014205996 -0.017336179 -0.04532503 0.038923416 0.012994539 0.016354535 0.049433578 -0.016426634 0.04461124 0.026283268 0.018659841 0.02507789 -0.040313877 0.013979625 0.012060799 -0.016338646 0.035157908 -0.03615426 -0.034842968 0.02483705 0.049793843 0.02396277 0.0026095882 -0.030391002 -0.015989017 -0.02040391 -0.03169872 -0.043300238 -0.048317827 0.03653841 -0.00406022 0.020397652 -0.049344685 -0.0071639195 0.04585624 0.027852204 0.040345017 -0.029156983 0.020670127 0.002717603 -0.04159944 -0.035634257 -0.033634327 0.03203631 0.04085462 0.008793354 0.01376966 -0.026577795 -0.0120071545 -0.010720529 0.028247248 0.01731373 -0.030693317 0.015415255 0.04018053 0.042823624 -0.011975825 -0.004372727
language 0.020649064 0.019071762 0.01266196 0.043687668 -0.021301603 -0.041784286 -0.04254366 -0.026118254 0.019970868 0.015947904 -0.049173295 0.038082745 0.028838445 0.018877592 -0.021611894 0.006447673 -0.04167434 -0.014537465 0.03235196 0.044017937 -0.040480852 -0.0258587 0.0012594834 -0.022962857 0.03198317 -0.019069804 0.012213599 -0.010071456 0.026706386 -0.01066469 -0.0048093908 0.042010847 -0.038966298 0.015575897 0.019306604 0.0070436373 0.04657379 -0.009450674 0.010862898 -0.04335922 -0.009973131 -0.01615404 -0.038190506 -0.047292043 0.012570929 -0.03606204 0.028473582 0.038010363 0.043874923 0.04160804 -0.04631083 -0.04085896 -0.019997014 0.027006615 -0.008532919 -0.012046479 0.04751954 0.041192714 -0.016742896 -0.04738449 -0.0126387365 0.03881589 -0.03426435 -0.039197885 -0.023997797 0.010584008 -0.004666399 0.024048988 0.013873313 -0.028248621 0.025579546 -0.041651953 -0.023433352 -0.01594745 0.0060687177 -0.03908801 -0.0036236532 0.003425695 -0.028819466 0.035617877 0.011255015 -0.010959387 0.0024469271 -0.047593035 0.03876705 0.00885161 0.010300517 0.021067534 0.016782913 0.03762264 0.035249602 -0.016126595 -0.019345392 0.0043815374 0.0011754408 -0.037076224 0.03562821 -0.031628706 0.0289228 -0.025973475
never -0.0377663 -0.034619592 0.0139114745 -0.0043360367 -0.03463248 0.042967606 -0.029368902 0.046566818 -0.038960647 0.018865954 0.03834537 0.008277334 0.0028636083 0.012706343 0.027492117 -0.036964834 -0.031244159 0.028138887 0.0491266 -0.047691703 -0.044008173 -0.047292747 0.0284716 -0.010337342 -0.017580163 0.03531759 0.04324219 -0.024922645 0.0055668727 0.014977839 -0.0144167915 0.030624125 0.01216986 -0.04252174 0.00083901733 0.044967625 -0.003385663 0.01378211 0.035656366 0.020311702 0.041056085 -0.04219997 0.01168219 -0.048640158 0.017026667 0.023657862 -0.010265648 0.04705068 0.027688157 0.04004318 -0.010226894 -0.022568583 -0.0103451125 -0.046520032 -0.036080014 0.03497536 0.04387815 -0.03729155 -0.026478553 0.01699331 -0.016074419 -0.004335083 -0.042097747 0.026885938 0.0020868182 0.04917891 0.012425564 -0.03847903 -0.009356368 0.005681921 0.02900764 -0.032455374 -0.028098691 -0.040638484 0.030731265 0.039858866 -0.04515927 0.038478795 -0.024847044 -0.04150926 -0.0047555678 -0.027466489 0.0069953203 0.041959975 0.0037411675 -0.029883398 -0.04957186 -0.023000313 -0.041264903 0.0024486184 0.01668391 -0.01443528 -0.036952592 0.04108646 0.01696593 0.046890285 0.020263862 -0.049125135 -0.0040087216 -0.04302901
non-random -0.036028374 -0.031558946 -0.021472907 -0.025822842 0.033893276 -0.010088764 -0.0018614903 0.0027662292 0.046973255 0.031525623 0.040706705 0.019123588 -0.007130347 -0.043997597 0.029787626 -0.029336631 -0.004551254 -0.0043452494 -0.01497823 -0.017070495 0.031073842 0.00283923 -0.047647845 0.04261967 0.036943305 0.04342189 -0.010759674 0.03737176 0.03861126 0.048677515 0.03236455 0.01864561 -0.0021078102 -0.003500618 -0.032173574 0.038205888 -0.02502401 0.015275303 -0.037787367 -0.0051559806 0.024038207 0.037158977 0.039944563 -0.04709362 0.0415504 0.0027741678 0.031984735 0.03729253 0.009956859 -0.041244674 0.02753586 -0.026307298 0.035846878 0.046909485 -0.04226717 0.044326354 -0.045639493 0.034695867 -0.008012868 -0.031068338 0.045473326 -0.04555842 -0.039217483 0.004768323 -0.0072574615 0.029051576 -0.034628164 -0.014393102 0.0066532493 -0.027606105 -0.02581054 -0.007710457 0.027749587 -0.04260087 0.01528753 0.04647429 0.03810947 -0.02703476 0.0040487275 0.02418289 0.010443591 -0.017794441 0.04518595 0.013584804 -0.024897754 -0.048785817 0.013896655 -0.045171548 -0.011873174 0.020274345 -0.024507154 0.010525882 0.01935308 -0.0032326207 0.015475128 0.046633292 -0.02480104 0.009323012 0.0013850927 0.0070235245
randomly 0.04510666 0.045385372 -0.040274 0.01687846 0.04936819 -0.01844138 0.02178711 0.008953869 0.017580632 -0.002437152 0.04570477 0.01081904 -0.048247267 0.03255293 0.030725252 -0.014577888 -0.035514046 -0.00297606 -0.045277845 0.006718017 -0.032479204 0.04211874 -0.009428166 -0.03373847 0.019274298 0.018912684 -0.01226002 0.04877359 0.029555682 -0.04086436 0.010311831 0.009848546 0.039626863 -0.00028886646 0.034509268 -0.0064807907 -0.017811347 -0.045965206 -0.0047385693 0.040465426 0.020472359 0.00045334175 -0.04150945 0.011195887 0.03996967 -0.011240732 0.0011877194 -0.04561707 0.0022662766 0.026872646 -0.03934469 0.0058021434 -0.0112294555 -0.024494851 0.019049216 -0.015019726 0.039548505 0.027368832 -0.027782977 -0.005583681 -0.046549212 0.041565623 0.04206742 0.02742425 0.033003103 0.005686749 -0.012099396 -0.02551049 -0.03484273 0.019557547 -0.042026423 0.00894139 -0.030519594 0.039577853 0.026910935 0.00406605 -0.026623381 0.01083542 -0.031181766 0.035154644 0.043996695 0.004276097 -0.010884155 -0.028383065 -0.04373151 0.03547812 0.016150583 0.042895723 -0.014396168 -0.022347141 0.039815966 0.029237058 -0.04694703 -0.030737353 0.027542543 -0.04810654 -0.026436245 0.0077413805 -0.011512805 -0.012814246
users 0.007286109 -0.02222911 0.03197142 0.0066144355 0.0025477186 0.034946505 -0.047035504 0.034245025 0.008601643 0.017608393 -0.027270366 0.0068021305 0.035718452 0.008199286 -0.020256354 0.027340677 -0.022083854 -0.034120813 0.035537314 -0.025252521 -0.032747544 -0.0338912 0.046258513 0.013492119 -0.030719375 -0.03583877 -0.021685554 0.04900266 0.046071324 -0.031445958 -0.030249609 0.048542444 0.031864475 0.029836189 -0.012536801 -0.047352698 -0.00529914 -0.04700551 0.016543124 -0.031726852 -0.011875857 0.0114765875 0.013641719 -0.047599472 -0.01024767 0.013573084 -0.0126979835 0.01815014 0.039319623 0.016259622 -0.048439767 -0.012734175 0.03334261 0.027943578 0.034111965 0.035614345 -0.015515316 0.03783003 0.013524894 0.03696743 0.02032325 -0.014749788 -0.030765628 -0.046827972 0.04218692 0.0070873387 -0.012538612 0.033900145 0.008624531 -0.0003046021 -0.049062837 -0.042435337 0.006164562 -0.02422452 0.040251102 -0.022807121 0.043011818 -0.045551743 0.01838449 0.007179439 0.0058037154 -0.0065584183 -0.03855876 0.041111458 -0.044828713 0.027243022 -0.035704624 0.03389371 -0.00214101 0.034683455 -8.650869e-05 -0.012952387 -0.0023945458 -0.02647996 -0.024497796 0.040898908 -0.049792778 -0.03703339 -0.023374641 0.0468075
words -0.036773108 0.023621026 0.023857865 -0.027288234 0.029598985 0.021839056 -0.019882012 0.006512273 -0.047050025 0.03508551 0.043644894 0.036087405 0.006785821 -0.024820913 -0.022007788 0.011995602 -0.046072792 -0.009184919 0.020401824 -0.04305127 0.008096766 0.03474685 0.015942525 0.046898533 0.012372054 0.014428269 0.02383748 0.038700853 0.013451386 0.018327821 0.009511698 0.032217253 -0.016352855 0.045581188 -0.03982953 -0.033096813 -0.008313678 0.013953332 0.028005634 0.005443059 0.03700118 0.045835722 0.04090401 0.0066444874 0.025221277 -0.037351154 -0.0055080764 0.026177254 -0.049590588 0.002376236 0.033528958 0.01138439 0.033500228 -0.007848285 0.040159907 -0.02384982 0.046106648 0.036510836 0.018165622 -0.033628035 -0.04043641 -0.03918966 -0.034620546 -0.020405902 0.04348172 -0.023085464 0.03315342 0.024654496 -0.041832328 0.0036618337 -0.040638495 -0.042191304 -0.03907635 0.011152901 -0.026735319 -0.0027404055 0.016791377 0.03770307 -0.0155671835 -0.013839055 -0.015638508 -0.016905904 0.028726663 0.021000039 -0.038581003 0.028426316 0.019416321 -0.013201047 0.009305358 0.04228613 -0.005807828 0.016176235 -0.03311558 0.03783908 -0.03829999 0.02840871 -0.041558184 -0.0128099695 -0.02859596 -0.021097446
a 0.0014739744 0.0028418787 -0.018778969 -0.012162529 0.030976381 0.026416156 0.014494929 0.047421586 0.027269568 -0.038999487 0.005432915 0.0054772384 -0.02988639 -0.03699548 0.038697388 0.031035569 -0.025278473 0.034631196 0.04029746 -0.03419137 -0.033413246 -0.047845364 0.0011237264 -0.04920441 -0.0017433055 -0.017132066 0.012224387 -0.0027394071 -0.0072234757 0.017350685 -0.047912657 0.02513272 -0.004494 -0.03785348 -0.014231872 0.047598388 0.012952093 -0.048853185 -0.020739151 0.04791839 -0.028262962 -0.0032014735 0.01144433 -0.013329517 -0.029996324 0.044191387 -0.039934456 0.041236762 -0.0027168766 0.00605464 -0.006423153 0.015250992 -0.010667991 0.027322534 0.013823394 -0.023883475 -0.030123556 0.013624344 0.029613022 -0.01580007 -0.03240689 0.036919 0.026352052 -0.03592335 0.0027221553 0.03777465 -0.044201817 -0.009390246 0.036358964 -0.025409544 0.046694923 -0.03061006 0.018828843 0.008452583 -0.021078778 -0.03693532 0.036180127 0.044928145 0.014747504 0.044978786 0.0031119809 -0.0401567 -0.027710248 0.028541755 -0.010456502 -0.032228783 -0.018358849 -0.035478093 0.0029897913 0.0058697686 -0.040464975 -0.048138905 -0.0326761 0.045585897 -0.014786862 -0.024683356 -0.018647872 0.033190336 -0.041250955 0.029239025
hypothesis 0.029638898 0.0035086498 -0.01853665 -0.03267975 0.001102306 0.04103675 0.008255314 0.012018062 0.020144131 -0.013249122 0.009650908 -0.011442374 -0.049376 0.04839525 0.038148213 0.0012748018 -0.04038619 0.03223366 0.00089114904 0.03025205 0.027261857 -0.011039257 -0.033321463 0.015596036 -0.014950395 -0.04149636 0.025347237 0.016943227 -0.017507851 -0.0024328828 0.03158616 -0.02841754 -0.024746358 -0.024452163 -0.039202224 0.03963511 0.027483586 0.018061962 0.016703222 -0.015876673 0.02812681 -0.0366611 0.028012108 -0.0337307 -0.03268168 -0.0063367113 0.046745908 -0.04410206 -0.030778313 -0.00026603788 0.049850132 0.013563763 0.019428078 0.012277614 -0.028110648 -0.015610717 -0.0051353686 -0.020408427 0.0010614619 -0.028445577 0.0037368648 -0.003786303 -0.031369403 0.014571462 -0.02752161 0.005810369 -0.015034437 -0.009404361 0.04496428 -0.011233855 0.023452211 0.04869387 0.023332443 0.048467543 -0.047274854 0.0053188577 -0.02562213 0.00714178 -0.012770571 0.02382442 -0.022009611 0.010585032 0.00018180534 0.007012047 -0.049550332 -0.011391304 -0.038467743 0.03756127 -0.043095004 -0.032586813 -0.00533868 -0.013893891 -0.042969596 -0.046290945 -0.00406003 0.03806844 -0.012619246 -0.031761587 -0.038831115 -0.010118328
null 0.0027485713 -0.009092212 -0.047184337 0.002791334 -0.036009848 -0.018943548 0.01189331 0.017937254 -0.042161442 -0.03258703 0.040773954 -0.04313873 0.024921205 0.027724158 -0.03446666 0.018928085 -0.03455188 -0.047075808 -0.04873514 0.032341395 0.006886147 0.019319225 0.02793518 -0.0052869096 0.005170025 -0.045254398 -0.029952312 0.02642813 0.045422662 -0.027687741 -0.045355298 0.010961674 -0.003378678 -0.041294254 -0.023018206 -0.015297234 -0.018109381 0.047445778 -0.000996124 -0.027286028 -0.014114939 0.0030391812 0.044298176 -0.025032902 0.0049651377 -0.040817488 0.005629085 0.033844937 -0.0148598775 -0.03814677 -0.019112779 0.015711296 -0.033493474 0.03630397 0.00083975866 -0.02430041 0.005514968 -0.01421373 -0.021058692 -0.016467355 0.035752643 -0.040555656 -0.039907407 0.047828224 0.03452343 0.005597364 0.027497862 0.022187721 -0.0469339 0.016928326 -0.04711915 -0.001794029 0.038283136 -0.0068318136 -0.02349552 0.039428677 -0.02445643 0.049744796 -0.04143536 -0.017355908 0.0417321 -0.044994593 0.02571534 0.02973273 0.009158872 -0.045790862 0.023905937 0.010811709 -0.01706015 0.01172005 -0.003918864 -0.027510583 0.016555015 0.019361261 -0.038867712 -0.02232852 -0.028709782 -0.04239539 -0.02401644 -0.038682044
posits -0.035447396 0.038397375 0.0114294775 0.018085908 0.033324037 -0.03892963 0.00020086765 0.038136188 0.019639436 0.034121107 0.048947107 -0.019465804 0.00082405657 -0.04574101 -0.03670864 0.02752253 -0.0034113303 0.0021656528 -0.011814345 -0.019914282 0.00066174194 0.01637346 -0.040226974 0.0055579916 -0.0014813542 -0.03427466 0.030977037 0.021482054 -0.015983582 -0.04255277 0.009020746 0.01044146 0.020935897 0.013664987 0.01868875 0.028427009 0.04855186 0.0024961121 -0.0333794 -0.04222691 -0.009002745 -0.027473284 -0.015091099 0.023629915 0.02744243 0.015085887 -0.04825231 -0.03890599 0.017944906 0.023024607 -0.019249141 -0.046057787 -0.021103978 0.046387676 -0.042813506 0.0358592 0.042371307 -0.034087837 0.039906565 0.017213594 0.035983074 0.00080200285 0.048538897 -0.0053011067 -0.04369954 -0.044660594 0.036195982 0.011269022 0.047371138 -0.011394322 0.02893212 0.009101272 -0.021683801 0.047046218 -0.006951403 0.015166078 -0.03498913 0.0043990985 0.035155747 -0.025537014 -0.026224399 -0.010531891 -0.0060984604 0.016797256 -0.005505692 -0.0031170137 -0.04869331 0.011283316 -0.0067113414 -0.02903092 -0.04506923 -0.03416326 -0.040668406 -0.041677713 -0.006093763 0.022445094 -0.0357378 -0.022102153 -0.038666833 0.009723246
randomness -0.020536829 0.018409733 0.023817506 0.041645322 -0.015265215 0.02323569 0.014275346 0.04703832 -0.032596074 -0.008154333 0.02689879 -0.037726738 -0.04165224 0.04865289 -0.035928927 0.01172588 0.0036771186 0.017649937 -0.028392388 0.023425963 0.039221 -0.008679975 0.014183868 -0.014669754 0.037081394 -0.041939914 -0.045129012 0.012786303 0.04362062 0.014594961 0.044427622 0.034054402 0.04979067 0.034525935 0.0132199265 -0.049419332 -0.048785497 0.006908547 0.020822946 -0.019867003 0.043453205 -0.04930382 0.010174502 0.00010102987 -0.031379618 -0.039897215 -0.01097431 0.003933966 0.008252837 -0.018465616 0.039035205 0.029683683 0.027911816 0.005045019 0.018662963 0.047199223 -0.037948918 0.017311458 0.0046193823 -0.042040862 -0.036343314 0.023433093 0.02949566 -0.03537271 -0.007157542 0.013302911 -0.048411418 -0.015768707 -0.0016248822 -0.016439568 -0.033140615 0.04501457 -0.038298715 -0.026096046 0.009603776 0.038536202 0.039685737 -0.015502978 -0.0460817 0.028997768 -0.018014513 0.0070777647 0.0022867434 -0.048987236 -0.021805704 -0.0023454912 -0.039378453 0.01745342 0.047825072 0.028977845 0.044898633 0.011035703 -0.04336896 -0.049611546 -0.029421603 0.023080993 0.019285012 0.02854735 -0.01352812 -0.025855089
statistical -0.031137288 -0.009214759 -0.008417882 -0.028891671 0.036639724 0.03599855 0.009013675 0.034063887 -0.040318586 0.014033858 -0.047553886 -0.029478252 -0.04613141 -0.005451571 -0.0057308674 -0.046552848 0.049403813 -0.022338582 0.021128383 0.043332208 0.0051138885 0.012204446 -0.042174827 0.034900967 -0.025646055 0.020756055 -0.028163945 0.018010687 0.0437192 0.013934497 0.0001532659 0.006259691 -0.015245818 0.0149147995 -0.027401853 -0.020005966 0.010438155 0.035081495 -0.04141152 0.022783745 -0.010933422 -0.015895426 0.0092896335 -0.0148362145 -0.007374905 -0.03336072 0.041372154 -0.02862661 -0.018030263 0.01591685 -0.00538807 0.028222766 -0.022610962 0.014066968 -0.03584268 0.038729776 -0.040656112 0.00034906715 0.015388105 0.049992535 0.012046538 -0.0064796694 -0.047489893 -0.016225684 0.034525562 0.037673656 -0.044638753 0.02137262 -0.045034647 -0.040874638 -0.009154342 -0.030050015 0.028421689 0.04301523 -0.004248835 0.005303085 0.0064443126 0.026958477 -0.036428917 0.0040184148 0.02777977 0.028175239 0.012435354 -0.023508752 0.0070114024 0.043730725 0.031336855 0.0043926723 0.0070633516 -0.01098033 -0.04046216 -0.0041329637 0.018291447 -0.02121774 -0.011067022 -0.0028260574 0.021035884 -0.017738331 -0.0013000853 -0.020562017
testing 0.044992354 -0.049863804 0.032128576 0.045834396 -0.016588222 0.024839524 -0.043787755 -0.043175258 -0.01678779 -0.025256837 0.007781446 0.03172758 0.036749218 -0.015598692 0.022626523 0.027973857 -0.0031026974 0.031120848 0.028622877 0.040732626 0.033288788 -0.040644754 0.034944836 0.04953594 0.011085976 -0.027999068 -0.01097288 0.031084005 0.017672095 0.019061495 -0.020889247 0.011391021 0.02827679 -0.04214586 -0.017899454 0.018087957 -0.0106982365 0.016448233 -0.027064001 0.007084001 0.02367587 0.010234188 0.00040363148 0.0026188008 -0.030973995 -0.021685649 -0.037704803 -0.04986873 0.018008415 0.04126508 -0.00134499 0.047685634 0.03733561 -0.039207697 0.019166294 -0.032567345 0.030081633 0.02788255 0.025943208 0.000601314 0.03217146 -0.02453946 -0.035052907 -0.0043205023 -0.025811851 0.04084721 -0.022086823 0.004473377 0.02759229 -0.019086255 0.010323368 0.04390956 0.02206688 0.00667993 -0.03335931 0.040598664 0.0028539076 0.012548257 -0.043534018 -0.025113428 0.016940627 -0.02468418 0.023022208 0.0002317056 -0.032877184 0.028544787 -0.025862051 0.026077356 0.024469767 -0.032560337 -0.04227338 0.026695695 0.049794707 -0.044201374 -0.017646648 -0.016623236 -0.013686966 -0.02924626 0.008206703 -0.033518173
uses 0.006913565 -0.0020271763 -0.008325063 -0.007502187 0.0019552223 0.007769823 -0.019588137 -0.0075386763 -0.046744872 -0.036972534 0.0150722 0.027508345 -0.042221226 -0.017970465 -0.013854671 -0.03224559 -0.049879063 -0.025158072 -0.027505696 -0.043912947 0.04759625 0.02252705 0.010469355 -0.0022429228 -0.035402905 -0.0005391948 -0.024820888 -0.022092545 -0.043167878 -0.014345489 0.015422735 0.012019001 -0.021111894 -0.041789033 0.044191692 0.02510884 -0.040025067 -9.005144e-05 -0.04811883 0.04719403 0.01843058 -0.009045802 -0.04801741 0.01607741 0.040669452 0.026594851 -0.041909944 0.003974557 0.043456938 -0.007368516 0.042140316 -0.018233918 -0.018814111 -0.042712927 0.04636233 0.014517691 -0.03518033 0.029642057 0.044876624 -0.040273882 0.004306603 -0.047124814 -0.023551738 -0.027138889 -0.038016915 0.014371898 0.04853772 -0.03462366 -0.008875668 0.018961858 -0.040985547 -0.045959402 -0.040789057 -0.030506575 -0.026078392 0.037156772 -0.004255485 -0.029041577 -0.0070969947 0.009970915 -0.03795935 -0.011290252 0.02636676 -0.012581706 -0.014303423 -0.013902344 -0.005557157 0.015628073 -0.029995574 -0.0100059025 0.024931598 0.0032091513 0.046254244 0.0065539703 0.043084826 -0.015006579 0.02515706 -0.040774785 0.027464103 0.038508605
which -0.03643178 -0.03174119 -0.03461218 -0.04582683 0.00016126782 0.046933282 0.019800354 0.022497248 0.0055088624 0.037952963 0.03825928 -0.020594811 -0.021538783 0.04502544 -0.019001473 -0.02136965 -0.04830849 0.022032652 0.009357106 -0.014694475 -0.042315435 0.036811378 -0.020178486 0.04992031 0.0005924329 0.022494499 0.027366508 0.01091044 0.009905409 0.039494704 -0.008519925 0.017650787 -0.00862211 -0.04558685 0.027904402 0.04348551 -0.043413784 0.0058701746 -0.014947295 -0.038559116 -0.03477764 0.048460532 -0.0013135672 0.02116308 -0.03029628 0.027861629 -0.0497893 -0.00982853 0.019601677 0.041802112 -0.006213881 -0.044147324 -0.02188238 0.036614824 -0.0082683675 0.0085915215 0.04944409 0.027474951 0.0083398335 0.029593196 0.032864545 0.008757912 -0.037215114 0.03538773 0.038593862 -0.022838652 -0.02436216 -0.025051987 -0.04436654 -0.046879508 0.037114147 -0.029206945 -0.014225531 0.017390821 -0.018551767 -0.028382266 -0.00060410425 0.040387962 0.0066113956 0.02613784 0.04035983 -0.0467921 -0.014098417 -0.015008319 -0.008295141 0.048354793 -0.0054570064 -0.0033901334 -0.017944086 0.017971944 -0.0053735003 -0.030372739 0.022702884 -0.009802602 -0.013290871 -0.021212637 0.019247342 -0.0037394539 0.0141793825 -0.025076343
at 0.044939805 0.014263142 -0.012217142 0.0019814968 0.026308332 -0.01795622 -0.003350377 0.011151649 0.030586097 -0.02219522 -0.022843266 -0.02409091 0.037990104 -0.001786042 0.009490751 0.03476088 -0.02126882 -0.008733474 0.004755974 -0.015495133 0.009480704 0.042988066 0.015673269 -0.044810154 0.018107925 0.043425027 -0.024876118 -0.036720656 0.01113411 -0.027672172 0.01365507 0.0064648166 0.0028536096 -0.038628686 -0.0085519925 -0.0028517842 0.037883427 -0.039302707 0.049047995 0.009500217 -0.007519938 0.044633556 0.008966349 -0.026774943 0.004179705 -0.02355187 -0.027831674 0.012787711 -0.03099891 0.03328443 0.020925883 -0.00788442 0.016735766 -0.018089164 0.036981296 -0.036631085 0.008205198 0.043298986 -0.042989064 0.033383656 -0.016438328 -0.003150165 -0.010770749 -0.04833032 -0.018280707 -0.010063171 0.0002242811 -0.032403708 -0.012676906 -0.012316644 -0.0019688383 -0.03477013 0.015330169 0.018770803 0.019511964 0.04595938 -0.00036989525 0.034794006 0.005466759 0.014447954 -0.018655933 -0.022282792 -0.027555525 -0.016473044 -0.004644729 0.03823301 -0.0036042333 -0.036246013 0.028024461 -0.0050547607 -0.0058235526 -0.04639412 0.036833454 -0.018036593 0.020551194 -0.012073852 0.033383023 -0.048237335 -0.012784909 -0.007992864
be -0.03337586 -0.049920645 0.046351705 -0.009096466 0.04830325 0.014058832 0.029609371 -0.037126563 0.023035053 -0.020601405 0.029726434 0.034810875 0.039508883 -0.04708556 0.013297323 0.00846057 0.035296623 0.041312005 -0.023519432 -0.029024113 0.049310897 0.018340316 -0.0029254556 0.019499842 -0.03313159 -0.02844342 0.0071893223 -0.02930212 -0.015480317 0.01914021 -0.021043742 -0.03337102 0.014586713 -0.030814398 0.01122595 -0.0065731034 0.015503559 -0.0301306 -0.04549117 -0.0450976 0.024398033 -0.024866033 -0.04833231 -0.0059730634 0.023311224 -0.031643607 0.033784654 0.021943953 0.012928631 0.009120762 0.039939824 -0.039683353 0.03445668 -0.012082636 0.0013066754 -0.010076366 -0.034528125 -0.0054732077 0.049582552 0.011292934 -0.003365945 0.048811648 0.023068558 -0.003994845 0.033452097 0.032704804 0.022112656 -0.049678396 0.039400782 -0.037340082 0.010287367 0.032829527 -0.010830294 0.034873795 -0.030411435 -0.026382029 -0.00030325726 0.030749071 -0.02034837 0.0017685294 -0.038968217 -0.016094066 0.023418117 -0.009270169 0.03653926 0.043822516 -0.011217605 0.008216798 0.023346316 -0.042343866 -0.009509705 0.021109056 -0.040290654 -0.028026713 -0.0068452843 -0.039842464 0.045400906 0.0028865337 -0.02729789 -0.012757339
corpora 0.02108587 -0.030320728 -0.0148595795 -0.033095814 -0.03398762 -0.0012194738 -0.020727336 -0.010692906 0.019703392 0.034518074 -0.035324644 -0.028727626 -0.035197914 0.009919725 -0.039632536 -0.049982455 -0.0075893626 0.04744116 -0.019349337 -0.028777827 0.023725975 -0.041180216 -0.016119026 0.007844947 0.047501 0.03502449 -0.048413303 -0.02337489 0.0009658821 0.0022929534 0.04130428 -0.03527857 0.030734453 -0.036966287 0.011207748 -0.0062003955 -0.04314927 -0.025589382 -0.021438314 -0.010946382 -0.005612146 -0.015892267 0.009362351 -0.0033551082 0.044343915 -0.005377054 -0.026152207 -0.03294845 0.023461629 0.036283124 -0.0043896213 0.003024459 -0.02258513 -0.03837062 0.022524644 -0.008328188 0.04512359 0.011606336 -0.04005327 -0.012885343 0.023326222 0.020281482 -0.040197514 -0.014883339 -0.030247426 -0.019801104 0.022919629 -0.0034981593 -0.02901485 -0.009550083 0.0020167008 -0.030614937 -0.039296903 -0.0008643046 -0.024342835 -0.0054043755 0.010976601 0.039335478 -0.03468541 0.027878646 0.0054329634 -0.037189413 0.044444475 -0.04243345 0.048277248 -0.016052328 0.047463786 0.025170874 0.020843793 -0.029442644 0.018742058 -0.015083432 -0.025023198 -0.0077395923 0.036210205 0.025036301 -0.04910592 -0.028992677 0.002416063 -0.03409417
hence 0.041263018 -0.014524423 0.02798194 -0.0011673085 0.002475977 0.016893554 -0.010964729 -0.029740905 0.03924105 -0.028370751 -0.040290903 -0.014398027 0.042857055 -0.049242128 -0.0097591765 0.03429288 -0.017383836 0.031830322 0.040937852 -0.008844733 -0.01610751 -0.030560732 0.0025525205 0.021890309 -0.046029698 0.016182665 -0.043891143 0.04375447 0.040471677 -0.037440218 0.03693864 0.048530947 -0.041563403 -0.029718244 0.04727563 -0.0064912923 -0.010520004 0.018082146 0.026581611 -0.046325564 -3.3069402e-05 0.03381962 0.015512828 -0.04639268 0.0041646734 -0.033216193 0.025043976 -0.0025133714 -0.045835413 -0.04252516 -0.027552951 0.007898975 -0.04244672 -0.01956514 -0.024891794 -0.019017732 -0.04553188 -0.031193018 -0.0044344775 -0.03377352 0.014557969 0.0007475391 -0.0056852326 -0.026805222 -0.022515083 -0.010116816 -0.017672323 0.0032783747 0.004485976 0.03274736 -0.0084426515 0.03788178 0.008240353 -0.0021323077 0.0093727335 0.033406902 0.024433028 -0.030952359 -0.019746853 -0.032283247 0.0081343055 0.013974454 0.0062412247 0.00498005 0.010957815 0.010723162 0.034023847 -0.032339323 -0.04689027 0.041358102 0.045421388 -0.044137802 0.012182295 0.023882214 0.044706177 -0.017512284 -0.040371597 0.01832359 -0.010662962 0.048990753
in 0.02219237 0.013261799 -0.047465622 0.01286285 0.010503639 -0.004611112 -0.025545835 0.018134322 0.005307425 0.021594275 0.032276 0.02258141 0.029951584 0.030020986 -0.0035852902 -0.040374838 0.0119639635 -0.009938933 0.021065962 0.036775317 -0.034069493 -0.008686889 -0.041190576 0.019126002 0.010280322 -0.023743916 -0.03402312 0.008521952 0.026652541 0.045157757 0.012805175 0.046819057 0.04113991 0.010827195 -0.009991955 -0.016856156 -0.00993849 0.037083495 0.0222453 0.01866782 0.027683083 0.0139773525 0.032606754 -0.021474957 0.033903066 0.02795047 0.018538047 -0.036685444 0.02961329 -0.03659786 0.04867046 0.0025766008 -0.0016206279 -0.02582835 0.02858783 0.032113466 0.013372805 -0.009399138 -0.048101723 0.03741919 0.003823042 -0.022184217 -0.023149729 0.020970713 0.027401749 0.030017365 -0.01978271 0.026746336 0.026562322 -0.0074660406 -0.002520334 0.03555126 0.029749084 -0.0050342567 -0.032331385 0.037477758 0.03339416 0.0034627803 0.024191204 -0.049547862 -0.02855575 0.03066272 -0.012580015 0.030011382 0.047228824 0.015214834 0.0018031001 0.009054732 -0.017986335 -0.032813147 -0.03592962 0.009328961 -0.038456988 -0.017764904 0.023749638 0.006274771 0.019462492 -0.042875078 0.03952576 0.016589884
linguistic -0.03016597 -0.02083739 0.0114443675 0.012991022 -0.020168412 -0.039889395 0.0329816 0.007272266 0.0032647625 0.041287754 0.041984703 0.026358973 -0.037401974 -0.03225006 0.0442569 0.03715111 0.037580762 -0.029930735 0.021609452 0.02652837 -0.007867228 0.013019118 -0.0020464659 0.04218488 0.0054405555 -0.047742892 -0.03028208 0.015704166 0.008829452 -0.017419852 -0.03888247 0.025065292 0.0024957545 -0.02099247 0.0020381436 -0.019963061 0.024746154 0.0416481 0.025627736 0.0009488575 0.049978342 0.031673934 0.028578077 -0.03218855 -0.0017132163 -0.016412377 0.034324292 0.0059962757 -0.013612032 0.030018125 0.02715825 -0.028423918 -0.034011506 -0.031954013 0.047638763 -0.008375801 -0.026063873 0.0030652396 0.025803652 -0.0019768365 -0.017461278 0.012408517 0.020273712 0.005166076 0.0020730123 0.026917819 0.0477275 0.0099263415 0.021956313 -0.0191489 -0.016559731 0.04555655 0.024413738 0.0014929399 0.015076164 -0.020379782 -0.037556063 0.025042046 -0.027840007 -0.045074653 -0.025930775 0.00035425276 0.029984463 -0.008178424 -0.0062889233 0.025883485 -0.042415846 -0.029000318 0.023457598 0.015546326 0.016092908 0.016118351 -0.0064236894 0.0061184987 0.0047949776 -0.018193029 -0.029573321 0.013234232 0.010087777 -0.039282463
look 0.04838046 0.040710855 0.032915305 -0.012249254 0.04751003 -0.004253365 0.040921364 0.042533282 -0.012954354 0.031945158 -0.014855899 0.038286958 -0.031563245 0.046123672 0.027030732 0.007185973 -0.047932517 -0.0021860823 -0.010970093 -0.031220436 0.04689845 0.041096937 -0.04843042 0.017760683 -0.015061617 0.021119166 0.01651844 -0.048020553 -0.043079223 0.023276065 0.012708355 -0.023692418 0.027768407 -0.03428948 -0.01029513 -0.032652177 0.02152064 -0.0017739423 -0.01776316 -0.0484159 -0.0180869 -0.021164728 0.014581669 0.044022273 -0.039252687 -0.008680619 -0.032242976 -0.031526864 -0.01752925 0.013706598 0.033783544 0.02979448 -0.01090356 0.044382323 0.030507293 -0.00057759136 0.03207605 -0.023476541 0.025401462 -0.018995702 -0.010985039 0.044690598 0.01868968 -0.031233514 0.044234704 0.031142283 0.017346691 -0.017514408 0.032806348 -0.026983643 0.026609946 -0.020042086 -0.046631027 0.012805793 -0.004429091 0.027075399 -0.023671245 0.004180394 0.015324358 -0.01830002 0.014175225 0.008503519 -0.024966015 -0.035335053 0.049012903 0.0066210404 -0.02159834 0.028238725 -0.034480534 -0.03212421 -0.02726984 0.023487616 0.010959305 0.03885093 -0.040604174 -0.013271488 0.0007735267 -0.03873186 -0.029306782 -0.023884952
phenomena 0.005250573 -0.03901838 -0.00076019764 0.03670338 0.019197676 -0.020563066 -0.0024244562 -0.016201533 -0.003033746 0.008728802 0.008210551 0.045186106 0.015110526 0.040455315 -0.009715281 0.022993777 0.0049504265 -0.0066873804 -0.018889105 -0.03559512 0.0007510297 -0.0027589798 0.034818415 -0.0081469305 0.024034727 -0.0051343217 -0.031298354 -0.029962255 -0.037793767 -0.039757073 0.021308985 0.03829739 0.044325855 0.016059946 -0.026120497 0.04385567 0.02216177 0.0323701 0.034649584 0.0325359 0.033662383 -0.0073632486 -0.0025138743 0.033417765 0.011056982 0.032587815 0.02347697 -0.012509763 0.025627445 -0.042226385 -0.036813855 0.033421863 0.012280859 -0.026773548 -0.0008658767 0.018785182 0.02330232 -0.011598073 -0.034851633 0.044928107 -0.048426688 -0.023037804 -0.022063721 -0.0019187443 -0.015978087 0.018475901 -0.03518697 -0.032307804 0.046132628 -0.0015002117 -0.013175748 0.010605823 -0.021371806 -0.013422944 0.00970459 0.043527637 -0.046664845 0.035971556 -0.018540572 0.031714465 0.021550324 -0.03296367 -0.0341233 -0.026283836 -0.015181601 0.04812816 -0.0034270287 -0.015660144 0.040327977 -0.020917881 -0.006894611 0.008489013 -0.010812126 0.015413713 0.0166572 -0.0043064356 -0.00409019 0.03128166 -0.006231688 -0.022774244
the -0.031986833 -0.019139124 -0.002749253 -0.010774184 0.043270063 -0.023705948 -0.018332839 0.01455811 0.006076228 0.017410126 0.025109734 -0.041468848 -0.02799064 0.03900579 0.03133407 0.0070617422 -0.0220075 0.011381365 0.005167663 -0.042897798 -0.042636275 -0.014298808 -0.042705514 0.023957994 0.03561597 0.036087062 0.028211247 0.003864754 0.011948727 0.01350316 -0.015277661 -0.014925383 -0.032851614 0.03295091 0.025273386 0.013824109 0.03196032 -0.030471265 0.041973267 -0.026400948 -0.03014697 0.022246432 -0.01245866 0.016408097 -0.037476968 0.03433645 0.04218472 0.047947172 -0.03738886 -0.035891008 0.01957475 -0.036343943 -0.027619028 -0.04358517 -0.045367755 0.023715828 -0.009678997 0.016380798 0.03488337 0.015698504 -0.027639342 -0.005179275 -0.020838737 0.012532745 0.03818058 0.03000195 0.03178997 -0.021581769 0.034009766 -0.049137093 -0.020372404 0.0046038516 -0.02418238 0.033871006 0.003344059 0.0171634 -0.049416732 -0.025203073 0.02480283 -0.044205356 -0.03186538 -0.010029994 -0.024704589 -0.041555904 -0.031815827 -0.012471855 -0.0429878 0.008903135 -0.0317591 0.035569835 0.045441512 -0.029347861 -0.038128756 0.044374708 -0.03129174 0.03084388 -0.007335294 0.041014742 -0.046496954 0.048536133
true -0.022503877 -0.02758112 0.034286167 0.035396386 0.029149864 0.023896527 -0.022602653 -0.03996303 0.017201211 0.031950187 0.033611465 0.03849596 -0.024546051 -0.009867728 -0.0023484826 -0.011271417 -0.029873753 0.039737154 -0.028738523 -0.03962331 -0.0048425086 -0.03752508 0.047203984 -0.026287485 0.043390047 -0.0028545968 -0.038837504 -0.01206262 -0.02082925 0.040802788 0.0037838444 0.013382662 0.017654244 -0.0036151186 0.019732978 0.049880896 0.006329797 0.004388891 -0.031085743 0.013184357 -0.017634679 0.030479003 0.034967814 0.005493749 -0.041141927 -0.010674 -0.018792331 -0.0070066825 0.03816097 0.022270348 0.028724957 0.049281266 -0.035224415 0.022263352 0.029138554 -0.031496026 -0.005580973 0.04215977 -0.04139469 0.048821237 -0.023939634 -0.04250982 -0.025639249 0.0011640899 -0.018012155 0.041538443 0.022410538 -0.026930107 0.03839353 -0.03706274 -0.015510429 0.03496382 0.005719077 0.03186408 0.0015266314 0.032209303 0.030403648 0.006169237 0.025662888 -0.0024936795 0.042196166 0.03453556 -0.0453715 -0.022978498 -0.008478977 -0.043174993 0.038523044 0.049772013 -0.024530245 -0.02579601 -0.038008858 -0.029084599 -0.008080255 -0.022678806 -0.031768538 -0.01312815 0.004376184 -0.038233887 0.033787314 0.029143844
we 0.022877697 -0.03585287 -0.026068378 0.011381984 0.03748406 0.046782326 -0.001360096 0.0011708364 -0.027552605 -0.043830108 0.025425766 -0.041464556 0.043836985 0.001832664 0.02795894 0.04430488 -0.048027754 -0.0388147 -0.049821198 0.047538545 0.032524023 0.0073000565 -0.0458074 0.023037028 -0.012103878 -0.013649367 -0.042368807 -0.023535956 -0.032696832 -0.04809574 0.042648558 0.021503773 0.0455007 -0.017266262 0.0466046 0.038905296 0.042350654 0.0031342022 -0.0045961253 0.03268018 0.031416547 -0.029256 0.007929884 0.03920425 0.0030043833 -0.041971613 0.019435491 -0.010528505 0.0056352504 -0.011715125 -0.014930785 -0.038646042 -0.012372971 0.011302698 -0.0055103786 -0.04319935 -0.023667706 -0.017157637 0.008362364 -0.01054455 0.009575058 0.010998987 -0.042338755 -0.035377573 0.03391287 -0.0034001842 0.025418226 -0.003343068 -0.014277719 -0.022593915 0.045099143 -0.00458467 -0.0011816397 -0.021016276 0.045092974 0.012348842 -0.0075133555 -0.0039507523 -0.017553162 -0.020931637 -0.0130286105 0.010720719 -0.0419703 -0.027430965 0.026536826 -0.03667829 -0.0019045696 -0.0070295557 0.027589444 0.036758374 0.021466602 -0.03333894 0.020932186 0.026763942 0.028634522 -0.018203638 -0.018321991 -0.033028353 0.028197918 0.039796006
when 0.009091366 -0.007150758 0.008950889 0.0029781945 -0.018211223 0.035105813 0.03369757 0.03435817 -0.007837366 0.03201126 -0.0462899 0.014649335 -0.014916979 -0.010733556 -0.0046321973 -0.041713037 -0.020651722 0.04921225 0.013462234 -2.1673739e-05 -0.020470917 -0.045902815 -0.021384193 -0.03775506 -0.040970374 -0.017933499 0.027046453 -0.019159699 -0.013595723 0.0234272 -0.021899713 0.012427427 0.03981297 -0.009349324 0.020936754 -0.018282913 0.04257388 -0.0020470023 0.031396102 -0.029724265 0.045143116 -0.03374058 -0.029357208 -0.035965703 0.032650318 0.04034854 -0.046378374 0.015269328 0.049938705 -0.020550191 0.012562837 0.0035691857 -0.046763718 0.023798753 0.003051199 0.009334613 0.020296622 0.019636642 0.0448058 0.017795574 -0.044321753 0.010991253 -0.0030721202 0.016263355 0.039883625 -0.020399738 0.0474154 0.035890568 0.020811643 0.031834852 -0.0138788335 0.0192536 0.025617909 0.02847239 0.018243376 -0.01345991 0.0062124357 -0.010765135 0.03917967 -0.01091845 0.009467803 -0.037049234 0.03947108 0.03166313 -0.047507323 -0.0033419132 -0.02598933 -0.012112342 0.033616792 0.0305462 -0.024886632 0.030560646 0.038301382 -0.048501577 -0.024594272 0.046990585 0.048555683 0.020018283 0.045908425 0.049539473
will -0.019545019 0.043082785 0.007652484 0.011902463 0.035687935 -0.019419897 0.040363256 -0.030513955 -0.035459936 0.019298349 -0.04740999 -0.032201245 -0.014009915 -0.03495456 0.010720171 -0.03589387 0.044181358 -0.024801875 0.04357573 0.029757153 0.0052758344 -0.0076928847 0.014186133 0.014922272 0.013005707 -0.027027989 -0.04577099 -0.038641382 -0.020412803 -0.021744002 0.048447814 0.037953127 -0.02641747 -0.018342376 0.017447237 -0.027191972 0.0019214973 -0.010959946 0.022511218 0.029879857 -0.037960805 0.020117987 0.04561465 0.031017054 -0.032653667 -0.030473638 -0.009292163 -0.0148199685 0.047010925 0.040722836 0.023114923 0.020948444 -0.02561307 0.0048928633 0.02711529 -0.04301045 -0.008615185 -0.02813816 -0.008038916 0.006363988 -0.032939576 0.034126308 -0.017806731 -0.028236711 0.049477402 -0.039855648 -0.010262024 0.031290416 -0.043692615 -0.038071193 0.037558768 0.03401046 -0.014655791 0.016165998 0.038389515 -0.02495171 -0.022371804 0.043087255 -0.047234595 0.04683492 0.025590304 -0.01489215 0.041911054 -0.012700595 -0.0049286 -0.04782317 -0.020888472 -0.0056349263 -0.00620196 -0.033193663 -0.007670354 -0.027781773 -0.02642864 -0.0077814683 -0.0060544126 0.012553368 0.005711578 -0.007373024 0.019219998 0.03954829
( 0.013617244 0.03358433 -0.049103655 0.028853271 -0.0005687475 0.04607531 -0.013685882 0.043419424 0.010873627 -0.024643684 0.029504683 -0.01371634 -0.049841296 0.014118899 0.045831036 -0.024553359 0.04941496 -0.0096079 -0.0032078847 -0.04215934 0.02599809 -0.028877283 0.014029611 0.021616492 0.014901724 -0.0058595315 -0.048159696 0.01132486 -0.045771956 -0.008163523 0.031689357 -0.014775563 0.027275894 -0.039997138 0.0047214143 -0.038019814 0.011437751 -0.013087083 -0.033952907 0.019077305 -0.027435018 0.010011744 -0.020099854 0.048304643 -0.026024962 0.03365198 0.023189154 0.029114116 -0.0421345 0.033084024 -0.005910374 0.049796496 -0.038438283 0.04312655 -0.027966106 -0.046147276 0.048989546 0.035412166 0.0010326281 -0.03916948 0.046801995 0.020975951 -0.017581843 0.02363063 0.0005614273 0.034100603 -0.025369823 0.031109933 -0.031853534 0.0486576 0.048893858 0.03384577 -0.036693465 0.036147866 0.020970535 0.047528293 -0.008654464 -0.044093467 0.044422794 0.014276873 -0.023269964 0.024173807 0.007876623 -0.026503468 -0.01987425 -0.008062135 -0.00060568005 -0.04168116 -0.01386454 0.007255066 0.0062964335 -0.0025229827 -0.008015454 -0.048602726 -0.0488258 -0.011198092 -0.014529087 0.030883182 -0.03089552 0.028723385
) -0.026598895 0.002619207 0.04409318 -0.0019988902 -0.04978137 0.027702931 0.025315728 0.041713562 0.025208365 -0.047094632 0.033192184 -0.022244502 0.03460362 -0.035673928 -0.04245422 0.022971097 -0.004508756 -0.009500064 -0.036951244 0.04743788 -0.0027769208 0.014454495 -0.010744654 0.033229563 -0.024308145 0.023548331 -0.0004922524 0.00985191 0.03133234 -0.030660762 -0.0061774254 0.041251432 -0.022743845 -0.01354301 3.9063394e-05 -0.0015537962 -0.024566734 0.00741712 -0.0077043995 0.02092791 -0.037603676 0.027379122 -0.043947842 -0.014582109 -0.012077011 0.044293832 0.039510738 -0.045230903 -0.03733796 0.010256685 0.016074803 0.04527681 0.03678641 0.011400223 0.016410556 -0.009400822 -0.031825542 0.043868687 -0.02102915 -0.03767363 -0.027758062 -0.005279232 -0.032575987 0.035681155 0.0074621923 -0.02929808 0.013593543 -0.0119485855 -0.020639552 0.035745952 -0.027377952 -0.0292063 -0.02598517 -0.01163844 -0.034674026 -0.030087698 0.03298937 -0.033348642 -0.03504776 -0.01620232 0.0013704672 -0.005801093 0.016325485 0.020148959 0.016480658 0.039268043 0.024241772 -0.038068652 -0.031571805 0.017788913 -0.030585468 0.01200787 0.008280195 -0.026192725 0.045114245 -0.04209874 -0.018838322 0.022572603 -0.019753778 0.005919777
able -0.03997947 0.0005895868 0.015100252 0.0027462132 -0.02193513 -0.047401097 -0.0023666844 0.019978765 -5.517155e-05 -0.048758734 -0.013315 -0.034242976 0.020223584 -0.015020788 0.030342404 0.0022404678 -0.0027100928 0.041406225 0.02711295 -0.022612298 -0.009042431 -0.016440045 -0.04501287 -0.007950306 -0.006908249 -0.049130272 -0.02313671 0.017384935 0.014458034 -0.027613426 0.0035975464 0.041293208 -0.04509888 0.021426607 0.044634853 0.021091107 -0.012330629 0.022831652 -0.00835681 0.042102385 -0.035061765 -0.010560144 -0.038758717 -0.035779893 -0.04357766 -0.005173087 0.03520331 0.032950785 -0.011284091 -0.014298856 0.025791515 -0.021813584 -0.016391076 -0.02516048 0.0041527376 0.04451065 -0.01498257 -0.00034435838 -0.03019706 -0.018709816 0.038302246 0.0017662644 0.03528141 -0.049879204 -0.0017932542 0.021773208 -0.022325981 0.016852964 0.026149776 0.016901616 -0.04028336 0.014379334 -0.017877877 -0.037917733 0.039540123 -0.002958428 -0.018882 0.03245202 0.029018153 -0.031197632 0.048350442 -0.0063516125 -0.036827732 0.0022182465 0.014554869 -0.012306917 -0.036367156 -0.025261963 -0.033396233 0.016337048 0.002291251 0.024630677 0.028254893 -0.038419712 0.040617477 -0.0348474 -0.015376411 -0.007561423 -0.0380344 -0.0035424829
almost 0.04544187 -0.040939413 -0.02360983 0.027487699 0.049171958 -0.036983706 0.04859641 -0.039951824 0.03171717 0.043616284 -0.0031684265 0.018508207 -0.0018685572 0.028553914 0.016428117 -0.030008411 0.044279147 0.041983772 0.0009759553 -0.014601577 -0.036060523 -0.027420355 -0.045010507 -0.026387716 -0.039355684 0.028972212 -0.004930176 0.01036974 0.04465803 0.048055243 0.041329477 0.0025411248 -0.029458642 -0.0022139773 0.01807164 0.011060357 0.030791644 0.02486476 0.0061041936 0.005861331 -0.03958428 0.041426484 0.030443694 -0.042387437 -0.040411137 0.014174346 -0.0056245327 0.045003783 0.0048485175 -0.04085859 0.00866548 -0.036873948 -0.008726645 -0.035188865 -0.035375476 -0.009147059 0.037055682 -0.039818477 -0.030511606 -0.029388381 0.018536244 0.029387359 0.0496171 0.011754729 -0.044405606 0.023988139 -0.0065012574 0.0066383593 0.012842547 -0.010529708 0.0010286346 -0.03931669 0.0034471378 -0.03204377 -0.02650081 0.0056431293 -0.016797792 -0.010580622 -0.029770602 0.034866225 -0.0110346675 -0.019000804 -0.0028133988 0.025907014 -0.03989935 0.019358527 -0.021943046 0.03490815 0.02567165 -0.031541064 -0.0022428744 -0.037646543 0.0223024 -0.034927297 0.02282131 -0.022563612 -0.006093286 -0.045458186 0.00247401 0.012604322
always -0.024718834 -0.046321284 -0.019644702 -0.049100947 0.027521078 0.0057032593 0.04604918 0.040640976 0.0291976 -0.0008717999 0.038224664 0.0027686357 0.015889708 -0.017987229 0.009469558 0.028024677 0.027240101 -0.049838424 -0.010748554 -0.010957729 -0.022879947 0.039674554 0.042912606 0.0024086721 0.025822941 0.002667535 -0.010227405 0.016309645 0.036516536 -0.048708286 -0.013878476 0.0057666674 0.039034214 0.03553703 -0.030050421 -0.03359659 -0.016806174 -0.0039927363 0.007906042 -0.030540347 -0.006468214 0.03429908 0.044742133 -0.018273305 -0.026663495 -0.0299191 -0.0026456118 -0.020108247 0.040842686 -0.03571712 -0.017272662 -0.02809167 0.033360627 -0.015953563 0.045122433 -0.0072691217 -0.034909584 0.04309943 0.03514651 0.015080344 -0.039098598 0.036180783 0.033647884 -0.0077598207 -0.02142725 -0.04955039 -0.04320189 0.01762836 -0.021758854 0.043172035 0.03859693 0.0288543 -0.008775413 -0.04832193 -0.030861272 0.010087382 -0.0057496205 -0.035870958 -0.0054172054 -0.015669145 -0.029218365 -0.024268998 -0.047875058 -0.009633519 0.039172832 0.015354764 -0.03405974 -0.009856414 -0.026354278 0.0066598766 -0.044864953 -0.011518408 0.048676755 -0.01372968 -0.016188491 -0.021044267 0.011081897 -0.016288854 0.037673566 0.042230617
data 0.037814748 -0.02639693 0.039620686 -0.011916064 -0.015393008 -0.007783614 -0.007195879 0.040391993 0.04246744 -0.046298098 -0.033758722 0.025862027 -0.04214412 0.0018302687 0.04281025 -0.019494308 0.0024657026 0.011991404 -0.009622812 0.035551455 0.025697138 0.030612145 -0.02154615 0.005026769 0.040244486 -0.021980917 -0.0411584 -0.019736826 -0.008617498 0.008849144 -0.03081516 -0.014737546 0.014271986 -0.022047937 -0.02106223 0.023758914 0.01972666 0.02114984 -0.020264853 -0.045334186 -0.027978718 -0.03501605 -0.010293923 0.01605061 0.043745052 -0.015505958 0.02237985 0.016550187 -0.01837181 0.042998638 0.038395848 -0.020118296 -0.013031699 -0.0051638857 -0.03145782 0.018742237 -0.003578864 0.019126024 0.049342524 -0.02472179 -0.00078543276 -0.024608111 -0.012335252 -0.0087074265 -0.03271377 -0.044511616 0.032413628 -0.018495988 -0.026628817 -0.04581615 -0.04521618 0.0067568794 0.044935 -0.016955733 -0.039616488 -0.033604644 0.04384819 0.01038022 -0.016690157 0.018867936 -0.022620117 0.022514615 -0.0072804205 0.030588236 0.011333428 0.000771869 -0.023555482 -0.039934147 0.015555907 0.02613249 0.029543485 -0.00039358065 0.030000936 -0.012442064 0.02634919 0.039581086 -0.047800984 0.015218649 -0.01996169 -0.015287876
enough 0.043233667 -0.038424123 0.02325951 -0.012748349 0.029812124 0.02533004 0.014713135 -0.017946444 0.020772707 -0.011139415 -0.04537469 0.04667714 -0.034806944 0.008871783 -0.049498927 0.00030945614 -0.032569252 0.029913697 -0.009886481 0.04889453 -0.016411114 -0.026270485 -0.030248059 -0.0062145703 0.032455828 -0.032943428 -0.0110860355 -0.023855234 -0.03928436 -0.038074672 0.042132806 -0.032247245 -0.03048104 -0.048333433 -0.034100845 0.036087837 0.012983311 -0.045160413 0.011325967 0.009712983 0.038360503 -0.01579976 0.03077371 0.03351176 -0.028207624 0.048841167 0.019105468 0.0114710815 -0.023658657 -0.021963418 0.014442254 0.016654361 -0.0403499 -4.3570995e-05 -0.047999945 0.022623729 -0.008304287 -0.019147469 0.0015174523 0.030220415 0.021788884 0.039107095 0.02985194 0.020568777 -0.008895338 -0.020217478 0.0012382492 -0.038647078 -0.025408138 -0.011216737 0.04348581 0.028989796 -0.026282156 0.031535733 0.044019464 0.049907457 0.03194872 -0.044556033 -0.029711593 0.009140812 0.031835113 -0.04790925 0.013425972 -0.015745651 -0.022992505 0.04349171 0.04151794 0.038457464 -0.03188671 0.0421508 0.048658255 0.00025107712 0.0050562136 -0.013540555 0.048613716 -0.04506966 0.044941578 -0.023079181 0.028384697 -0.037150968
establish 0.021840166 0.017312143 0.025118377 -0.0170388 -0.018816853 0.04258961 -0.043321814 -0.0061832555 -0.003989268 0.004741419 0.030688632 -0.017630946 0.015296731 -0.027450228 -0.04230969 -0.026003003 0.014711354 -0.037075974 -0.032930568 0.0014204606 0.035356414 0.047175657 -0.0287238 -0.0257342 -0.013313651 0.0420498 0.0051856153 0.028872933 -0.021844042 0.004925929 0.042697083 -0.0034163222 -0.049509015 -0.014661431 0.013819519 0.015144054 -0.02390988 0.039702084 0.046361815 -0.003949333 0.036860112 0.0061407574 0.032315347 -0.022380268 -0.0329805 0.023185242 -0.01585374 -0.00993222 0.029182542 0.0119555 -0.03375118 0.040710818 -0.014616631 0.035341587 0.015114758 -0.020327186 -0.024266208 0.008743919 0.034748975 0.017547559 0.030262876 0.037984837 -0.0121458545 -0.023767447 0.039487425 0.04062904 -0.042635944 0.03660356 -0.030949509 -0.0006245598 0.045249227 0.028016318 -0.011879504 0.03466222 0.024501953 0.026705239 -0.010132719 -0.047138512 0.03874303 -0.005104065 -0.035316907 -0.042129956 -0.041941248 0.013119411 0.02288257 -0.01349026 -0.031758443 -0.004624285 -0.03076985 0.03874019 -0.04565654 0.00062793493 -0.021288479 -0.014631115 -0.0030158646 0.037568476 -0.009261407 0.021670964 0.015149858 -0.02735827
it 0.005195223 -0.037407268 -0.0081182495 -0.026362503 0.014062274 -0.04130603 0.04245292 0.013249386 0.0371889 -0.01844268 0.0037105456 -0.015188597 -0.04728316 0.014772091 -0.041698992 -0.016170882 -0.037640072 0.014925931 -0.03185915 -0.034670413 -0.0020830631 0.004164625 0.032692004 -0.044063915 0.03076649 0.04368445 0.0363102 -0.01466459 -0.034547817 -0.04390309 0.0014878996 0.016644243 0.044652287 -0.044259716 0.014993038 -0.019958569 0.046023432 0.020129804 -0.046550848 0.033240322 0.008187078 -0.021328116 0.04372059 -0.03835536 -0.0008572452 0.0014564767 0.037976336 0.049748275 0.034705076 0.028015856 0.022903655 -0.017357696 -0.026443625 -0.014039505 -0.0054406635 0.00544858 -0.006534755 0.030335788 0.021431793 0.025552217 -0.041901983 0.023851898 -0.0074263588 -0.015785765 -0.039560687 0.013066415 -0.025183607 -0.01760795 -0.04195094 -0.020943845 0.03592186 -0.0013442636 -0.0016367063 -0.024102736 -0.012625158 -0.02996446 -0.0006843321 0.04305308 0.038916025 0.03358123 -0.015482806 0.048059512 -0.038671445 0.0135020055 -0.042619396 -0.015066396 -0.010817278 -0.006806802 0.04272132 -0.042747032 -0.023390686 0.0014172196 0.04411823 0.009478487 -0.044864845 -0.026746953 -0.043947816 -0.044977475 -0.025024354 0.03084575
moreover -0.0024611726 -0.009746779 -0.022967756 0.04091907 -0.009323526 0.0118172765 -0.04539286 -0.015262734 -0.033343185 -0.008794583 -0.04393337 0.028432574 -0.030928481 -0.035083067 -0.023681676 0.015198793 0.030691933 -0.028025402 0.04240788 -0.035271753 -0.0071078762 0.0375509 0.014123905 0.0020283572 0.0071476214 -0.048689485 -0.008176994 0.03239839 0.036829416 0.028615776 0.0468583 -0.022376418 -0.018981636 -0.023230983 0.049713973 -0.02964977 -0.010047447 0.040862326 0.04149152 0.011564612 -0.04881635 -0.01150446 0.004824698 -0.01800393 0.024992142 0.029031876 0.043092396 0.030650888 0.010091804 0.017474521 0.045139577 0.030707072 0.025448274 0.0001880303 -0.02220415 0.030969013 -0.036438145 0.030349914 0.048400808 -0.014201641 -0.035543464 0.024575185 -0.016598023 0.028461944 0.003030587 -0.032177627 -0.020642484 0.04560541 -0.036650933 -0.020057559 0.042621378 0.017009463 -0.035956897 0.015774775 -0.0496336 0.010247134 0.03614906 -0.00972563 -0.03940455 -0.040029608 0.037898492 0.009620797 -0.023340179 0.04128791 -0.0060192123 -0.041269995 -0.03543464 -0.030354846 -0.032942012 -0.0040178075 0.043612566 0.026676986 0.038153816 -0.010575056 0.031407896 -0.007023681 0.047074724 -0.022184277 -0.026973296 0.008788861
not 0.013102796 -0.023558605 -0.02136873 -0.033922363 -0.015279483 -0.04265629 0.04689152 0.013897266 0.01627146 -0.043817677 0.049970772 -0.026721954 -0.029017318 -0.0042042956 0.013328578 0.018992428 0.042985115 -0.01202593 -0.042213585 0.008658029 0.037019763 0.027198348 0.010446392 0.03781027 0.037263367 -0.029956197 0.0246079 -0.011133254 0.027962152 0.006937124 0.049238313 0.01910894 0.0018453822 0.03956696 -0.035878252 0.048051205 0.011286177 0.0073928125 -0.04595678 0.0014227629 -0.015029393 -0.0335173 0.0038518421 -0.0338745 0.03854939 -0.03312967 -0.008090328 0.03261962 -0.034093678 0.0052967295 -0.0030668601 0.0076041594 -0.0031086206 0.031943824 0.0151021145 -0.038520955 -0.019675946 0.03434631 0.011863995 -0.025016738 -0.042831745 -0.029865457 0.016918186 -0.01437106 0.031170074 0.034882177 -0.003372036 0.024900284 -0.026667297 0.03802908 0.03985602 -0.042906832 -0.03715054 -0.0173679 0.020643007 -0.016643025 -0.0076370835 -0.025970995 0.0405196 -0.029591275 -0.013522912 0.04435878 -0.00389681 0.036566366 0.027924288 -0.035659086 -0.040191077 0.005276583 -0.03342346 -0.041147124 -0.0155892 0.030119214 -0.029137468 0.024596583 0.019886103 0.03891896 0.013493966 -0.048669923 -0.0046807528 -0.041330706
shall -0.027080571 0.036130216 -0.011701621 -0.032825783 -0.008899368 -0.041726578 -0.041568875 -0.0021153688 -0.039435256 -0.031900205 0.04618336 -0.042303193 -0.010152269 0.016250107 0.020943549 -0.021466613 0.037991557 0.049514417 0.042874064 -0.012109838 -0.036886714 -0.023022676 -0.04079361 0.0058818944 -0.048092093 0.028008316 0.018696878 -0.02118026 -0.033669315 -0.029164124 0.030985784 -0.00865965 0.035275128 0.039157655 0.0035843365 0.044038605 0.047814462 -0.040015806 -0.044197477 2.9660761e-05 0.028328184 -0.01653067 -0.007941674 0.019480798 -0.047739852 0.046374585 -0.029306365 -0.021895254 0.013558809 -0.021945035 0.046308886 0.047751907 0.018770818 0.010274887 0.0073032267 0.039709736 -0.03657924 -0.032349408 0.00825765 -0.029536212 0.0076384544 -0.016519498 -0.04770392 -0.021676088 -0.008725442 0.04278871 -0.0048974752 0.0017313361 -0.015690766 0.016538981 0.011197686 0.02700523 -0.029565657 -0.003458213 0.030414674 -0.047877517 0.040384714 0.028142188 -0.018575288 0.009245336 0.021134507 -0.015190363 0.017863046 -0.044558704 -0.00046988577 -0.012097955 -0.0061752573 -0.044602003 -0.027634943 -0.02676103 -0.048942447 0.03503027 -0.012189306 -0.021952618 -0.004543375 0.0036247745 -0.017823946 -0.006766759 -0.011278104 -0.023740996
that 0.01509596 0.002660703 0.00089458376 0.045179818 -0.019620454 -0.03156065 0.008163799 -0.009013128 0.04556081 0.026039612 0.0058686025 -0.019128919 0.03588741 -0.0032946244 -0.03492167 0.037241366 -0.046502184 -0.0030753724 -0.0492216 0.037091162 -0.016096044 -0.04437044 -0.0345876 0.019711625 0.034109 -0.041080154 0.042814318 -0.008044995 -0.04699042 0.007093679 0.00059068203 0.033513036 0.0001417622 -0.016678594 0.024338592 0.0029383898 -0.0006864667 -0.0025870092 0.010464262 -0.030405356 -0.00948273 0.04731517 -0.039074875 0.011089779 -0.00033656508 0.030026663 0.013681952 -0.032787204 -0.026264846 -0.020157589 -0.03444556 0.010070063 -0.003974758 -0.035999835 0.044238392 0.041605126 -0.026259685 0.012091182 -0.006059397 -0.039558627 -0.0327209 0.0196178 0.026595954 -0.02661028 0.03167415 -0.0031990893 0.029502902 0.016461942 0.037115697 -0.010986697 0.040613893 -0.0056436434 0.04730585 -0.040750038 0.01835655 0.013495889 0.016637538 0.009602331 0.0043841973 -0.036611605 0.036226083 0.034887914 -0.031778336 -0.037358068 0.0043903366 0.026218187 -0.026237583 0.0002968423 0.011991013 -0.025338579 -0.019141639 -0.016756035 -0.029565288 0.024284352 0.033950757 -0.023827268 -0.020402778 -0.03948344 0.009104013 0.016351227
there -0.02044927 -0.043301057 0.029862154 0.015853439 0.045480285 0.006621219 0.040662553 -0.04639131 0.014238123 0.009898353 -0.0391814 -0.014461387 0.014377799 0.018825296 -0.0396597 -0.027167428 0.036309075 0.030636977 0.038783897 -0.03308133 0.0030210614 -0.04154749 0.01181066 0.021665882 -0.02277161 -0.012477111 -0.0491035 -0.0148945935 -0.019775236 0.021971475 0.0029951222 0.04509188 -0.04773692 0.019512061 -0.045908738 -0.0048987493 0.040650856 -0.026237775 -0.0051242113 0.02693646 0.030366454 -0.03752154 -0.006200731 -0.03473153 0.036238264 -0.020042587 -0.008486342 0.0016469955 -0.03726082 0.00016038492 -0.02739644 -0.038291276 -0.020165026 0.031885 -0.011994742 -0.03200736 0.007553529 0.028588746 0.021682236 -0.036523473 0.049998056 -0.019763445 0.047949467 0.023696568 0.02759919 0.0031760558 0.004029762 -0.04576056 -0.035800684 0.03579605 0.008028101 -0.012524653 -0.0033237562 -0.03275571 -0.015836488 -0.012821544 0.006061364 -0.02176243 -0.0027046576 -0.017590333 -0.04226607 0.021451857 -0.029705966 0.010016881 -0.022111619 0.047154 -0.002886068 0.041574504 0.017401312 -0.015277207 0.020001482 -0.030491484 -0.0076066144 0.02958211 0.026647653 0.018476676 0.009719502 -0.014890194 -0.022088278 0.038836446
to -0.019518662 0.0078618415 -0.030247068 0.0072419643 0.021915767 0.0136539675 -0.04030521 0.044574488 -0.0056582466 0.04172403 -0.031958 0.025955748 0.0019011721 0.04819585 0.02763227 -0.03644066 0.0026318058 0.008532964 -0.037199497 0.040394578 -0.013458334 -0.027599776 0.044311773 -0.009299863 -0.017812777 0.045035373 -0.015308283 0.045446005 0.03180975 -0.009336233 -0.023766149 -0.03967444 -0.049277354 0.0046075955 0.021161053 -0.0018824115 0.023073707 0.046639945 0.0405298 0.03491695 0.047706474 -0.002658546 0.047049787 -0.03852737 -0.0035497174 -0.017702244 -0.0065269247 0.037123892 0.0010908358 0.026740637 0.031172063 -0.043803524 -0.010493539 -0.0058792606 -0.0013952963 0.0006247647 -0.04500575 0.016113471 -0.00285542 0.040032838 0.0031958 0.024091985 0.036865357 0.021936867 -0.034065295 -0.03254708 -0.012473833 0.034260873 0.0002911575 -0.032776073 0.00017248467 0.006884385 0.036743555 0.029133786 -0.013027512 -0.012410272 0.040035393 0.040987816 0.034871522 0.014677573 0.030521464 -0.045267966 -0.017429102 -0.033968665 -0.00027582794 -0.0152130835 0.049926285 -0.025368119 -0.04104296 -0.007252764 0.033640947 0.0076761134 -0.04822613 0.013816927 0.03944851 -0.0015431643 0.041068327 0.030785408 -0.0160097 0.040351618
where -0.032312036 0.028590921 0.036033098 -0.0060615763 0.048070792 -0.035400618 0.045082103 -0.00766778 0.0036877021 -0.027271474 0.013770532 0.018899988 -0.019685948 -0.004224442 -0.02842815 0.011873804 -0.014627337 0.02007575 0.025239717 0.034684245 0.046906475 0.035488974 0.037830915 0.027835097 -0.025856245 0.011084031 -0.017584395 0.04889221 -0.01979196 0.0012331009 0.02361146 0.013337757 0.039380375 -0.020986391 0.0022976995 0.04803047 -0.027726246 0.015978921 -0.018371262 -0.031013561 0.016523395 -0.017260432 -0.0077351816 0.047203567 -0.030123902 0.044170808 -0.0037859902 0.006359566 0.0019996986 0.020895053 0.0056630597 -0.03375665 -0.034563206 0.026921522 -0.0028050654 -0.025705231 -0.031475533 0.011101972 0.018867578 -0.008623242 -0.049695518 -0.029343426 0.005091954 -0.02439319 0.028911714 0.018343698 -0.021980751 -0.041098047 -0.006244134 -0.0047133677 -0.04724258 -0.011006035 -0.04374596 -0.046398975 0.027946506 0.012331653 -0.016347706 0.03647257 -0.013791431 0.019233648 0.010875534 -0.042338815 0.038758624 -0.02347429 0.019084465 0.023967985 0.008402336 0.042695675 0.015902925 -0.026286578 -0.031095756 -0.04333502 -0.0016668327 -0.03412372 0.027040605 -0.032166913 -0.028627707 0.045465115 0.011860132 -0.0017745979
arbitrary 0.022537734 -0.010051213 -0.028379405 -0.024361635 -0.03770099 0.00066103786 0.0493672 0.0052840225 0.033013795 0.040246356 0.009723209 0.006319046 0.028968122 0.030276384 0.032570135 -0.031502858 0.04172374 -0.027794326 0.035432007 -0.004881967 0.021849323 -0.00060581043 -0.03127525 0.03716481 -0.023997772 0.02635995 0.023293827 -0.030854583 0.030862283 -0.016503729 0.0026594028 0.028757919 0.030656945 -0.004991628 -0.0414793 -0.04259752 0.0440414 0.046701517 -0.03432657 -0.00090219826 0.021308217 -0.04023386 0.020659257 0.022001807 -0.035812903 -0.011524975 -0.009566404 0.03840151 0.034592737 -0.03029473 -0.0035268292 0.026417922 0.04886457 -0.0029602423 -0.002616357 -0.012793433 -0.002153825 -0.03899288 0.039970923 0.042434994 0.039541993 0.0020307526 -0.01608064 0.007366419 -0.03571979 -0.034542404 -0.02754805 0.02727114 0.0056252256 0.032700587 0.021081928 -0.010416616 0.037059296 0.035551976 -0.03859054 0.015139531 0.03645735 0.045402776 0.044453118 -0.04594797 -0.04156003 -0.02318778 -0.035607696 -0.0413697 -0.04013312 -0.038067676 -0.019725954 -0.04633082 -0.041440617 -0.020831896 0.034027938 -0.034875084 0.023851607 0.038153876 -0.020592475 0.04949576 -0.039465785 -0.019505668 0.026843105 -0.00037397072
between 0.0025160313 0.045057725 0.039612863 -0.016094029 -0.024032438 -0.012136292 -0.019249057 0.005143594 0.0097489245 0.021759216 -0.0035627112 -0.04463769 -0.03127842 -0.042313885 0.016725156 0.011270713 -0.019123018 -0.04230938 -0.038035333 -0.00798155 -0.02670504 -0.0013673417 -0.036336385 0.013555858 -0.030670738 0.014080767 -0.0035950541 -0.0027830824 0.034208152 0.04112817 0.011279035 -0.015112735 0.0317912 0.047832455 0.0036556013 -0.011693858 -0.022174824 -0.0070090406 0.03377377 -0.0039458983 0.035885822 -0.041136432 -0.039650045 0.040539395 -0.0053806677 -0.049240768 -0.0027344227 0.019813124 -0.042188346 -0.020764112 0.022805896 -0.03397881 0.017578352 -0.04258591 0.04348031 -0.022159923 -0.045864236 -0.008146215 0.028590787 -0.030999137 0.04989283 -0.04189799 0.03165332 0.039812956 -0.049958657 0.008586802 -0.033680238 -0.03336201 0.033999074 -0.01297655 -0.026320076 0.027803551 -0.010118913 -0.017172359 -0.014867473 0.044214893 0.019613076 0.027442802 0.0034036636 0.021109011 -0.022745837 0.008225419 0.019265953 -0.0035698786 -0.030858194 0.039514367 -0.011142731 0.032631945 0.02587216 0.00030975416 0.011403859 0.019579258 0.003872119 0.023168039 0.04600152 0.0030849352 -0.006722022 0.017595064 0.018535975 0.013814244
corpus -0.000801526 -0.035317373 0.016600285 0.011301361 0.023855437 0.013031375 -0.03929714 0.04312781 -0.016397405 0.034440186 0.037331846 -0.0034061782 0.04553027 -0.0243073 -0.01162263 0.03999866 0.04809573 0.047670845 -0.045788683 0.003672611 0.011078883 -0.013532139 0.03949381 -0.04984602 0.021450568 0.022500005 -0.020536566 -0.0061912425 0.023395326 -0.04084754 0.010523595 -0.012134254 0.0065807477 -0.046277393 0.0016574971 0.046114717 0.010448467 0.037921164 0.044403445 -0.04586978 0.03204732 -0.03620676 0.019397605 0.0029778257 0.0042653084 0.023604166 0.0009313449 0.023401532 0.008010924 -0.011011373 -0.04309708 -0.049054444 -0.03460934 0.027379308 0.0034584291 0.003911935 0.048536744 -0.0040999055 0.03360348 0.03535154 0.04095776 0.033572365 -0.044539608 0.0060327165 -0.023464514 -0.034920774 0.008964203 0.017393481 0.009273253 0.024483573 -0.023741115 0.034134183 0.047040988 -0.03380833 -0.0406546 -0.04336896 0.030604187 -0.01664821 0.017300133 0.012357485 0.021706473 0.023349691 0.010110892 0.038123216 0.008809052 0.0120697245 0.0117724165 -0.034264944 0.010639168 -0.031367768 0.042774234 -0.009863056 0.008346487 0.044982377 -0.01633259 0.03169818 0.04062361 -0.04331515 0.038114537 -0.03895514
demonstrably -0.04372188 -0.01121949 -0.038731825 0.044846956 -0.04774505 -0.042609584 0.044147167 0.018471364 -0.014132261 -0.016577113 -0.037930347 0.02700204 -0.0054275393 -0.043339122 0.0064060576 -0.015757822 -0.041778363 0.046060774 0.03480536 0.009614479 -0.008577205 0.022204552 -0.036813606 0.009316586 0.009747565 0.02215613 -0.008382488 -0.033933178 -0.020962298 0.010444663 -0.033022188 -0.047695316 -0.01973015 -0.040544428 -0.021014823 0.0067572817 -0.043307304 0.04848181 -0.023901343 -0.022908224 -0.023323858 -0.0029557236 0.046685863 0.012128912 -0.015390933 -0.00058084726 0.010472715 0.029464986 -0.043296542 0.0027076378 0.040609706 0.004657246 -0.032685556 0.008635748 -0.02273041 0.038418774 -0.035546504 -0.033627234 -0.03226154 0.012574244 0.024137143 0.006542444 -0.048663583 0.015893783 0.041797843 -0.017572366 -0.04152403 -0.031083727 0.036240425 -0.035468362 0.019017365 -0.029555906 0.03906853 -0.013482451 0.02034619 0.03166617 0.028209176 -0.03105781 0.022089217 0.0010357983 -0.028362632 -0.022506608 0.009557642 -0.023482287 0.006871283 -0.047149815 0.03192154 0.029914442 -0.039874244 0.042927634 0.01843429 0.017119382 0.03810859 -0.024410427 -0.038896717 0.022476044 0.000582397 -0.048185635 0.04235853 -0.041454922
do -0.026883055 -0.04113116 0.020473432 -0.009566806 0.019230258 -0.009586491 -0.030836392 0.0108238235 -0.019072747 -0.03229382 -0.047776747 -0.034954716 0.044149224 -0.0076728575 0.04623046 0.0060266256 0.045088854 0.021581281 0.048662636 -0.0365286 0.01836035 -0.02507552 0.01402824 -0.046525013 -0.028520286 0.008993078 -0.040583313 -0.033121422 0.04297689 0.033138763 -0.030464841 0.0050643794 0.03993738 -0.03322897 0.048023056 -0.035730314 0.029782321 0.02284414 -0.017279945 0.045757066 -0.012010217 -0.046524275 -0.021974409 0.023448434 0.007802833 0.004449405 0.04690787 -0.0023910403 -0.011026643 0.0083278045 0.031969737 -0.038004637 -0.024293888 0.023364153 0.0011928193 0.029476296 -0.005424954 -0.001890637 -0.013665628 -0.02285918 -0.022975922 -0.026119424 0.00839157 -0.03720492 -0.008568905 0.026167545 0.016113136 -0.0047604926 -0.04348271 -0.049542498 0.01646484 -0.02034427 0.015908781 0.03397992 0.035608146 -0.004445851 0.031704295 -0.0033372045 -0.031021023 0.03653561 -0.024427092 -0.03366524 0.012540486 0.029737804 0.012458373 0.021206964 -0.03385444 -0.04325665 0.011213005 -0.049487796 -0.012504697 0.0065436587 0.042277064 0.038924877 0.01288699 0.047412645 -0.04054501 -0.0014162771 -0.049381223 -0.02273791
does 0.029334832 -0.008874785 0.042821053 -0.04488671 -0.0048682317 0.018626336 -0.0004512556 0.0016591921 0.015139315 0.0057489276 -0.033196367 -0.014290892 0.037586275 0.043147597 -0.038469292 0.027641524 -0.010799922 -0.036810827 -0.025847768 -0.030180812 -0.005605124 -0.03661592 0.03333168 -0.022966016 0.048234414 0.044203196 0.010898661 0.02655549 0.022316407 -0.029062474 0.045385767 -0.047095 -0.03494495 0.023428034 -0.03917575 -0.039939664 -0.014586531 -0.02239778 -0.0074224696 0.009477951 -0.003884364 0.04606152 -0.018165708 -0.028770661 -0.030469501 -0.021984732 -0.032713078 0.026054565 -0.0012817495 -0.0075289384 0.011936497 -0.019963158 0.037100088 -0.029822623 0.016255174 -0.010281336 3.1478703e-06 0.043673072 0.008241154 -0.023988498 0.034987118 0.0036994107 0.021696929 0.011380993 -0.006186474 0.03407121 0.0104545355 -0.029224599 0.02658761 0.046484653 0.03525586 0.035824228 -0.00798608 0.045186426 0.04256692 -0.02615807 -0.0048365705 0.045656208 -0.018391348 -0.029804302 -0.048512664 0.03715569 -0.04273175 0.012757126 -0.045600425 -0.0044025294 -0.03889804 0.020135392 -0.014926661 -0.010963894 -0.023150241 0.019997131 0.027086738 -0.018588603 -0.020635605 -0.007941447 0.013863388 0.00020087883 0.021537688 -0.031643845
fact 0.019971523 -0.010508679 0.026879515 -0.026724244 -0.03239683 -0.00016695261 -0.033492614 0.018899348 -0.019846475 0.030580308 0.04761536 0.045262124 -0.049854554 -0.0436152 0.00097510964 0.04036275 0.025780607 0.029766176 -0.013005711 0.03618033 -0.030977523 0.034757342 -0.026522089 0.009852637 -0.032201387 0.028336216 -0.004183851 -0.00052429363 0.037373472 0.045982312 0.040854026 -0.017460238 0.018195275 -0.0023141988 0.026226152 -0.029033815 -0.03423331 -0.04472461 -0.044385422 -0.0016367659 -0.02592429 -0.022954667 -0.023935938 0.048049677 0.027120534 0.016144905 -0.00883124 0.033152167 -0.00419531 -0.022387028 0.043608274 0.019152354 -0.04377171 -0.046991017 -0.018191624 0.041014004 -0.023934174 0.03927857 0.03820881 0.014409091 0.049471844 -0.017404579 0.03552443 0.003422428 0.005321622 0.0478372 -0.018379081 -0.026648248 0.037471686 0.016086545 -0.04740261 -0.026936198 -0.048751403 0.044121336 -0.009181391 -0.020127201 -0.024901008 -0.009599648 0.026480567 -0.030311286 0.04749194 -0.049298145 0.0040305033 -0.008744977 -0.0051049367 0.033138778 -0.010296345 0.04547191 0.019823197 0.015535716 -0.02243861 -0.028245771 -0.03384458 0.011481047 -0.020559002 0.04995284 -0.03177192 0.013431873 0.026386525 -0.0136529915
frequently -0.019591486 0.028811168 0.031492863 0.024048816 0.0402936 0.021525357 -0.021977937 0.04819509 0.02657168 0.041275475 0.005387582 0.045822326 -0.0067146644 0.044421438 -0.0074900873 -0.0061474442 0.008487843 0.017138373 -0.03756982 -0.030100191 -0.044640493 -0.027744759 0.008485518 0.04975753 -0.023176515 0.04819188 -0.0050899163 -0.0040172115 0.04569364 0.027237523 0.019201506 -0.049845744 0.0040119067 0.015226845 0.041486833 0.040943865 -0.017328728 -0.046657063 -0.0039936677 -0.0056697614 -0.030625522 0.014029216 0.0051303282 -0.04673716 0.012378238 0.005983781 0.009080958 0.048625614 -0.0041749477 0.047549997 -0.0073050037 0.0012263432 0.0056230538 0.049018074 -0.006660808 -0.018791497 0.012907747 0.04942565 0.005874086 0.0069102645 0.0063352585 -0.0065273866 -0.0041692033 0.03107414 0.04383475 0.0033144355 0.014389347 -0.035749447 0.029544357 -0.0017143488 -0.008325875 -0.04638325 -0.014893543 -0.028094817 -0.017361652 0.0437585 0.011850368 -0.027627468 -0.045152724 0.0051261894 -0.028715242 0.028771427 0.027611855 0.027252141 -0.044952918 0.013365153 -0.03854519 -0.040972352 0.02695379 -0.0016053207 -0.0027684942 -0.0020277388 0.04033101 -0.027091432 0.033184398 0.042622183 0.025124017 0.040099774 -0.03334693 -0.02910452
have -0.02384845 0.015517678 0.043891992 0.02037109 0.034317803 -0.030634774 -0.04435196 0.045233835 0.005788218 0.0042028427 -0.041556813 0.024984013 0.04563478 -0.021827757 -0.046369147 0.0046505444 0.008744847 -0.01846541 0.0141694285 0.010128569 0.041022692 -0.01006148 -0.0100060105 -0.007491421 -0.035171557 0.004214309 -0.022994995 -0.0025664568 -0.023683703 -0.0018639565 0.034430448 0.047515023 0.005232252 0.015117053 0.032715585 -0.0034654625 0.015764657 0.026846137 0.033593368 0.036177907 0.022012737 -0.021075452 -0.012398411 -0.033157922 0.0024959818 -0.0071383715 -0.015877403 -0.01951989 0.0035650842 0.030937899 -0.015152264 -0.024311054 0.042057548 0.04755341 -0.028037954 0.0251089 -0.01137929 -0.017247986 -0.038820483 0.04305497 -0.036402106 -0.02943728 0.04998478 -0.022915816 0.033863973 0.028940286 -0.03421273 0.02397884 0.037163127 0.023615602 -0.049870323 -0.04034988 0.044687394 0.02928586 -0.044551313 0.028791275 -0.0437652 0.04748198 0.041344654 0.0042918213 -0.0017944686 0.014919866 0.013436142 0.001889836 0.04182862 0.0035516247 0.0070232376 0.024556782 0.041991565 0.0030758865 -0.003886629 0.01847497 0.008149348 0.019963372 0.008608092 -0.010347437 0.040755298 -0.04790912 -0.003768146 -0.016063262
inference -0.02806512 -0.041971434 -0.032612205 0.012451302 -0.021835804 0.039939728 0.02255899 -0.038571335 0.014238808 0.037399266 -0.0038839467 -0.012940384 -0.0028039925 0.016031552 0.026258174 -0.04598812 -0.020655919 -0.038809586 0.02022897 -0.019816494 0.045072023 -0.016322743 -0.039609015 -0.0005345121 0.038543794 -0.018925775 0.0156922 -0.03732294 -0.032431055 0.009232521 -0.0032071099 0.03453565 0.016590182 -0.024321496 0.028750386 -0.032078125 0.010207843 -0.035555076 -0.038569175 -0.049202133 0.028474439 -0.041518796 0.007275082 0.0019073375 -0.039019395 0.01034788 -0.037566185 0.005594708 0.0058909543 -0.012853384 -0.03314861 -0.03519057 0.04923195 -0.023664212 0.0035236701 0.017759982 -0.002839066 -0.02129066 -0.027837193 -0.0018201247 0.016953778 0.010721706 -0.0343891 0.03520343 0.0065664276 0.025465596 0.002689112 0.038196694 0.03246708 0.008651696 0.0059185624 -0.025430178 -0.029826427 0.020558167 -0.00048346445 -0.04653671 0.004949581 -0.0013178699 0.030107263 0.040106226 0.0036271214 -0.029345978 0.018266391 0.040330674 0.01639786 0.043044258 -0.025367618 -0.015199471 -0.03715204 0.007815279 0.014330212 0.024721269 -0.018285811 0.031630088 -0.0011918172 0.044989083 0.03199556 -0.018065117 0.047154073 0.04387137
relation 0.011806142 -0.019776797 -0.017606042 0.029110227 -0.03275436 0.013508473 0.00063113123 0.042419348 -0.04772159 0.04336791 0.009663057 0.03168196 0.002791226 0.002002634 0.00033386797 0.01400752 0.0028316379 -0.0499216 -0.02990297 0.044764254 -0.022540605 0.0348537 0.010798357 0.03468876 -0.01765015 -0.023513675 0.0034437552 -0.009791184 0.024144318 0.017925087 -0.01489272 0.02162372 0.007149171 -0.0071914084 -0.029485835 0.04492594 0.013935316 -0.028652037 -0.003150545 -0.04384885 -0.032911375 0.017804291 -0.019020414 0.033861768 -0.010969032 0.03020196 0.03261402 -0.026702344 0.041504215 0.018865023 -0.024465049 -0.03005507 0.030965652 -0.033734277 -0.033721734 0.0075987354 0.04563221 -0.016934406 -0.042095054 0.040188376 0.011108279 0.04303969 0.009411085 -0.004481934 -0.03505516 0.0024053678 -0.011611499 0.023285594 -0.014137149 -0.045465946 -0.008725606 -0.024200296 0.037739586 -0.008993328 0.029516172 -0.037205577 0.025919113 -0.019274747 -0.016498052 -0.03201723 0.04882021 -0.042408492 -0.010750283 0.032380488 0.039824907 0.03022739 0.029118147 0.048334625 -0.03200598 0.048598673 0.018953744 0.02884176 0.04535539 -0.020601178 0.030164037 0.023478512 -0.034847163 -0.031908453 -0.0129853 0.026576009
so -0.048178434 0.042503845 0.023206864 0.019314382 0.01923107 0.014324691 -0.014586009 0.003280472 0.02209748 -0.00028974935 -0.049967136 0.030199815 -0.028205479 0.049002234 0.0065776333 -0.02217034 0.008172512 -0.010148503 0.049854662 0.033455145 -0.019422341 -0.025796091 0.030930687 -0.03956462 0.0071570277 0.0253811 -0.022978842 0.0345521 -0.031536102 -0.01311053 0.0077354684 -0.01339557 -0.03485322 -0.013932802 -0.025068259 0.014494587 0.02002174 0.04906181 -0.028220285 -0.04447038 -0.001886785 0.04518423 -0.0069086775 -0.03488028 -0.009610295 -0.01997205 0.0071245655 0.0066910386 -0.0069369785 0.026045512 -0.03837341 -0.016623437 -0.024969459 0.0025351755 -0.020021988 -0.041655313 -0.0068566315 -0.046880066 -0.034863878 0.026323352 -0.045765758 -0.021856487 -0.001176022 0.029700007 -0.04334102 -0.0489614 -0.045801114 -0.045896173 -0.042846944 0.0490291 0.031696904 0.036686685 -0.0062551126 0.046567727 0.021937583 -0.043036498 0.02009977 -0.017603587 0.038502607 0.020958532 -0.008438755 0.0132095255 -4.0195882e-05 0.011417903 0.024116982 -0.046020832 -0.0032319538 0.0007446781 -0.028608311 0.026888859 -0.027039373 0.04783733 -0.03983102 -0.037520073 0.019971024 0.0007689595 -0.030121017 -0.03409388 -0.020504547 0.030524682
studies -0.027331889 0.01838566 0.025437925 -0.043983053 -0.027944064 -0.027506769 0.031601164 -0.011799119 0.014644358 0.022847239 -0.020886732 -0.011031389 0.039139394 -0.017405547 0.03363404 -0.04462404 -0.044269513 -0.03966675 -0.011917509 0.0036290064 -0.028714811 -0.0064413324 0.04849637 -0.007998146 -0.03763485 -0.022225594 0.0023995414 -0.024683107 0.035487298 0.049651112 0.02278826 0.021456387 0.014134113 -0.037759446 0.024056029 -0.04822774 0.038215745 0.031014632 0.033487964 -0.035339545 0.03851733 -0.023350133 0.0070226565 0.025304388 -0.0037171617 -0.011208225 -0.030944144 -0.0056835525 -0.0027807578 -0.048905052 0.025593605 -0.009265482 -0.0066226237 0.040537905 0.003411591 0.025925647 0.03780153 0.00340005 0.012391198 0.0038994774 0.025178399 0.0029744282 -0.013814293 -0.036111128 -0.039002456 0.0010430329 0.024330284 -0.01750772 0.041721296 -0.008308969 -0.038142573 0.00784272 -0.049310353 0.04704981 -0.004621815 -0.037190057 -0.038945485 0.00084052235 0.039392162 0.02474666 0.020569053 -0.030487014 0.036757622 -0.03333845 0.0044731386 0.01389375 0.006312646 -0.023067713 0.04014578 -0.0066695437 -0.047786035 0.02300812 0.029594671 -0.043264057 -0.048094403 0.009654522 0.012333475 -0.044751406 0.039482344 0.045523915
support -0.03322065 -0.02596817 -0.017093312 0.001280807 -0.00839255 -0.042146683 -0.028836524 -0.033225715 -0.00087628514 -0.002108179 0.0102445 -0.047620215 -0.040988635 -0.014473546 -0.012912296 -0.017492138 -0.029827906 -0.020118892 -0.0056385286 0.032556843 -0.04220214 -0.017133512 -0.022182453 0.0062258355 -0.018702269 -0.04192587 0.014616776 0.029172514 0.0050837286 -0.0057110786 -0.00012884289 -0.009647977 -0.0018233433 -0.022004593 -0.004780721 -0.021083796 0.0069221742 -0.037621368 -0.020884395 -0.025187148 -0.023791457 -0.006947778 0.014013771 -0.013957929 0.02400938 -0.030282188 0.024811123 0.012716617 0.029127788 0.031071436 -0.014009513 0.0030321367 -0.035632145 0.00028980896 -0.005153548 -0.014766324 0.0017456524 -0.02657882 0.0052345023 -0.045038905 -0.0053831935 -0.004694402 0.010572005 -0.03198254 -0.044506527 0.007118441 -0.049776353 0.018150363 0.015542749 -0.018990327 -0.049485113 0.0150212385 0.03831471 -0.026031911 -0.04227946 -0.0011796728 0.023991134 0.014975082 0.046155836 -0.020499183 0.043756094 -0.02413336 0.031961035 0.046990883 -0.0077744834 -0.030943096 0.032989908 0.018412795 -0.021031309 0.040845264 -0.0019113645 0.012866918 0.0015978441 0.03437293 -0.021270383 0.01673663 -0.0014564991 -0.013926007 -0.016576804 0.025862817
two 0.01715273 -0.014358379 -0.037371375 0.038409654 -0.033322945 -0.0056300983 -0.004129719 0.030173484 -0.043830194 0.030962769 -0.011868 0.02570765 0.044705298 -0.028764248 0.021477614 -0.048741948 0.033978883 0.049405042 0.013749134 -0.043672264 -0.029412806 0.019702446 -0.00925697 0.04563165 -0.04194224 -0.041544188 -0.04087596 -0.012859859 0.04290091 0.019786153 0.011027981 -0.031995047 -0.040065408 -0.032017052 -0.022836268 0.03189346 -0.027956689 -0.026642371 0.03802525 -0.038335383 -0.043818165 0.0106347315 -0.04260212 -0.049447693 -0.039852273 0.019432452 0.0049773343 0.02864622 -0.036517523 0.04423659 0.049536835 -0.0319386 -0.025929987 -0.011253823 0.016134512 -0.0070992224 0.024436917 -0.03949367 0.0012485161 0.0140947215 0.026658986 -0.029911114 -0.016223561 0.03208817 0.024752747 0.038214434 0.023849968 -0.043076362 0.007469259 -0.011797655 0.03952041 -0.016862132 -0.0471687 -0.029248094 0.040161338 -0.0011023507 0.037387583 -0.022979796 -0.03447516 -0.025160182 0.02845237 -0.013500251 0.022238735 0.030995432 -0.01435709 -0.035422623 -0.0024503097 -0.049959745 0.020192806 0.038916003 -0.042081248 -0.010496534 0.0015179887 0.034197222 -0.025007343 -0.045112815 -0.0074310526 -0.004706811 0.032068405 -0.02716632
are -0.0020797737 -0.0430058 0.04772974 -0.03404974 -0.0003074035 0.043068934 -0.026115954 -0.026468754 0.0048359744 -0.02922212 0.03710762 -0.00829668 -0.0006281249 -0.036507033 0.0057408586 -0.012226857 -0.0053207763 0.034364704 -0.02936839 0.018902544 -0.037961077 0.036926065 -0.045006346 -0.04803088 0.046740476 0.04710901 0.049330804 0.03344739 0.0044023506 0.029981878 -0.03265158 0.02535626 -0.03393682 -0.022168959 -0.045185246 0.04794768 -0.00660336 0.04268868 0.003983937 -0.033590365 0.020147812 -0.049662627 0.007463835 -0.027494669 0.010823965 -0.0005665906 -0.028172804 -0.026764119 0.04233178 0.006329797 -0.0023263693 0.019574512 0.025189329 -0.010155238 0.033020448 -0.027537966 0.024541225 -0.004897274 0.02490082 -0.017574884 -0.043889847 0.0050282106 -0.0096726045 0.009579621 -0.025164664 -0.04634739 0.03352541 0.013044957 0.03676034 -0.03031062 0.00040997192 0.04559857 -0.035587132 -0.0046568625 -0.028353835 -0.016382515 0.0045221224 0.04945269 -0.027911186 0.029773463 0.029101465 -0.01687641 0.028803471 -0.0008481741 0.047731962 -0.014036201 0.017429795 0.046419848 0.01705822 0.009096421 0.040824983 0.032172587 -0.04885477 -0.019047571 0.038775805 0.04710492 0.009949528 0.006410025 0.004375268 0.040136587
associations 0.024057392 -0.0053101555 -0.024201011 -0.0008705035 0.0034801364 -0.004159294 0.019909892 -0.047303524 -0.035317086 -0.035847127 0.007367026 0.018529776 0.029187012 -0.0005123131 -0.024589395 -0.04537294 -0.027232504 0.024640176 -0.04232197 -0.031313978 -0.017187297 0.0494758 -0.014374636 0.0055688396 0.00727731 0.039469156 0.0075616464 0.027635109 0.046440486 0.018609729 -0.027912332 -0.036668766 0.028925423 0.029862951 0.015723396 0.045150947 -0.011488605 0.0015906096 0.028030109 -0.03502183 0.02168889 -0.044237603 -0.034208737 -0.01196624 0.009986818 0.041611206 -0.0059905425 0.022416558 -0.03855437 0.032694127 0.027703974 -0.008481622 0.021849956 -0.04663657 0.021930192 0.03680143 0.01856402 0.03994069 -0.005496729 0.047692303 0.020897005 0.03376546 -0.016151953 -0.024283623 0.016857412 0.011395477 -0.030525327 -0.049086284 0.016948614 -0.027057314 0.007955313 0.042050842 0.020915661 -0.041793287 0.016059961 -0.008180104 -0.017267264 -0.041090928 -0.022007251 -0.014115155 0.003631927 -0.007852338 0.016870867 -0.025200201 -0.030444264 0.0036324374 0.019361023 -0.0066299327 0.042553198 0.042038035 -0.04945705 -0.048640694 -0.04643799 0.0029926188 0.017432425 -0.02178284 -0.020540476 -0.0051146373 -0.0047302246 0.033561323
evidence 0.030199256 0.0155127905 0.0036686882 0.03544272 0.031181622 0.04730172 0.014403272 -0.046633005 0.014494132 -0.048408903 0.010971047 0.01767138 0.0172004 -0.010540236 0.026280593 0.016535196 0.015173804 0.040526938 0.02641118 -0.039706063 0.0046767816 0.030113611 0.005130004 0.030341636 -0.045516517 -0.02641474 0.006885685 0.02935845 -0.03979764 0.027807783 -0.0050363913 0.02727883 0.03802589 0.0035965666 0.012646321 -0.006735824 -0.0047184117 0.04553202 0.0077147 -0.02822485 -0.030035747 0.031393398 0.03798313 0.044979643 0.012649838 0.01604985 0.041078184 0.01592319 0.016714636 0.018890116 -0.043799665 0.04760584 0.010486305 -0.006909501 0.00580474 -0.03936956 0.04756913 0.001044631 -0.047142565 -0.0013307929 -0.020308018 0.013204362 0.002916526 -0.032656968 0.041845147 0.04974735 0.044985745 -0.036788654 -0.025481893 0.030815039 0.000675153 -0.04930351 0.041468713 -0.020269824 -0.033026505 0.038497154 0.013709549 0.009460319 0.00836321 -0.03885887 -0.033133946 -0.038125943 0.04923323 -0.020218004 -0.029482102 -0.04658977 0.03820062 -0.0023259297 0.02879807 0.011966694 0.027531002 0.03856868 -0.038764667 -0.04216813 0.023701336 -0.027314842 -0.009535145 0.018874709 0.019990195 -0.0242275
experimental -0.029482985 -0.0021569245 -0.013655879 0.045320477 0.02881619 0.018963885 -0.009641506 -0.040027022 -0.0025019534 0.008597471 -0.02648027 -0.041313194 0.023679998 0.019910242 0.006834138 0.032628786 0.013742421 0.03573269 -0.04887426 -0.04521952 -0.026910817 0.042640273 -0.00029574707 -0.04080216 -0.032902323 0.031852555 0.041351344 0.0058378577 -0.025514973 -0.012405764 -0.040367413 0.020917479 -0.0041304454 -0.02886939 0.026511762 -0.03493925 0.041566636 0.016083468 -0.0066958442 0.01067964 0.038213182 -0.038006235 0.006040655 -0.039513648 -0.026454806 0.024021808 -0.049890783 -0.0065688863 -0.03854524 0.022068705 -0.046799313 -0.0230129 -0.014070056 -0.03231125 0.030529145 0.011814605 0.031652246 0.030554298 -0.045399964 0.010863233 -0.030015647 -0.0011777654 -0.048827376 -0.018444754 -0.012574054 0.027052138 0.035833012 0.044329885 0.025176656 0.017432619 0.03436896 -0.044353522 -0.0037650466 0.009956311 -0.0054948553 -0.02335496 0.008409537 -0.03940717 0.049721632 -0.008527409 0.010094833 0.012860429 0.027261343 -0.034399547 0.042820778 -0.039019752 -0.035286617 0.049817715 -0.011619139 -0.013747036 0.048721794 0.030811552 0.030523147 -0.010214925 -0.008476235 -0.025962044 0.0343181 0.049243856 -0.034651566 -0.017631568
frequencies 0.0029929392 -0.016666174 0.008549105 -0.038892042 0.014613379 0.013251666 -0.029258847 -0.0062995777 0.03254802 -0.018319417 -0.04243032 -0.038728237 -0.01567471 0.018766318 -0.02562927 -0.025047326 -0.0015500076 -0.016077686 0.039639045 -0.048377763 -0.02592647 -0.0007387176 -0.021204948 0.02871349 -0.02699156 -0.0009972565 -0.02753234 0.014569167 0.02662808 0.022051383 0.027618218 -0.03727783 0.010901451 0.039274503 -0.04076501 -0.036296833 0.04652169 -0.0017967224 0.018956807 0.031346682 0.016308155 -0.032251514 0.035518218 0.015911985 -0.0008087978 0.010896038 -0.04184289 0.039520655 0.0144025795 0.015158545 -0.020577729 -0.041341495 0.03668355 -0.0018068328 0.043429267 -0.035540484 -0.023197925 0.010745395 0.021552946 -0.0013076663 0.00037158653 -0.021006584 -0.044687714 0.014749575 -0.003985774 -0.0008214824 0.0043411963 0.040530827 -0.0037879236 0.033876006 -0.04552522 0.04847448 -0.007038988 0.016464416 -0.0136135705 0.012923334 -0.03539759 -0.04048692 0.006847419 -0.013581693 -0.03138435 -0.01516179 0.008591294 0.023641143 -0.044737935 -0.016807593 0.044995796 -0.025884558 0.017327402 -0.01418246 0.0075297244 0.0070645437 -0.021970583 0.020796668 0.027295422 0.024873387 0.037151802 -0.03939446 -0.02285701 -0.012378741
how -0.040837727 0.01429205 -0.03762593 -0.042223882 -0.0454124 -0.041733254 0.010526039 0.03530259 0.005674921 -0.014044918 -0.03332454 -0.049924254 -0.012485754 -0.045633364 0.029243197 -0.04537305 0.01989467 0.0035776868 -0.0020235404 0.02107099 0.029580083 0.04085696 -0.024993515 0.038278345 -0.022045864 -0.029655589 -0.038607825 -0.013486885 -0.032006193 0.021590699 -0.016477011 0.0020457506 0.008946944 0.016059745 0.027633335 -0.02111398 0.02043954 0.046165515 -0.019114375 -0.003323149 0.01822834 0.0039577 0.033635247 0.03561223 0.021989677 0.030628812 0.02137946 0.01995163 0.042326655 -0.0020199306 0.03599945 -0.01257496 -0.0070216283 -0.035558067 0.04935744 -0.01547271 -0.04159826 0.026420806 0.04717282 -0.0092076175 0.0028659925 -0.047725525 0.037130628 0.03570917 0.016307805 0.03345258 -0.023711419 0.00016158819 0.03953452 -0.035096146 -0.007781137 0.018534545 0.0041196346 -0.021896971 0.014200594 0.025188852 0.0116276145 -0.042571533 0.01241944 -0.027967228 -0.027706742 -0.03744341 -0.037381638 -0.02145294 0.043585185 -0.004688978 0.017640483 0.048817266 -0.031897143 -0.03222487 -0.014154244 -0.041193485 -0.017598532 -0.020365274 0.005491376 0.024572674 0.009364594 0.0364883 0.030598473 -0.01302873
of -0.0044766665 0.008180391 0.007233333 -0.0438851 0.030116644 0.031201366 0.045041513 0.036381688 -0.036984336 0.018241394 0.0042728186 -0.035203945 -0.031611074 -0.047678173 -0.01020775 0.03870212 0.049816895 -0.048906017 0.0033254735 0.028176453 0.019040037 -0.0066433065 0.035962407 -0.013416268 0.04092462 0.0077980757 0.029340517 0.003310062 -0.02423427 0.046287153 -0.026069855 -0.0038633458 0.0025550835 0.027574923 -0.045520436 0.049519096 -0.026016057 -0.040036477 -0.023759855 -0.036288798 -0.026760174 -0.036588848 -0.006553374 0.04946879 0.02354106 -0.04460752 -0.002618514 0.01848391 0.014796887 0.035254072 0.028197113 0.033985186 0.0038910024 0.011391424 0.018556442 -0.0014089122 0.013398413 0.008904338 -0.01890241 0.03215045 0.03536116 -0.01913098 0.042169992 0.012655739 -0.024716664 0.0014101155 -0.015459977 0.042403985 0.025851537 0.013416145 0.048493687 0.03920852 0.003252782 0.035961997 -0.0040295944 0.021944989 -0.01695925 0.005302429 0.044539575 -0.045939434 -0.045968022 -0.027466476 0.027990032 0.0014509782 0.016716745 0.025771689 0.04018983 -0.009973526 0.040078748 0.034290496 -0.046643224 -0.024749791 0.043543074 -0.047220003 0.033015396 -0.016126286 0.046662007 -0.019826889 -0.04790306 -0.02546674
present 0.019601855 -0.045662917 -0.037163116 0.00042284653 0.026958141 -0.025769472 -0.038553108 0.022284817 0.02322309 -0.023809826 0.0063229576 0.027030978 -0.008009553 0.029835824 -0.048091162 -0.04268756 0.027169239 -0.017231632 0.0022509918 -0.0049726255 0.03735887 -0.008059323 0.003996156 0.023320172 -0.03718717 0.046936724 0.00048156828 -0.032271493 0.03763331 -0.013036799 -0.04812608 0.041562352 -0.044839203 0.025778484 -0.015043031 -0.03997481 0.023652483 0.032933366 0.02892885 0.013292085 -0.009663142 0.0046974793 -0.04083681 0.046149317 -0.022763764 0.03256123 0.048181046 -0.006935738 0.040207494 0.046882022 0.035258267 -0.049400665 0.039167654 0.027721215 -0.004209362 0.032181647 0.0436345 0.0023301952 -0.043940283 0.033932056 0.0046304837 0.029882338 0.017946873 -0.038278162 -0.027289713 -0.04980725 -0.00068787485 -0.011111997 0.029703591 -0.006151665 -0.028085852 -0.028515566 -0.0034220926 0.034343455 0.038447034 0.018511463 -0.0052280053 -0.01527667 -0.020543015 -0.004528962 -0.034158252 0.029205251 0.04025889 -0.038716674 0.0028165951 0.00088101625 3.690645e-05 -0.039299406 -0.0060718544 0.022458743 -0.01314237 0.00703001 0.020784367 -0.007573914 -0.039941598 0.039255824 -0.013061561 -0.010155477 0.04236028 -0.013073813
systematically 0.04913241 0.04569142 -0.010165274 -0.015259694 0.019641366 0.029789578 0.027562287 -0.044253647 -0.03579707 0.046566714 -0.03205868 0.011322893 0.043178786 -0.02760967 0.047550764 -0.017324768 0.04043374 0.026908923 0.04573374 0.0050103553 0.034114305 0.029172692 0.037582483 -0.017680693 0.008998502 -0.0024839528 0.012515333 -0.02971369 -0.039652754 0.019214239 -0.031735197 -0.02925167 -0.044724178 0.0061380044 -0.0074226856 0.044503476 -0.022577167 -0.0027973056 -0.01930884 -0.010514475 0.0031491742 0.03103942 0.047893774 -0.01970594 0.049277965 -0.0057182796 -0.022588586 -0.004999269 -0.011797678 0.040952 -0.039148428 0.04964104 0.020919982 -0.023601055 -0.031010998 -0.036129285 0.006480731 0.009899892 -0.014672555 0.0024619587 0.0061853155 0.0018383376 0.027615156 0.017626796 -0.041447602 0.04359195 -0.0073268637 0.032952104 0.030453477 -0.0015056133 -0.018470012 0.029590715 0.03805988 -0.007808961 -0.03903451 -0.042055465 0.046890367 -0.0006785616 -0.006044388 -0.006071508 -0.043333557 -0.028245224 -0.0016592629 0.012221027 0.027353678 -0.0047553405 -0.004271984 0.005210042 -0.018510737 -0.03529968 -0.015223037 0.007752061 0.024566416 0.045138683 -0.012756515 -0.018842889 0.00111413 0.0104573965 0.014184024 0.008477796
word 0.0285195 0.0023898855 -0.038253438 -0.014054738 0.012936246 -0.03158728 0.0032174475 -0.031227553 0.03694563 -0.041330718 -0.028398884 0.04716191 -0.045399964 -0.013493884 -0.012716092 -0.043269824 -0.0013301373 -0.01632198 0.020396102 -0.04528879 0.0016390793 0.020592641 0.019881997 -0.0013961084 -0.03754791 -0.04281647 -0.017613806 -0.045185246 -0.04397844 -0.019784868 -0.0025198683 0.03481031 0.04837786 -0.015615441 0.04252963 -0.026209211 -0.0069925897 -0.012226522 -0.024236297 0.027383734 0.015582029 -0.0042323954 -0.00064306334 0.03342979 -0.033869185 0.015311208 -0.0047104135 -0.028969467 0.037158016 0.041924145 0.043723736 0.030600075 0.041319612 0.029897157 -0.03712647 0.048102114 -0.035804976 0.013205711 0.008360527 -0.017295144 0.0009052381 -0.003025949 -0.049122225 0.041279923 -0.020102084 -0.0015161037 0.042298567 0.04905987 0.02029946 -0.04242685 -0.007662941 0.017883506 0.012501966 0.0023107044 0.0024067648 -0.01703415 -0.04456191 0.04017717 0.027670477 -0.012788188 -0.038994957 0.019236218 0.04885799 0.017610375 0.042556737 -0.02327354 0.042902317 -0.04869021 -0.00023903698 -0.0007881634 -0.04360056 -0.0051714666 -0.008752264 -0.019951964 0.016587604 0.004618861 -0.038230397 -0.01657293 -0.025124645 0.0013224259
been -0.011737097 0.0060666203 0.049029138 -0.046065476 0.042069856 -0.019495238 -0.0066643134 -0.013018619 -0.042273056 0.048353884 8.88817e-05 0.009789564 -0.022506237 0.013629388 0.023387957 0.02903248 -0.041558493 -0.0331959 -0.013222624 -0.0019023642 -0.033388782 0.018334296 -0.009447835 0.0236496 -0.010292459 0.004724659 -0.00037808344 0.021221709 -0.019567192 0.040594984 0.0013024583 0.026078414 0.024148826 -0.026915455 -0.030713368 0.026312087 -0.003986668 -0.01229497 0.005555272 0.00028700754 0.016617242 -0.021839404 0.04345495 -0.0033274293 0.003661953 0.015828539 0.04356393 -0.017262936 -0.0046273693 0.02427708 0.024799075 0.036374655 0.044828843 -0.03920146 -0.029412305 -0.042661894 0.03411415 0.0189032 -0.033868693 0.02068131 -0.015282214 -0.020042647 -0.049906816 0.04121865 -0.037427284 0.018068288 -0.022926033 0.02500483 -0.019105077 0.0077871904 -0.048655808 0.0078106523 -0.039703153 -0.037595738 0.04234736 -0.006002344 0.02479745 -0.012700021 0.0014946349 -0.038228642 -0.037296187 -0.010421168 -0.017632376 0.033567164 0.027760837 0.009998001 -0.024113107 -0.034152307 0.033798125 -0.030286277 -0.013531517 0.018283907 0.015330028 0.0375895 0.034939516 -0.028676296 0.043033686 0.04541346 0.005643405 -0.012313902
has -0.020558596 0.044761907 0.042100858 -0.039611947 -0.04500345 0.0011020079 0.013751101 -0.016120683 -0.004799187 0.037488665 0.005571354 -0.01084163 -0.005106915 0.03394318 -0.0064369217 0.045527462 -0.020546412 0.04031216 -0.0004844889 0.03911538 0.04158597 -0.03714285 -0.0049871206 0.0447709 0.023374584 -0.003115356 -0.025066912 -0.03364501 -0.040768422 -0.019099057 -0.007075608 0.03567559 0.010408066 -0.029538786 -0.04454262 0.020632137 -0.016121112 0.019645963 0.04456191 -0.015996315 0.0011605397 0.04722664 0.014284063 -0.0037120953 0.002842106 0.028421167 0.024356637 -0.048577618 0.02943695 0.023040209 -0.025978243 0.04302254 0.04634073 0.033965115 -0.02731601 0.01861525 -0.010490559 0.0071025267 -0.041789126 -0.034752943 0.049537186 -0.04907012 -0.013678979 -0.027816474 0.041844096 -0.008988213 0.032401767 0.03895439 0.04556067 0.013277996 -0.0139881 -0.0015871152 -0.030259693 -0.0007455833 -0.0421386 -0.016383242 0.03114475 -0.00024072081 0.010629259 0.043647733 -0.014407385 0.011485647 0.04764651 -0.015981711 -0.014974318 -0.025055934 0.025432136 -0.043040693 0.04617535 -0.017511167 0.045824025 -0.044738796 0.042677823 -0.003962446 0.025983486 -0.021047164 0.049899172 0.013341699 0.040468242 0.03389192
led -0.009103656 -0.022862136 -0.009204149 -0.011768736 0.021292653 0.017672408 -0.026158571 0.03596094 -0.036067974 -0.008113395 0.009338271 -0.02987342 -0.012412477 0.010693051 0.039452974 -0.036646627 0.046115387 0.033747982 -0.00364523 -0.019140625 0.04405297 -0.026453568 -0.030397667 -0.041414153 -0.011446439 -0.032445073 -0.006324254 -0.014042925 -0.032840658 -0.010868143 -0.009417426 0.009259354 0.038928736 0.026474569 -0.031062245 0.03654969 0.027950194 -0.012695096 -0.047015 -0.00014710426 0.0189402 -0.022154188 0.0010233633 -0.032368936 -0.047839522 0.049751703 -0.03536532 0.044796493 -0.015126906 -0.025538802 -0.017147623 0.03291476 0.015685175 -0.011446606 0.011251509 0.019457046 0.016700093 -0.014282942 -0.031298697 -0.045875907 0.006872691 -0.03222491 0.019543242 0.029998366 -0.042612743 0.00057297945 0.013244282 -0.02292502 0.014768746 -0.014057517 -0.029757774 0.03632805 0.028823722 -0.027262438 -0.0202919 0.013514902 -0.031585086 -0.046848763 0.014435079 0.018503908 -0.017385244 -0.007874966 0.03903791 -0.049215972 -0.03501936 0.011284076 -0.0049305074 0.039909746 0.03960843 -0.03450327 -0.04991745 0.03823599 -0.010411955 0.044762168 -0.010380149 0.040731873 0.04767679 -0.040532123 0.013084244 0.03276049
literature -0.02927295 -0.042481434 -0.04814383 0.03765439 -0.026624382 0.038991485 -0.046750702 -0.03496028 0.047867563 -0.017279517 0.023657512 -0.027566124 0.039523635 0.013250437 0.016960133 0.035071377 -0.018825162 -0.049708556 0.035726134 -0.010589816 0.013033453 -0.010892104 -0.036998987 -0.04433156 0.016092945 0.043517087 -0.022429002 0.048424874 0.01918671 -0.02283665 0.021730531 0.024737705 -0.020479178 -0.033567596 0.023052726 -0.027701473 0.040966693 0.0017335415 0.04031242 -0.046988465 -0.030374933 -0.034956384 0.04124972 -0.033386372 0.024775397 0.032659147 0.039045874 -0.036928426 0.0128043555 -0.020932019 0.021195676 -0.00028137118 -0.0054432154 0.039445136 0.022872392 0.0065253265 0.046416316 0.017471518 -0.021800889 0.021177124 0.04360256 -0.049126457 -0.0046314597 -0.01968739 -0.029670669 -0.01491686 0.039324116 -0.030036628 -0.018280663 0.04534551 0.0067680366 0.0019535422 0.010693837 0.037805606 -0.008225929 -0.04342797 -0.008039106 0.009399056 -0.010584809 -0.017878722 -0.015452862 -0.018021654 -0.03647002 0.018665615 0.043275107 0.035716835 -0.009403717 0.03843165 0.016230915 -0.0055221803 -0.029228115 0.02727772 -0.032391835 -0.041315783 -0.037407804 0.04133344 -0.025889074 0.029426161 -0.025494719 0.036125172
misleading 0.043368947 0.045884456 0.022067178 0.011720788 -0.023676598 -0.047246266 0.04441729 0.021757375 0.04584864 -0.03297732 -0.029996967 0.011949111 -0.0018841028 0.04116949 0.040333997 0.04529771 0.032561395 -0.020441318 0.0065914877 -0.01472671 -0.024079634 -0.0038838498 -0.029648626 -0.012569737 0.0427328 0.033894215 -0.00019478798 0.022499215 -0.004031636 -0.03271623 0.03442121 -0.0051512606 -0.004514374 -0.017176878 0.013367448 -0.024681164 -0.0067431442 -0.018060349 0.007816505 -0.014256835 0.03448062 -0.026753962 -0.031590417 0.006583154 0.035977844 0.021034624 0.0030939355 -0.010942232 0.024631668 0.00880184 0.033245955 0.031553138 0.04877151 0.037463132 0.024827007 -0.018205117 -0.036873423 -0.03204012 -0.01056055 -0.00825442 -0.01158607 0.043270182 0.013674628 -0.033364788 0.014415894 -0.039955176 -0.00017478317 0.036313806 0.014066402 -0.002537202 0.005888045 0.04839683 0.0013338923 -0.02964046 -0.040251564 0.043585684 0.010991633 0.038039397 0.007039916 -0.0019894354 0.04413983 -0.031761743 0.034297455 0.04005554 0.04232732 -0.032354973 -0.048540283 0.020684984 0.01501577 0.019433606 0.030271653 0.031129573 -0.018635236 -0.026641846 0.032535087 -0.03660183 -0.0011635199 0.03009576 -0.017046522 -0.01010735
